Version 8.5.0
Id 
Min label:-50
Max label:50
bits:18
lda:0
1 ngram:2 
0 skip:
options: --hash_seed 0 --link identity
Checksum: 2307498046
:0
Constant:116060:0.0710748
text^00ashmash:68236:-0.122907
text^00ashmash^نکته:228025:-0.0651265
text^01ucjspw3b:158674:0.0459408
text^0903_869:227062:-0.0454832
text^0903_869^وقتی:201956:-0.0454832
text^09psbou2ml:170429:-0.0377098
text^09sdbhwsxh:26209:0.0514131
text^0_sefrmotlagh:262054:-0.109211
text^0_sefrmotlagh^خود:93427:-0.0596941
text^0_sefrmotlagh^شرمنده:164112:-0.0638638
text^0ahmadi0:166507:0.0744548
text^0ahmadi0^سوسولش:172588:0.0744548
text^0p4axu8q3l:99294:0.0484779
text^0rcaz9y46i:51739:0.0457144
text^0sspzcbymj:255804:0.0435307
text^0ts70oqzl3:58087:-0.0636396
text^0x007a:78024:-0.0503714
text^0x007a^xorpex:69867:-0.0503714
text^0xjzvtgup5:93114:-0.041112
text^100:44680:-0.0524393
text^100^بچه:55103:0.0492422
text^100^درصد:210304:-0.053335
text^100هزار:142528:0.0384856
text^100هزار^دلار:246089:0.0384856
text^101gholami:245428:0.0659914
text^101gholami^سؤال:159675:0.0659914
text^110:44690:-0.0586355
text^110^زنگ:16749:-0.031947
text^110^نیرو:77728:-0.0342747
text^114:44694:0.0480713
text^114^mentions:178665:0.0480713
text^1359:45939:-0.0368659
text^1359^1367:90146:-0.0368659
text^1367:45947:-0.0368659
text^1367^هزار:185774:-0.0368659
text^1400:45980:0.0713656
text^1400^ساله:97256:0.0387013
text^146:44726:0.0551757
text^146^mentions:153993:0.0551757
text^1500:46080:0.0535978
text^1500^مردم:43377:0.0535978
text^160:44740:0.0504158
text^160^کود:84793:0.0504158
text^1982:46562:0.0350658
text^1982^حمله:127014:0.0350658
text^1996:46576:0.0563075
text^1996^اسرائیل:156565:0.0563075
text^1998:46578:0.0434078
text^1998^جنایت:42163:0.0350658
text^1alas57hkw:261969:0.0795056
text^1gmdkok31b:255573:0.0711735
text^1hoseim:91314:-0.132702
text^1hoseim^تولدش:177515:-0.0765886
text^1hoseim^دادی:148267:-0.0661714
text^1hoseim^قدر:67778:-0.0535984
text^1jkbofruf6:100972:-0.0781338
text^1kruczynsky:142995:-0.0622296
text^1kruczynsky^خیلی:29923:-0.0622296
text^1n8bzusdeb:70302:0.0790656
text^1osfix2aw7:228069:0.0561462
text^1pzqkb5nor:18704:-0.0379796
text^1qo5dfp2mb:235171:0.0707953
text^1r2vyfzwpr:159964:0.0754947
text^1rnjlvt7yq:175349:-0.0524174
text^1wfq0hreve:248255:0.0625483
text^2006:46586:-0.0204473
text^2006^حمله:174046:0.0350658
text^2014:46594:0.0350658
text^2014^حمله:102342:0.0350658
text^2018:46598:0.0978361
text^2018^است:221350:0.0379404
text^2018^جنایت:256119:0.0350658
text^2018^روسیه:225616:0.0606768
text^2030:46610:-0.0375786
text^2030^گرفته:201873:-0.0375786
text^21سال:157361:-0.0339265
text^21سال^طول:149773:-0.0339265
text^241:44821:0.0551757
text^241^retweets:192115:0.0551757
text^254:44834:0.0392422
text^254^585:130311:0.0392422
text^255:44835:0.0480713
text^255^retweets:1097:0.0480713
text^25yp3kgnaj:39139:0.0515378
text^264fo1vfa1:29236:0.0297789
text^290:44870:0.0504158
text^290^سالیانه:255128:0.0504158
text^2ije75zln7:123834:-0.0695765
text^2la7qjhpya:258568:-0.063353
text^2whte0v7yq:142287:0.0369616
text^2wjnpdscdx:156205:0.0564806
text^300:44880:0.0869428
text^300^میلیونی:94688:0.0960127
text^30سال:255585:0.0480568
text^30سال^زیرساختهای:24139:0.0480568
text^3624:48204:0.0487604
text^3624^دلار:126629:0.0487604
text^37ysbq9kka:153391:0.0510718
text^38qbyhupbx:121363:-0.0377605
text^3cb6ngjcpj:13618:0.0548814
text^3cjnhpwe1g:204262:-0.0646849
text^3e7bsxktxi:157601:-0.0370166
text^3enw8g5mk6:70791:-0.0462463
text^3jgr6rcfrw:114331:-0.041506
text^3jrsev9ezd:247694:0.0608073
text^40zusmwm73:76285:-0.0693871
text^44lvbktfrb:90324:0.054212
text^46uaromar6:98045:-0.0410081
text^4gf9vi7wol:93150:0.0736926
text^4lhqjkwlmy:141888:0.0596083
text^4m3qexmnw6:35713:0.0498318
text^4theistcreature:213931:0.191882
text^4theistcreature^westfalen_09:173066:0.100555
text^4theistcreature^راستی:46701:0.0577233
text^4theistcreature^عزیز:226363:0.058766
text^4theistcreature^هرچی:70147:0.0624733
text^4wibvassga:7922:0.038018
text^585:45165:0.0392422
text^585^تعداد:118973:0.0392422
text^5pwzcgnei4:256373:0.0802147
text^5yr8flp5af:116281:0.0561774
text^6av4a5teujmyxbe:130265:0.0724512
text^6av4a5teujmyxbe^خوشگلی:117989:0.0724512
text^6drf5mo8hw:213413:0.0862572
text^6fcwqeseea:163191:-0.0648537
text^6lrg5r4y3q:151119:0.029319
text^6national_front:234729:-0.192732
text^6nhlb5jdla:109497:-0.0644024
text^6zgpevdj0u:74810:0.065678
text^710:45290:-0.0368659
text^710^تعداد:79942:-0.0368659
text^72k:164296:0.0480713
text^72k^likes:38731:0.0480713
text^78ioirzk9y:190923:0.0786772
text^79wfbxeutt:123503:0.0787371
text^7amky82sfa:252553:-0.0809802
text^7fo38kbkx4:133631:0.0336071
text^7hodwuwa6b:250368:0.0666225
text^7jingel:194040:0.0277857
text^7jingel^zahrahb:127761:0.0277857
text^7mfzl8swcb:123704:0.075109
text^7oaikaxcbx:112697:0.0778664
text^7qquw2zlki:13305:0.0821617
text^7sjpsvlepu:32590:-0.0517943
text^7yk3okizjy:260863:-0.0591183
text^8000:52580:0.038325
text^8000^کرده:240799:0.0988106
text^80millionagainsttrump:197986:0.0951883
text^81cli4u0ep:226001:0.0463924
text^81cli4u0ep^https:102679:0.0463924
text^834bvergsj:129349:0.0566285
text^8500:53080:0.038325
text^8500^سکه:25881:0.038325
text^8f6k3irupj:132405:-0.0503714
text^8iqsizc4xf:172017:0.0673287
text^8ixby478o7:215685:-0.0463982
text^8qicoclnvv:258439:-0.0407994
text^8retro:207127:-0.0734018
text^8retro^لطفا:138849:-0.0734018
text^93i39xowm1:108797:-0.054838
text^94k:4460:-0.00289523
text^94k^likes:162911:0.0551757
text^98sam_h:160372:-0.0825404
text^98sam_h^رضا:194072:-0.0825404
text^9bqadrxyum:129649:0.0772524
text^9qnfvt5y3p:13738:-0.0466281
text^9xmvehe4ranidmx:173222:-0.0528237
text^9xmvehe4ranidmx^shahinnajafi80:205605:-0.0828962
text^9ymjqsczzy:89678:-0.049976
text^9ymjqsczzy^https:145312:-0.00496421
text^9yvjy9mu0h:115291:-0.0773511
text^_30rooss_:61696:0.07058
text^_30rooss_^khanomirany:195097:0.0277857
text^_30rooss_^nasimm1212:184613:0.067109
text^_____sina____:139797:-0.067797
text^_____sina____^keykhoon:109819:-0.067797
text^__m_ar_j__:80941:-0.0483221
text^__m_ar_j__^حالا:237958:-0.0483221
text^_alirezza:17561:-0.0484968
text^_alirezza^mahadjefri2:80762:-0.0484968
text^_bi_ta_:133002:-0.0937201
text^_bi_ta_^ازین:26870:0.0373555
text^_bi_ta_^بیتا:116084:-0.0402889
text^_bi_ta_^شاید:77804:-0.0332414
text^_ghasedak:19782:0.0877313
text^_ghasedak^freemaysam:210522:0.0669389
text^_gholizadeh_:172793:0.0727674
text^_gholizadeh_^همه:177235:0.0565224
text^_mar_yam__:211732:-0.0453223
text^_mar_yam__^بابا:61643:-0.0795655
text^_masoum_:181657:0.0946351
text^_masoum_^mosafer_ir:53669:0.0293086
text^_mrpolitician:218151:0.0752513
text^_mrpolitician^مشکل:169146:0.0752513
text^_parhamam_:202943:0.0617927
text^_parhamam_^bravegiiirl:211112:0.0293086
text^_parhamam_^بوس:185636:0.0511609
text^_psychsocial_:85767:0.0863092
text^_psychsocial_^wendychidester:47201:0.0863092
text^_rezrez_:97805:-0.0635855
text^_rezrez_^فتنه:161956:-0.0635855
text^_آخه:70758:0.0496836
text^_آخه^ساندویچ:140479:0.0496836
text^_آموزان:95304:-0.0487053
text^_آن:237677:0.0577923
text^_آن^چیست:2528:0.0577923
text^_بعد:190942:0.0331474
text^_بعد^رای:90774:0.0331474
text^_بی:6583:0.0577923
text^_بی^bbcshameonyou:181990:0.0577923
text^_حتی:152606:0.0621119
text^_حتی^بیشتر:30611:0.0621119
text^_دنبال:100032:-0.048134
text^_دنبال^رفع:61498:0.0331474
text^_سر:207081:-0.0245614
text^_سر^ماجرای:72448:0.105876
text^_صدر:95603:0.0335371
text^_صدر^بعد:59840:0.0335371
text^_میگن:156843:0.0331474
text^_میگن^توصیه:91933:0.0708701
text^_نتانیاهو_:217467:0.0842092
text^_نتانیاهو_^بحران_آب:83731:0.0377863
text^_هیئت:137396:0.0331474
text^_هیئت^سعید:167932:0.0331474
text^_که:83939:0.0311855
text^_که^حتما:211447:0.0311855
text^a_gholhaki:54069:0.116982
text^a_gholhaki^تنها:121947:0.0595598
text^a_gholhaki^نفوذی:94070:0.0497223
text^a_gholhaki^کاوه:10624:0.0606597
text^a_seyfi_hodhod:124705:0.113965
text^a_seyfi_hodhod^el_gigino_97:2754:0.0277857
text^a_seyfi_hodhod^اتفاقا:177644:0.0344441
text^a_seyfi_hodhod^خبرها:246998:0.0538178
text^aa_yzd:235842:-0.0497558
text^aa_yzd^خانم:251023:-0.0497558
text^aadamebnehavva:108991:0.0994115
text^aadamebnehavva^alisan313:26916:0.0277857
text^aadamebnehavva^https:221773:0.0790906
text^aadamebnehavva^israelpersian:51915:-0.0802476
text^aadamebnehavva^j1nne:194610:0.0511609
text^aadamebnehavva^حرفها:233955:0.0745772
text^aadamebnehavva^دیدیم:189417:0.0639942
text^aadamebnehavva^متاهلم:104714:0.0673933
text^aadamebnehavva^میگن:126979:0.0570091
text^aalamin693:216647:0.0673147
text^aalamin693^جالبه:238756:0.0673147
text^aamiizbenvis:80156:-0.0819262
text^aamiizbenvis^lavita_m92:52603:-0.0536744
text^ab23ejfmbc:29164:-0.0482382
text^abarat_1099:204246:0.0685509
text^abarat_1099^خودش:109264:0.0685509
text^abasanti666:242665:0.0277857
text^abasanti666^tub67:216808:0.0277857
text^abdollahram:258507:0.217803
text^abdollahram^mowlaverdi:259087:0.217803
text^abdozzahra18:139639:0.0858856
text^abdozzahra18^نقد:51232:0.0489063
text^abedishahroudi:260701:0.0738743
text^abedishahroudi^دارک:244896:0.0738743
text^abolfazl46:240430:-0.0612809
text^abolfazl46^خیلی:151058:-0.113718
text^abookomeil2:55504:0.0913474
text^abookomeil2^fatimah_1727:28637:0.0897519
text^abookomeil2^hani_hashami:148611:0.0759512
text^abooreyhan1:226078:0.0776591
text^abooreyhan1^ربطی:190752:0.0776591
text^abtin54298263:147864:-0.0360634
text^abtin54298263^رسانه:102753:-0.0360634
text^abuheyran:200970:-0.0397925
text^abuheyran^doctorequalizer:66601:0.0277857
text^accidentally:254935:-0.0747817
text^accidentally^https:224261:-0.0747817
text^add:12051:-0.0629651
text^add^twibbon:51801:-0.0629651
text^adelian_darab:60128:0.11048
text^adelian_darab^t_alidoosti:16455:0.11048
text^adicean:154819:-0.056001
text^adicean^حالا:179652:-0.056001
text^afaghemaghrebi:145450:-0.0659822
text^afaghemaghrebi^الان:236498:-0.0659822
text^afsaranir:76800:0.110727
text^afsaranir^اصل:189898:0.0705948
text^afsaranir^راس:13744:0.0591908
text^afsharmahnaz:87518:0.11048
text^afsharmahnaz^mostafatajzade:123477:0.11048
text^agha_zan:117252:0.0293086
text^agha_zan^salmanrood:37113:0.0293086
text^aghajoon1983:239062:0.0705928
text^aghajoon1983^دوباره:183589:0.0705928
text^aghaye_rishoo2:43037:0.0490671
text^aghaye_rishoo2^آقا:165588:0.0490671
text^aghbahman:51125:-0.0804343
text^aghbahman^hossein891:241438:-0.03453
text^aghbahman^بخش:78457:-0.0382873
text^aghbahman^برن:51143:-0.0464565
text^agho_hamsade:39249:-0.0707723
text^agho_hamsade^حالا:237082:-0.0707723
text^aghpourya:177129:-0.0465462
text^aghpourya^وثیقه:259137:-0.130117
text^agparanoid:9735:0.0750912
text^agparanoid^جونم:133687:0.0750912
text^agxcrhhj93:163843:-0.0851899
text^agxcrhhj93^via:226666:-0.0421094
text^ahmaddastaran:179556:0.13381
text^ahmaddastaran^احسنت:122163:0.104182
text^ahmaddastaran^دقیقا:79362:0.0765283
text^ahmadrezabeyzai:145540:0.259435
text^ahmadrezabeyzai^israelpersian:175996:0.0991849
text^ahmadrezabeyzai^این:159984:0.0587922
text^ahmadrezabeyzai^برا:202200:0.0717951
text^ahmadrezabeyzai^دانشگاه:189727:0.0560046
text^ahmadrezabeyzai^قبول:11178:0.0750549
text^ahmadrezabeyzai^قشنگ:85739:0.0576223
text^ahmadrezabeyzai^والا:75830:0.0659886
text^ahmatagha:222912:-0.0558316
text^ahmatagha^febrahimzade:43075:-0.0558316
text^ahumgz8bvp:69318:0.0565749
text^aiiwass:215974:-0.0517336
text^aiiwass^jeanvaljean65:258670:-0.0406393
text^aiiwass^rezayounesi4:122741:0.039357
text^ajf9drimfm:134761:0.0539828
text^ajibzade:130334:-0.268378
text^ajibzade^tanasoli:217316:-0.160128
text^ajibzade^teradiator:92493:-0.0797298
text^ajibzade^اسفند:32727:-0.0471125
text^ajibzade^اصلاحات:132016:-0.03944
text^ajibzade^تاجزاده:240650:-0.0604084
text^ajibzade^حالا:191411:-0.0676541
text^ajibzade^نمیکنم:238124:-0.0505445
text^akbarnasr:244930:-0.0909944
text^akbarnasr^حالا:16583:-0.0465376
text^akbarnasr^وضعیت:66954:-0.0702472
text^alaavi_1983:116356:0.0503649
text^alaavi_1983^جایی:101008:0.0503649
text^albarsalan15:252746:-0.0829038
text^albarsalan15^setareh2538:175084:-0.0829038
text^albert_camus11:180600:-0.0617294
text^albert_camus11^لطف:65899:-0.0617294
text^albert_parsi:68294:-0.106054
text^albert_parsi^hasti69685743:150161:-0.0497724
text^albert_parsi^mrs__cuthbert:177412:-0.0765553
text^alef_vav:89362:0.0839674
text^alefemoghavemat:164668:0.139642
text^alefemoghavemat^بسیار:224250:0.0705316
text^alefemoghavemat^فرمودین:159806:0.0475971
text^alefemoghavemat^نگفتید:22897:0.0513468
text^alehabib:122907:0.133187
text^alehabib^بله:142754:0.0756861
text^alehabib^رسانه:150744:0.0789135
text^ali99467795:163314:0.0157462
text^ali99467795^بازم:176270:0.0741022
text^ali_rajabi:237679:0.0625584
text^ali_rajabi^بعضی:214214:0.0625584
text^ali_shariatti:129428:-0.0928482
text^ali_shariatti^john_lucckk:10607:-0.0342916
text^ali_shariatti^mitrabi:149732:-0.0673501
text^alib1767:48957:0.0550509
text^alib1767^عدد:65441:0.0550509
text^alilawyer87:167528:0.0231493
text^alilawyer87^mojtaba_alaiee:13869:0.0293086
text^alilawyer87^قذافی:189316:-0.0753412
text^alilawyer87^چرا:221601:0.04863
text^alinejad:151208:-0.0422443
text^alinejad^has:220396:-0.0422443
text^alinejadmasih:126384:-0.168101
text^alinejadmasih^اره:157779:-0.0422789
text^alinejadmasih^اولا:78775:-0.0362982
text^alinejadmasih^این:19820:-0.0373858
text^alinejadmasih^ببین:7817:-0.034034
text^alinejadmasih^دمت:92803:-0.0714716
text^alinejadmasih^مانتوش:218031:-0.0113066
text^alinejadmasih^نفر:33746:-0.0591414
text^alinshahab:79985:-0.0642874
text^alinshahab^فیدیبو:75118:-0.0642874
text^alireza535:126114:-0.0322143
text^alireza535^nasrinrose1:256401:-0.0322143
text^alireza_arad:250716:-0.169543
text^alireza_arad^john_lucckk:17431:-0.0619109
text^alireza_arad^jumpavocado:151925:-0.0497724
text^alireza_arad^این:137320:-0.0514646
text^alireza_arad^خارج:17:-0.0493972
text^alireza_arad^خواسته:88835:-0.0601452
text^alireza_d_gh:25979:0.0493333
text^alireza_d_gh^khamenei_fa:72185:0.0673881
text^alireza_miry:141886:-0.059602
text^alireza_miry^ربطی:91072:-0.059602
text^alirezaaghasi:9955:-0.0993834
text^alirezaaghasi^ardeshir:79435:-0.0563199
text^alirezaroashan:84800:-0.0578979
text^alirezaroashan^هشتگ:20846:-0.0578979
text^alirezashirazi:213568:0.0717491
text^alirezashirazi^دیگه:192878:0.0717491
text^alirezat:144573:-0.0533153
text^alirezat^البته:135468:-0.0533153
text^alirezateymour:177399:-0.0530735
text^alirezateymour^مذاکره:37623:-0.0530735
text^alisan313:66401:0.0277857
text^alisan313^azarbayjaniam:51617:0.0277857
text^aliseidabadi:198683:-0.0897113
text^aliseidabadi^بله:177570:-0.0527111
text^aliseidabadi^صرف:34455:-0.0733909
text^almayadeennews:119750:0.0640239
text^almayadeennews^https:94008:-0.00756045
text^ameramin61:122778:0.0577833
text^ameramin61^خیر:72344:0.0577833
text^ameripardis:249211:-0.103514
text^ameripardis^davwvod:44145:-0.0664951
text^ameripardis^kevinmiston:46926:-0.0633839
text^ameripardis^keykhoon:47305:-0.109715
text^amfhqqzlmz:204355:-0.0404994
text^amin_assadi:27811:0.0560557
text^amin_assadi^shahmiran18:61642:0.0277857
text^amin_assadi^sp_hos:219343:0.0520997
text^aminbozorgian:171456:-0.0995367
text^aminbozorgian^ارادت:144719:-0.0816169
text^aminbozorgian^امین:223201:-0.0447053
text^aminhadjaran:155016:-0.0725193
text^aminhadjaran^شما:15857:-0.0725193
text^aminkh64641:195173:0.112516
text^aminkh64641^fathalichah:226864:0.0511609
text^aminkh64641^مریم:152458:0.0754539
text^aminomidi1370:13159:-0.0530793
text^aminomidi1370^zeynab_taheri:112527:-0.0530793
text^aminsam:121993:-0.138853
text^aminsam^شما:204270:-0.0373864
text^aminsam^فقط:82911:-0.0635861
text^amir13874278:73260:0.0518802
text^amir13874278^سلام:262091:0.0518802
text^amir__najafi:241754:0.0695328
text^amir__najafi^oldchosan:148449:0.0277857
text^amir__najafi^رحمت:70113:0.0749564
text^amir_ali_irani:44071:-0.0753942
text^amir_ali_irani^مصاحبه:109053:-0.0753942
text^amirai08280594:26993:-0.0497724
text^amirai08280594^ashobmotlagh:82984:-0.0497724
text^amiralisafa:262014:0.0589416
text^amiralisafa^مارو:209556:0.0589416
text^amirebtehaj:235247:-0.0732739
text^amirebtehaj^البته:136342:0.0131242
text^amirihosein1358:217112:0.0293086
text^amirihosein1358^haem313:202463:0.0293086
text^amiromidnejad:135201:0.0438684
text^amiromidnejad^فضای:41506:0.0438684
text^amirpersis:246266:-0.0689075
text^amirpersis^ایفون:170526:-0.0689075
text^amiss_96:2804:0.150853
text^amiss_96^b_vajeh:105157:0.0277857
text^amiss_96^siib_saa:58638:0.032213
text^amiss_96^خیلی:7360:-0.00503206
text^amiss_96^گفتم:37370:0.0789389
text^amiwindow:224122:-0.0550934
text^amiwindow^خیر:55032:-0.0550934
text^anahitadelavari:179367:-0.0711648
text^anahitadelavari^نباید:34201:-0.0711648
text^and:124353:0.0100242
text^and^the:139778:0.0446325
text^and^unable:6014:-0.0422443
text^anesherliiii:94993:-0.0626556
text^anesherliiii^زیر:6083:-0.0626556
text^anneshrly:206778:-0.146108
text^anneshrly^لعنتی:34484:-0.0666344
text^anneshrly^نوش:5090:-0.0690797
text^annette_riviere:241739:-0.0658814
text^annette_riviere^بعضی:131378:-0.0658814
text^annigl7tgk:210954:0.0492422
text^anonymousnejad:94008:-0.00756045
text^anonymousnejad^6national_front:171841:-0.0817486
text^anrm8ozqi0:222827:-0.052843
text^ansarii_rahim:257420:0.11574
text^ansarii_rahim^شرف:117233:0.061832
text^ansarii_rahim^مردی:220272:0.0717347
text^anti_oligarchie:116504:0.0519611
text^anti_oligarchie^ms_jahanbakhsh:57263:0.0519611
text^antiisraeli:32793:0.0504158
text^antiisraeli^اونوقت:248307:0.0504158
text^anu5tcawi1:212398:-0.0763569
text^aqamohamadlu:220134:0.0719699
text^aqamohamadlu^gkolangi:257702:0.0719699
text^aragorn2k16:2214:-0.0844148
text^arash_8200:182108:-0.0721572
text^arash_8200^نگرانن:187077:-0.0721572
text^arash_safa2:200874:-0.0827309
text^arash_safa2^بوخودا:84377:-0.0827309
text^arash_tehran:158739:-0.127499
text^arash_tehran^استراحت:195476:-0.071381
text^arash_tehran^کور:134588:-0.104592
text^arashbahmani:90811:-0.0616483
text^arashbahmani^فیروزآبادی:261468:-0.0794845
text^arashbahmani^گفتگو:78145:-0.0596473
text^ardeshir:209908:0.0181934
text^ardeshir^آقای:192944:-0.0563199
text^ardeshir^منتقل:85205:-0.0646538
text^are:223690:0.0631113
text^are^hostile:89262:0.000693176
text^are^still:191982:0.0150078
text^aref_che:127057:0.0616308
text^aref_che^habil:191600:0.0616308
text^arefe:193235:-0.0138024
text^arefe^پارسال:211201:-0.072311
text^arezo_khedmati:162067:0.0293086
text^arezo_khedmati^agha_zan:17867:0.0293086
text^arezzzuu:184804:-0.0694543
text^arezzzuu^همون:166197:-0.0694543
text^ario251:142617:-0.0988845
text^ario251^هستی:12138:-0.0436768
text^arma1026:188613:0.102998
text^arma1026^zeynab_taheri:54645:0.0714641
text^arma1026^همونطور:181318:-0.0683764
text^armindrg11:14085:-0.122031
text^armindrg11^sahandiranmehr:214253:-0.122031
text^ars08hnzeq:18745:0.0798823
text^arsalan1989jly:178471:-0.0360634
text^arsalan1989jly^abtin54298263:213283:-0.0360634
text^artlover1367:105143:-0.0684686
text^artlover1367^وبسایتش:116085:-0.0684686
text^artmis_irani:133208:0.0293086
text^artmis_irani^meisam_1:241860:0.0693484
text^aryaraad:15606:-0.0763645
text^aryaraad^اعسار:245114:-0.0763645
text^asafikhani:215983:-0.054839
text^asafikhani^بابا:200186:-0.054839
text^asayehh:228612:-0.0419571
text^asayehh^همه:9522:-0.0419571
text^ased_moji:130760:0.0707167
text^ased_moji^خیلی:148804:0.0707167
text^ashegeiran:244153:0.0603898
text^ashegeiran^وحدت:73104:0.0603898
text^ashii_mashii:181744:0.0821524
text^ashii_mashii^عالی:191278:0.0821524
text^ashkan_hn:56752:0.0844453
text^ashkan_hn^لقمه:194785:0.0541747
text^ashobmotlagh:160635:-0.0142534
text^ashobmotlagh^اره:103922:-0.0827142
text^ashobmotlagh^داستان:219864:-0.0497724
text^ashourinia:234300:-0.0729624
text^ashourinia^شاید:14038:-0.0729624
text^asromautd:43754:-0.0369238
text^asromautd^قواعد:7528:-0.0369238
text^atahmasebizadeh:39899:-0.0562602
text^atahmasebizadeh^فکر:99695:-0.0562602
text^atash_111:123390:-0.0666135
text^atash_111^اگه:5863:0.0043906
text^atreyaas:224226:-0.0420772
text^atreyaas^اسرائیل_آبدزدک:64857:0.0814745
text^aucf4823fw:88582:0.0800682
text^away:14897:0.0380397
text^away^the:251058:0.0380397
text^ayalchi:55440:-0.0708228
text^ayalchi^mahditajik61:183368:-0.0708228
text^ayatollah:7071:0.0380397
text^ayatollah^ruhollah:143989:0.0380397
text^aybbb75:157855:0.0444856
text^aybbb75^خانمی:7436:0.0444856
text^ayyaripeyman:9555:-0.056916
text^ayyaripeyman^بابا:70926:-0.056916
text^az_deyaresalman:216538:0.0811547
text^az_deyaresalman^آمین:168532:0.0619035
text^azaadeekh:147892:-0.0551368
text^azaadeekh^کیف:57048:-0.0551368
text^azad_e_khodemun:181457:-0.0790981
text^azad_e_khodemun^bahmandaroshafa:39636:-0.0790981
text^azadehiiii:132501:0.113043
text^azadehiiii^خخخخخ:232916:0.0779876
text^azadehiiii^چون:242031:0.0675757
text^azadi_313kh:80321:-0.0429044
text^azadi_313kh^keramati013:36080:0.00535744
text^azamheshmati:238245:-0.0726297
text^azamheshmati^elahekhyegane:92882:-0.0186585
text^azamheshmati^این:143245:-0.038315
text^azamrasti:147052:-0.0704894
text^azamrasti^فکر:84668:-0.0704894
text^azarbayjaniam:235204:0.0277857
text^azarbayjaniam^sayed_gandhi:87603:0.0277857
text^azardokhtp:102669:-0.114766
text^azardokhtp^عزیز:75285:-0.0459471
text^azarijahromi:253213:-0.0855748
text^azarijahromi^https:126515:-0.0855748
text^azematt:118971:-0.071959
text^azematt^دوسال:191050:-0.0467328
text^azematt^چطور:189940:-0.0413431
text^azm3bvmwro:118177:-0.040315
text^b_vajeh:202657:0.0277857
text^b_vajeh^ebi_mh63:1352:0.0277857
text^babackashtari:40300:-0.0722992
text^babackashtari^ممنونم:179195:-0.0722992
text^babak_1992:171813:-0.0752956
text^babak_1992^زیر:251783:-0.0752956
text^babakkarbasi:240799:0.0988106
text^babakkarbasi^عقب:3600:0.0677423
text^babakzakeri:75053:-0.0967004
text^babakzakeri^رشته:253942:-0.0576855
text^babakzakeri^متأسفانه:62862:-0.0899818
text^badeh_mastaneh:135238:-0.0600101
text^badeh_mastaneh^اینا:157036:-0.0600101
text^bademjoonekoh:88001:0.109412
text^bademjoonekoh^israelpersian:31429:0.109412
text^bahadorina:89825:-0.0589091
text^bahadorina^منم:3164:-0.0589091
text^baharnarenj1984:131132:-0.0418115
text^baharnarenj1984^اصلا:19967:-0.0418115
text^bahmandaroshafa:195655:-0.0790981
text^bahmandaroshafa^ممنون:259598:-0.0790981
text^bakht_bargashte:84884:-0.0820589
text^bakht_bargashte^همچنین:12415:-0.0820589
text^baladokhtar:115199:-0.0720455
text^baladokhtar^i_par_:87695:-0.0720455
text^balalhashari:2149:-0.0900383
text^balalhashari^diyare_habiib:3937:-0.0900383
text^banafshehjamali:233805:-0.0460449
text^banafshehjamali^marshafipour:255557:-0.0460449
text^banafshepalangi:111472:-0.0543917
text^banafshepalangi^موضوعی:195943:-0.0543917
text^banisadr:201199:-0.0501184
text^banisadr^اپوزیسیون:188425:0.0123738
text^baniyaghub:103088:-0.115811
text^baniyaghub^جواب:261926:-0.058852
text^baniyaghub^وای:16793:-0.0108987
text^barandazim:253932:0.112215
text^barandazim^دیگه:37994:0.0646753
text^barandazim^میگیم:13186:0.0280168
text^barani_m7:74480:-0.045624
text^barani_m7^آره:200970:-0.0397925
text^bayusaan_ir:16162:0.0693639
text^bayusaan_ir^سیعلم:222312:0.0693639
text^bbc:111298:0.0655491
text^bbc^اونجافهميدم:120117:-0.0301628
text^bbc^بودن:240655:0.0369822
text^bbc^رادیوزمانه:235656:-0.0371498
text^bbc^زدن:177423:0.0369822
text^bbcfardad:237839:-0.0923445
text^bbcfardad^nahaangard:13972:-0.0714523
text^bbcfarnaz:252504:-0.134881
text^bbcfarnaz^marzie_r:238423:-0.168642
text^bbcfarnaz^سردرد:21180:-0.0777935
text^bbcshameonyou:104715:0.448027
text^bbcshameonyou^https:143465:0.0777673
text^bbcshameonyou^میزنیم:192110:0.040121
text^bbcshameonyou^چیه:256341:0.0369822
text^been:223454:0.0147019
text^been^sentenced:193432:-0.0422443
text^behdune:125797:-0.0503714
text^behdune^توی:201234:-0.0503714
text^behnammousivand:108517:-0.0530793
text^behnammousivand^بپرسید:50564:-0.0530793
text^behnood_naderi:92125:0.0475142
text^behnood_naderi^گردن:115943:0.0639887
text^behnoudmasoud:70338:0.10524
text^behnoudmasoud^https:81476:0.0798499
text^beilishofficial:168796:-0.0613649
text^beilishofficial^soleymun:167357:-0.100175
text^bellatrix_z:259932:-0.0548515
text^bellatrix_z^چون:75546:-0.107836
text^bemanad_:106871:0.162428
text^bemanad_^rrghadi:54238:0.06907
text^bemanad_^شورای:131522:0.0747243
text^bemanad_^ممنون:161406:0.0825062
text^beniami22001999:2795:0.0799396
text^beniami22001999^مردم:944:0.0799396
text^betjjevetu:17210:-0.0358695
text^bhpinwgwlj:257239:0.0556492
text^bi_mazze:213810:-0.0743231
text^bi_mazze^طرح:45188:-0.0743231
text^biataberavim:120257:0.11089
text^biataberavim^نفرت:91864:0.0636517
text^biataberavim^کینه:204119:0.0696724
text^biggest:30628:0.0523579
text^biggest^fans:215060:0.0523579
text^bigvania22:15740:-0.0772536
text^bigvania22^امسال:216961:-0.0634615
text^bigvania22^جدای:125838:-0.0327097
text^bih379avha:106830:0.0562149
text^bijani2016:47213:0.0684238
text^bijani2016^mstwti:3667:0.0277857
text^bijani2016^این:38453:0.065337
text^binam06653024:145424:-0.0640349
text^binam06653024^انتقاد:4425:-0.0640349
text^bjtmdumc9w:221302:-0.0558959
text^blue_berry_93_:233247:-0.0105823
text^blue_berry_93_^fathalichah:84482:0.0277857
text^blyvbxuyd9:173308:0.0798009
text^bnovljpwd6:223141:-0.0340318
text^boiereihan:28028:-0.155854
text^boiereihan^farahmand__:242023:-0.0883297
text^boiereihan^ابوالقاسم:115325:-0.0596897
text^boiereihan^دلیلی:54999:-0.0399237
text^boiereihan^قطعا:196654:-0.0551472
text^boiereihan^چشم:95707:-0.0583147
text^boloorkhanoom:120388:-0.0469702
text^boloorkhanoom^سال:56264:-0.0469702
text^bonneytariin:261943:-0.247771
text^bonneytariin^alinejadmasih:191243:-0.0658481
text^bonneytariin^اره:16062:-0.109044
text^bonneytariin^افتاده:44551:-0.0684283
text^bonneytariin^الان:262059:-0.121517
text^bonneytariin^ببین:128244:-0.0366658
text^bonneytariin^بدبینی:200987:-0.0415655
text^bonneytariin^حالا:129640:-0.0874174
text^bonneytariin^رنگ:47893:-0.0578597
text^botshekan110:206791:0.0710857
text^botshekan110^این:64039:0.0594087
text^botshekan110^نگرد:215348:0.0601076
text^botshekan110^کانالی:82975:0.0817523
text^botshekan110^کتاب:218751:0.0594139
text^bravegiiirl:73701:-0.0497524
text^bravegiiirl^hoseinghashghae:45653:-0.0999518
text^bravegiiirl^yavarmahdy:81624:0.0293086
text^brother_vahid:197892:0.0716898
text^brother_vahid^mim_cheee:236979:0.122057
text^bu3bcne70z:98177:0.0480713
text^bvvafakhah:186712:-0.0464565
text^bvvafakhah^aghbahman:78765:-0.093481
text^bwhhoctheg:141801:0.0577763
text^bwhhoctheg^endofisrael:100114:0.0577763
text^bzdxj3ylgy:141203:-0.0605483
text^c1amin:178968:0.0786164
text^c1amin^منو:54339:0.0786164
text^c4b8x3iozh:26805:0.0768031
text^c7cyskquoy:15625:-0.0612323
text^capilluus:94930:-0.132535
text^capilluus^این:202758:-0.0703739
text^capilluus^خواهش:214753:-0.0630193
text^capilluus^خوش:5466:-0.0484116
text^cddhacgfpb:120872:0.0450276
text^cddwhfcqhc:38428:0.042813
text^ceremony:136503:0.0336647
text^ceremony^the:225696:0.0506724
text^cgimrcohho:77805:-0.0389722
text^chaamroosh:210478:-0.0572845
text^chaamroosh^زورم:11168:-0.0572845
text^chapii78:244464:-0.108252
text^chapii78^پیرو:200674:-0.0707637
text^cheshmaak:237933:0.193369
text^cheshmaak^30سال:236314:0.0480568
text^cheshmaak^امان:194905:0.0773091
text^cheshmaak^لزوما:1624:0.0689624
text^cheshsefidod:207081:-0.0245614
text^chiralko:88257:-0.0489212
text^chiralko^اینها:214775:-0.0489212
text^chissttaa:81992:-0.0646538
text^chissttaa^manahejazi:53074:-0.0646538
text^chpveam5pm:102086:0.0703759
text^christians:242499:0.0446325
text^christians^and:8952:0.0446325
text^claviah:32938:-0.0570211
text^claviah^هرکی:59974:-0.0570211
text^cpsc9pcfug:220862:0.063642
text^crvsyc4iko:248433:0.0616023
text^cu6ordwrbe:194460:0.0545981
text^cvgfqsihtq:73541:0.0749531
text^cw62ucqqlh:104284:-0.0583319
text^d0a2v3i0d:113914:-0.0939425
text^d0a2v3i0d^diyare_habiib:201378:-0.0517947
text^d6ifhue02b:159905:-0.0183547
text^d9cnqgksbg:246558:0.0451646
text^da_fallen_angle:243035:-0.0130697
text^daadylongleg:199173:-0.057253
text^daadylongleg^yousefi_taha:110675:-0.057253
text^dajedkzgy6:181621:-0.0426311
text^dalghak_:201206:0.0793593
text^dalghak_^عوضش:248429:0.0793593
text^danesh_talab:168480:0.149652
text^danesh_talab^اونو:74298:0.0554785
text^danesh_talab^دعا:118704:0.0636145
text^danial_418:77545:-0.0994938
text^danial_418^molhed_mhmd:194993:-0.0537561
text^danial_418^فدات:107047:-0.0677752
text^daraseman9:93527:0.0778197
text^daraseman9^اینا:97081:0.0778197
text^darhambaaf:192485:0.273363
text^darhambaaf^ashegeiran:203530:0.0603898
text^darhambaaf^daroshafaeij:202554:0.0685172
text^darhambaaf^بهمن:144567:0.0356032
text^darhambaaf^شاید:99803:0.0373259
text^darhambaaf^شماست:200583:0.0712679
text^darhambaaf^فرض:90141:0.0480703
text^darhambaaf^نخوندیم:246084:0.0822548
text^darhambaaf^واقعا:171174:0.088417
text^dariushitter:183820:0.0572595
text^dariushitter^ابله:239287:0.0572595
text^dariushm:183173:-0.0619915
text^dariushm^البته:193748:-0.0619915
text^dariushtusi:162706:-0.0636305
text^dariushtusi^لطف:83229:-0.0636305
text^darkddandy:48706:-0.0592216
text^darkddandy^بلاکش:225947:-0.0592216
text^darksheeprise:95153:-0.0172675
text^darksheeprise^دقیقا:68635:-0.0476255
text^daronosh:166603:-0.0607388
text^daronosh^xman00700:152551:-0.0607388
text^daroshafaeij:243177:0.0192921
text^daroshafaeij^این:108993:0.039751
text^daroshafaeij^بله:33336:0.0433913
text^darrellwhitelaw:38726:-0.0469089
text^darrellwhitelaw^iranwire:168839:0.00459557
text^darshmanehhiwa:187130:-0.0728451
text^darshmanehhiwa^مانا:99709:-0.101683
text^daryajam:223971:-0.0849458
text^daryakavoos:115537:0.0788797
text^daryakavoos^drcode0:261972:0.0637912
text^daryakavoos^این:149897:0.0653258
text^davezarei:19642:-0.0590975
text^davezarei^pensylvani:253527:-0.0590975
text^davwvod:26082:-0.252859
text^davwvod^اقا:212643:-0.0947093
text^davwvod^برای:125530:-0.0597185
text^davwvod^داوود:244528:-0.0670247
text^davwvod^محاکمه:141468:-0.0473412
text^davwvod^میرزا:84236:-0.0664951
text^davwvod^نگو:151484:-0.0716345
text^davwvod^هوم:164768:-0.0724183
text^davwvod^گیر:214048:-0.0647408
text^dehkhodaaa:194694:-0.117253
text^dehkhodaaa^لطف:29249:-0.0647927
text^dehkhodaaa^چشم:30397:-0.0840121
text^delavaar:238326:0.118882
text^delavaar^خنده:169110:0.0697849
text^delavaar^مدتی:194292:0.0679084
text^delavaremajazi:7131:-0.0759584
text^delavaremajazi^منم:173934:-0.0759584
text^deldadeharshi:173239:0.0928259
text^deldadeharshi^diyare_habiib:132203:0.0711885
text^deldadeharshi^صدر:96728:-0.00307225
text^deppstyl:71890:-0.0900494
text^deppstyl^اره:16621:-0.0692941
text^deraakwordpress:41990:-0.0730188
text^deraakwordpress^یعنی:209708:-0.0907356
text^derazebaghavare:257709:-0.0780094
text^derazebaghavare^saiyron:68815:-0.0780094
text^dfordonya:49382:-0.108117
text^dfordonya^صبح:91871:-0.0929004
text^dfordonya^مردم:4287:-0.0123344
text^dg8v8j3gd0:164122:-0.0898544
text^died:151018:-0.0747817
text^died^accidentally:195609:-0.0747817
text^dinoeshgh:22577:0.0942381
text^dinoeshgh^ینی:226542:0.0747794
text^diyare_habiib:96144:-0.124833
text^diyare_habiib^aiiwass:144630:-0.0406393
text^diyare_habiib^ajibzade:58990:-0.0505445
text^diyare_habiib^idrisest1:246493:-0.031047
text^diyare_habiib^john_lucckk:146299:-0.0826795
text^diyare_habiib^joker_character:33081:-0.0657294
text^diyare_habiib^kazemi92:194664:-0.0429044
text^diyare_habiib^این:4044:0.0711885
text^dmqn4vvgqa:169290:0.046828
text^dno9smvbmz:82626:0.0778751
text^dnravi23:230589:-0.0433717
text^dnravi23^rgnwre:108868:-0.0433717
text^doctorequalizer:103751:0.0277857
text^doctorequalizer^bijani2016:50072:-0.0561145
text^doctorolala:218238:-0.0548515
text^doctorolala^whitehorse77777:261670:-0.0548515
text^dodoozeh:156971:-0.0647927
text^dodoozeh^john_lucckk:180650:-0.0647927
text^dojman_adl:183983:-0.131881
text^dojman_adl^اومدیم:125753:-0.0892907
text^dokhtarehaftab:198945:0.0784695
text^dokhtarehaftab^tkcuphdhyxsvcsr:58097:0.0784695
text^domb_owl:129664:-0.057253
text^domb_owl^daadylongleg:105093:-0.057253
text^dontentertainoccupation:182766:0.0424033
text^dontentertainoccupation^علیه:212457:0.0424033
text^donyaafshar:132404:-0.0505445
text^donyaafshar^tanasoli:210594:-0.0505445
text^donyarad:37859:-0.0716597
text^donyarad^قربونت:75725:-0.104945
text^doroshkechi1:69205:-0.05808
text^doroshkechi1^شما:42122:-0.0378063
text^dorsajalalian:21286:-0.0697156
text^dorsajalalian^رگل:5173:-0.0697156
text^down:213021:-0.0708143
text^down^she:159482:-0.0623777
text^downwithusa:252616:0.0619062
text^downwithusa^شنیده:4999:0.0619062
text^dpmix5yn6n:132903:0.0583792
text^dr_frankeshtein:70665:-0.0740768
text^dr_frankeshtein^اما:198298:-0.0550818
text^dr_frankeshtein^مرگ:46808:-0.0376837
text^drcode0:187463:0.0293086
text^drcode0^ebrahimiavval:200368:0.0293086
text^drdramoray:20809:-0.0734018
text^drdramoray^8retro:244284:-0.0734018
text^drneo07:202695:-0.18993
text^drneo07^احتمالا:6736:0.0061036
text^drneo07^اینجاش:217266:-0.0747734
text^drneo07^بله:670:-0.0597456
text^drneo07^فکر:183723:-0.0581323
text^drneo07^پیداش:134804:-0.0410832
text^drneo07^چشم:46586:-0.0204473
text^dt3e0xtqqd:15773:-0.0663043
text^du1drgvcxp:235477:0.0801502
text^ducyntfxke:181491:-0.0350154
text^dukckj8z4r:219121:0.0681471
text^dustydesertrose:50344:-0.113778
text^dustydesertrose^دوباره:113327:-0.0665684
text^dustydesertrose^میدونم:121253:-0.0678939
text^dvzuhh6rik:209770:0.0714734
text^dw_persian:140411:-0.0666979
text^dw_persian^darrellwhitelaw:55509:-0.0469089
text^dxkteooy45:33735:-0.0361045
text^e2a22b2nj2:94348:0.0110743
text^e5zyd8vga3:251398:0.0569325
text^e8wquizqyl:230305:0.0463924
text^each:86341:0.0380397
text^each^muslim:206988:0.060861
text^eaquq2twce:188340:0.0566336
text^ebi2498:261914:-0.126814
text^ebi2498^lavita_m92:115073:-0.126814
text^ebi_mh63:118571:0.0277857
text^ebi_mh63^tirelessrunner:102789:0.0277857
text^eblilus:209582:0.0714641
text^eblilus^arma1026:163515:0.0714641
text^ebne_farsi:197423:-0.0588772
text^ebne_farsi^بار:235220:-0.0588772
text^ebrahimiavval:252037:-0.0424112
text^ebrahimiavval^elahetalebzade:210521:0.0293086
text^ebrahimiavval^john_lucckk:137628:-0.0895277
text^eby6lmimne:149231:0.0523579
text^eby6lmimne^https:260797:0.0523579
text^edgarsrinkevics:213064:0.0702688
text^edgarsrinkevics^endofisrael:50933:0.0259803
text^efegpoeuxw:143341:0.0548921
text^efk03zpdau:119985:0.0798499
text^egqz8lhppy:7221:0.039242
text^ehsan_rastgar:251407:0.0585731
text^ehsan_rastgar^تبریک:140138:0.0585731
text^ehsanbodaghi:54258:-0.0279994
text^ehsanbodaghi^اینایی:218130:0.0727541
text^ehsanbodaghi^یعنی:221032:-0.0678867
text^ek6lbuifrl:3439:0.0714687
text^el_gigino_97:49957:0.0277857
text^el_gigino_97^monsieur_leon:1233:-0.0555249
text^elahekhyegane:25025:-0.0588058
text^elahekhyegane^اگه:28318:-0.0588058
text^elahenajafi2:74305:-0.0761759
text^elahenajafi2^ویدئوش:36408:-0.0761759
text^elahetalebzade:28392:0.0293086
text^elahetalebzade^eqoeqoe:80972:0.0293086
text^elelnaz:44966:-0.100702
text^elelnaz^inazkam:174689:-0.0654232
text^elelnaz^این:157066:-0.0636151
text^elhamfakhari:104042:-0.0614184
text^elhamfakhari^خانم:91415:-0.0332539
text^elia12420:253753:0.136726
text^elia12420^yaminpour:209033:0.0796442
text^elia12420^اوه:119055:0.0781714
text^elia12420^جای:38486:-0.0999846
text^elika7091:120752:-0.071255
text^elika7091^واقعا:42053:-0.071255
text^ellyaghakhani:120339:-0.128408
text^ellyaghakhani^امید:179316:-0.0811035
text^ellyaghakhani^سلام:181014:-0.0789014
text^ellyaswan:207009:0.0705314
text^ellyaswan^اگه:227838:0.0705314
text^emad_bahavar:49947:-0.0928482
text^emad_bahavar^شما:95288:-0.0673501
text^emad_bahavar^فقط:236073:0.0273828
text^emamkhamenehee:15471:0.0751369
text^emamkhamenehee^خودشه:209987:0.0751369
text^emelianozpt:107171:-0.0497724
text^emelianozpt^albert_parsi:219613:-0.0497724
text^emrtat71:83154:0.0757533
text^emrtat71^پناه:59705:0.0757533
text^endofisrael:24525:0.579511
text^endofisrael^holocaust:160334:0.0425518
text^endofisrael^https:153123:0.477067
text^endofisrael^يوم_القدس_مسيرة_العودة:71587:0.24608
text^enghelabi_57:138221:0.218624
text^enghelabi_57^famil_door:182585:0.119191
text^enghelabi_57^tahamajidii:139114:0.133512
text^enghelabi_57^واقعا:142:0.0646893
text^ensafvamorovat:8257:0.0583129
text^ensafvamorovat^جهنمی:208842:0.0583129
text^entekhab_news:14569:0.070976
text^entekhab_news^دولت:134984:0.070976
text^entex:14785:-0.0577004
text^entex^دوست:108940:-0.0577004
text^enzxxg05vk:159985:0.0770652
text^ephmcs3qke:23930:-0.0556312
text^eqoeqoe:16644:0.0958121
text^eqoeqoe^_parhamam_:51635:0.0293086
text^eqoeqoe^ahmaddastaran:28248:0.114192
text^eqzq4bacng:123069:0.0611454
text^eshnooo:261873:-0.0931527
text^eshnooo^فحاشی:72428:-0.0400266
text^eshnooo^واقعا:183170:-0.0721799
text^eshraghyazar:51430:0.0667453
text^eshraghyazar^jedaaal:76911:0.0832407
text^esmaeilijalal:213328:0.0398691
text^esmaeilijalal^بله:19203:0.0398691
text^esmailifarshad:59572:-0.0654232
text^esmailifarshad^لابد:119919:-0.0654232
text^estebdadsetiz:134663:-0.0445354
text^estebdadsetiz^صورت:208354:-0.0445354
text^esyl8z99lb:112210:-0.0591644
text^etiwgaohqn:24491:0.0795031
text^exchs7qcgo:184050:0.0114467
text^ezsdqxciph:65473:-0.0447217
text^f51jxnm64t:139701:0.0853466
text^f51jxnm64t^https:153707:0.0691855
text^f_panahi88:209183:0.0633993
text^f_panahi88^نوشته:37423:0.0633993
text^f_s_amirkhani:212348:0.106178
text^f_s_amirkhani^اصلاحطلبا:107218:0.033441
text^f_s_amirkhani^همسرتون:80097:0.0680453
text^fa_na_mim:36456:0.0740632
text^fa_na_mim^khanomirany:190945:0.0740632
text^faaribba:238235:-0.117581
text^faaribba^نام:69800:-0.0614478
text^fada_banoo:229223:0.110854
text^fada_banoo^mhrezaa:202227:0.071637
text^fada_banoo^nafisemousavii:210378:0.0676508
text^fadak11011:172914:0.0636807
text^fadak11011^pariaf128:43874:0.0636807
text^famil_door:132096:0.299356
text^famil_door^enghelabi_57:4077:0.0646893
text^famil_door^fotros139:7832:0.0293086
text^famil_door^hj_petros:141516:0.0698379
text^famil_door^sp_hos:89016:0.0511609
text^famil_door^تعارف:190671:0.0512431
text^famil_door^حالا:192781:0.0440121
text^famil_door^داداش:197421:0.0627526
text^famil_door^عالی:65790:0.0770247
text^famil_door^فتل:108214:0.0722435
text^famil_door^میدونم:70557:0.0507968
text^famil_door^والله:237779:0.0447772
text^famil_door^کله:250242:0.0867284
text^famil_door^گوسفند:140981:0.0621377
text^famil_door^یعنی:58686:0.0646531
text^family:172773:-0.0127234
text^family^https:214235:-0.0422443
text^fans:137984:0.0523579
text^fans^this:140004:0.0523579
text^fantasticreload:96779:-0.0655589
text^fantasticreload^روز:65301:-0.0655589
text^farahmand__:191963:-0.117047
text^farahmand__^boiereihan:144107:-0.0399237
text^farahmand__^https:115193:-0.108395
text^farahmand__^بچه:81990:-0.0476668
text^faranak_amidi:256718:-0.130301
text^faranak_amidi^https:70176:-0.0773638
text^faranak_amidi^loscheshahram:61455:-0.0360301
text^faranak_amidi^sharqekhish:110593:-0.0715551
text^farda88888:126488:-0.0352976
text^farda88888^sadafbanooo:126579:-0.0819038
text^farhadnmk:149961:0.0585695
text^farhadnmk^hamidrasaee:55783:0.0585695
text^faridattarzade:175147:-0.00607884
text^faridattarzade^نام:82936:-0.0667228
text^faridebrahimi62:151482:-0.0696919
text^faridebrahimi62^jeanvaljean65:141874:0.0511609
text^faridebrahimi62^برادر:34183:-0.0553182
text^faridebrahimi62^بنظرم:226722:-0.0568375
text^farideghaeb:62793:-0.146189
text^farideghaeb^movafard:192517:-0.111565
text^farnoud_xorsand:77331:-0.0603292
text^farnoud_xorsand^نسل:254580:0.0238432
text^farshid_ghzpour:229633:-0.0532561
text^farshid_ghzpour^یادته:133206:-0.0532561
text^farshid_ms:185817:-0.0617518
text^farshid_ms^v_oiceofsilence:70404:-0.0617518
text^farshidabed:144346:-0.013829
text^farshidabed^اینقده:114195:-0.0115968
text^farzad_az:158480:-0.0663043
text^farzad_az^leylisdghi:96960:-0.0663043
text^farzanegholami:142972:0.0293086
text^farzanegholami^famil_door:165004:0.0293086
text^farzaneh46400:35854:0.0657377
text^farzaneh46400^اینجا:228244:0.0657377
text^fateme_28:244059:0.090669
text^fateme_28^قبول:246821:0.192422
text^fateme_kz:216547:0.160797
text^fateme_kz^yaminpour:42635:0.0522331
text^fateme_kz^خواهش:58030:0.0790737
text^fateme_kz^فکر:153431:0.051067
text^fatemehazizi8:192742:-0.0763569
text^fatemehazizi8^برای:179534:-0.0763569
text^fatemehbeykpour:78503:-0.0510595
text^fatemehbeykpour^این:145799:-0.0510595
text^fatemehooraa:154336:0.0293086
text^fatemehooraa^ممنونم:42911:0.0293086
text^fatemehrahmaty7:241212:0.0703518
text^fatemehrahmaty7^yaminpour:121472:0.0703518
text^fatememehraban:248398:0.0918844
text^fatememehraban^_30rooss_:256022:0.0277857
text^fatememehraban^آخه:212468:-0.0038565
text^fatemmola:166698:0.0794806
text^fatemmola^دقیقا:178864:0.0794806
text^fatf:150751:0.172004
text^fatf^fatf_بدتر_از_برجام:56247:0.0470073
text^fatf^no2fatf:124727:0.0791288
text^fatf^اظهارنظر:215890:-0.0510171
text^fatf^رای:38547:0.0599303
text^fatf^قراره:206885:0.0470073
text^fatf_بدتر_از_برجام:48980:0.0470073
text^fatf_بدتر_از_برجام^https:213646:0.0781274
text^fathalichah:242783:0.0983495
text^fathalichah^_parhamam_:32418:0.0511609
text^fathalichah^geniuser:184444:0.0277857
text^fathalichah^ممنون:165318:0.0676508
text^fatimah_1727:223821:0.203149
text^fatimah_1727^abookomeil2:168681:0.0759512
text^fatimah_1727^hani_hashami:194828:0.0897519
text^fatimah_1727^منم:9752:0.0714117
text^fatimah_1727^های:13130:0.123263
text^fatimah_1727^یاد:112871:0.0419777
text^fd0sfprsms:102649:0.0767296
text^febrahimzade:203907:-0.123421
text^febrahimzade^تویت:82655:-0.0558316
text^fencer1979:56053:-0.0617518
text^fencer1979^farshid_ms:83450:-0.0617518
text^ferferijan:234598:-0.084649
text^ffnightlight:261300:-0.0791586
text^ffnightlight^فینگیلی:171409:-0.097925
text^ffu16kma2l:144493:0.0552283
text^fhsqaegd75:88156:0.0524858
text^fingilipafingil:131588:-0.0664782
text^fingilipafingil^بستنی:180243:-0.0664782
text^firoozy_raz:46258:0.117257
text^firoozy_raz^fateme_kz:121293:0.0712573
text^firoozy_raz^حتما:140938:0.0767733
text^fjamalpour:239464:-0.0671749
text^fjamalpour^yelmjouie:59499:0.0186052
text^fled:167452:-0.0200808
text^fled^her:171052:-0.0422443
text^fmahdipour:53362:0.122997
text^fmahdipour^دوران:258578:0.0724104
text^fmahdipour^مبارک:109975:0.0890847
text^footballworldcup2018:164351:0.0506724
text^footballworldcup2018^for:118378:0.0506724
text^for:110951:-0.0101605
text^for^letting:25133:-0.0422443
text^for^several:85389:0.0506724
text^fotros139:141976:0.0329334
text^fotros139^fatememehraban:164486:0.0277857
text^fotros139^jeanvaljean65:81816:0.0293086
text^fp0oojmrmx:113466:-0.0602009
text^frb78pluji:115866:0.0446464
text^freedom92979546:233625:-0.110436
text^freedom92979546^منم:85812:-0.0320644
text^freemaysam:110636:0.0877313
text^freemaysam^zahrahb:174197:0.0877313
text^freethinker02:101469:-0.0720602
text^freethinker02^دقت:57442:-0.00579898
text^fshossseini:90868:0.0534782
text^fshossseini^بیش:208702:0.0534782
text^ftdxy0xw90:205434:-0.0600286
text^ftu01:114615:0.0863092
text^ftu01^_psychsocial_:232162:0.0863092
text^fuckreligious:102735:-0.0782481
text^fuckreligious^patric_jane7:17230:-0.0782481
text^fwnietzsshe:167901:0.135577
text^fwnietzsshe^حقوقی:65322:0.0150864
text^fwnietzsshe^شاید:245235:0.0825896
text^fzoqyre0laxvclc:70093:0.0808744
text^fzoqyre0laxvclc^شتتتت:252888:0.0808744
text^g72u9yulwm:10146:-0.0527251
text^gavaazn:48560:-0.220701
text^gavaazn^ajibzade:46094:-0.0604084
text^gavaazn^saman0018:4541:-0.0541401
text^gavaazn^اصن:193115:-0.0843363
text^gavaazn^توییت:222746:-0.06424
text^gavaazn^دیگه:143134:-0.0472971
text^gavaazn^صداقتشون:56078:-0.0421036
text^gavaazn^نرفتی:40832:-0.0767923
text^gavaazn^همینجاست:195309:-0.0823479
text^geniuser:92825:0.0277857
text^geniuser^abasanti666:198942:0.0277857
text^gepihtfkaz:150349:0.0519366
text^ghaafffaaar:234364:-0.0767807
text^ghaafffaaar^خيلي:227130:-0.0767807
text^ghadimimehdi:167900:-0.124014
text^ghadimimehdi^mohmohajeri:79409:-0.111909
text^ghadimimehdi^کلا:141271:-0.0750248
text^ghasema61:7185:0.235516
text^ghasema61^bbcshameonyou:94680:0.0826388
text^ghasema61^sadeghzibakalam:55224:0.0642001
text^ghasema61^السلام:44086:0.0725973
text^ghasema61^جسارت:169807:0.0786269
text^ghasema61^خدا:84429:0.0621892
text^ghazinouri:100324:-0.0575805
text^ghazinouri^قطعن:136902:-0.0575805
text^gholamrezadana1:120593:-0.0814994
text^gholamrezadana1^بلی:26180:-0.101351
text^ghonchehgh:166644:-0.0709287
text^ghonchehgh^باید:141642:-0.0709287
text^gi8zb97uh7:178747:-0.0707036
text^gi8zb97uh7^https:81113:-0.0707036
text^gilakr:135027:0.0635682
text^gilakr^اگر:130875:0.0635682
text^giletohid:232672:-0.0760201
text^giletohid^marmaladovv:3287:-0.0760201
text^gisborideh96:150121:-0.0684898
text^gisborideh96^واقعا:164122:-0.0898544
text^gitoool:69077:-0.0777498
text^gitoool^نگرفتم:118231:-0.0777498
text^giwphrvswa:161188:-0.0562695
text^gjb4uqejwq:184298:0.0783532
text^gjk1skm3xg:198610:0.036833
text^gkolangi:226392:0.0719699
text^gkolangi^توی:48697:0.0719699
text^gkykh1wreu:135886:-0.0786078
text^glhasfpiw3:244393:0.045783
text^gordan_shahadat:7910:0.0804209
text^gordan_shahadat^زنده:25924:0.0804209
text^gqe5iq3ccd:173553:0.0786927
text^gringottsboss:77780:-0.0583319
text^gringottsboss^mahenoghree:38667:-0.0583319
text^gswildkksd:202267:-0.0605391
text^h2qvywqtem:152980:-0.0492062
text^h4l7gvxjy4:108373:0.0689281
text^h5kd5lzkua:46298:0.0186842
text^h_abdolmanafi:136368:0.103902
text^h_abdolmanafi^seyyedkarimi:90669:0.0520997
text^h_abdolmanafi^نظر:5872:0.0742815
text^h_hajipour60:96019:-0.0350373
text^h_hajipour60^یادمه:160021:-0.0350373
text^h_saye18:217949:0.0723644
text^h_saye18^خدایا:34164:0.0723644
text^habibhmt:143884:0.0816902
text^habibhmt^ابالفضل:90960:0.0816902
text^habil:86115:0.20424
text^habil^sabeti_twt:129367:0.0621017
text^habil^smrasnafi:169440:0.1254
text^habil^الان:67623:0.0610895
text^habil^دارم:136428:0.0616308
text^hadiisajjadi:109517:-0.191326
text^hadiisajjadi^این:236565:-0.0592276
text^hadiisajjadi^عزیز:38357:-0.0467429
text^hadiisajjadi^گذاشتم:15733:-0.0695215
text^hadisaborian:115577:-0.155311
text^hadisaborian^عزیزم:136138:-0.0681659
text^hadisaborian^مردم:159750:-0.0771905
text^hadisaborian^وابستگیم:176879:-0.0580902
text^haem313:20263:0.089137
text^haem313^varesh313:199997:0.0293086
text^haem313^پولشم:63871:0.0790035
text^hair:156837:-0.0422443
text^hair^down:131886:-0.0092956
text^haj_ali_potter:2878:0.0714663
text^haj_ali_potter^israelpersian:182606:0.0714663
text^haj_franc:131412:0.0520997
text^haj_franc^remisa77:106706:0.0520997
text^haj_komeil:55427:0.108577
text^haj_komeil^hj_petros:213571:0.0293086
text^haj_komeil^اگر:29707:0.0528362
text^haj_komeil^تقصیر:13609:0.0667453
text^haj_mehdii:48288:-0.0429044
text^haj_mehdii^diyare_habiib:90544:-0.0429044
text^halvlid:114905:-0.0470622
text^halvlid^بله:233832:-0.0470622
text^hamed_pahlevani:239724:0.000787027
text^hamed_pahlevani^حامدجان:56488:0.037649
text^hamedaskari777:64615:0.0277857
text^hamedaskari777^خبره:214367:-0.0663019
text^hamedhm437:127383:-0.0603292
text^hamedhm437^farnoud_xorsand:78926:-0.0603292
text^hamedm0304:243907:-0.0820068
text^hamedm0304^تشکر:68430:-0.0820068
text^hamidk00041483:103239:-0.0638638
text^hamidk00041483^missi007xy:228902:-0.00554085
text^hamidm72:133082:0.0769877
text^hamidm72^خوب:10346:0.0769877
text^hamidnooroozy1:63696:0.0749078
text^hamidnooroozy1^بنگاه:261527:0.0749078
text^hamidrasaee:242242:0.0585695
text^hamidrasaee^تایملاین:182831:0.0839716
text^hamidreza136933:25573:0.0749305
text^hamidreza136933^mhrezaa:142969:0.0749305
text^hammbhayav:244380:-0.0562023
text^hamonmehrjooee:157789:-0.066924
text^hamonmehrjooee^لطف:81340:-0.066924
text^hani_hashami:81651:0.158618
text^hani_hashami^mzr1370:185752:0.0277857
text^hani_hashami^siib_saa:191505:0.166373
text^hanie686978:238501:0.21665
text^hanie686978^tiiddrog94:81290:0.0384547
text^hanie686978^اگر:224421:0.0456972
text^hanie686978^ایشون:192055:0.0359266
text^hanie686978^اینم:62334:0.0535866
text^hanie686978^ببخشید:85758:0.0218941
text^hanie686978^بخاطر:141466:0.0301037
text^hanie686978^متوجه:205581:0.0346202
text^hanie686978^نوشته:125085:0.0382008
text^hanie686978^وقتی:8663:0.0350617
text^hanie686978^چیزی:81472:0.0387611
text^hardcoratheist:15179:-0.0630042
text^hardcoratheist^زیبا:118293:-0.0630042
text^has:213220:-0.0101605
text^has^killed:144078:0.0216443
text^has^paid:196052:-0.0422443
text^hasan23006691:143598:-0.0374176
text^hasan23006691^اگر:84426:-0.0374176
text^hasanpormoo:97185:0.0735732
text^hasanpormoo^همین:3148:-0.00552376
text^hashtagdowle:107472:0.0634724
text^hashtagdowle^خیلی:212524:0.0634724
text^hasti69685743:228579:-0.0497724
text^hasti69685743^mr__whiplash:182181:-0.0497724
text^hastivk:225488:-0.0576925
text^hastivk^milan_samari:254865:-0.0576925
text^hatabari1:62053:-0.0690797
text^hatabari1^anneshrly:65931:-0.0690797
text^hatefmotahhary:19318:0.0706935
text^hatefmotahhary^غیرمنصفانه:166384:0.0706935
text^have:75303:0.0446325
text^have^problem:86172:0.0446325
text^hd93surj9a:56548:0.0656723
text^hdoudtortz:40735:0.0569332
text^hellfireeeeee:129931:-0.0660555
text^hellfireeeeee^تولدت:143191:-0.0660555
text^help:142998:-0.0629651
text^help^support:96729:-0.0629651
text^her:137856:-0.0731834
text^her^family:54117:-0.0422443
text^her^hair:38181:-0.0422443
text^her^native:9530:-0.0422443
text^hero_xan:120738:-0.0784262
text^hero_xan^بژی:77576:-0.0978346
text^herrmdl:166589:-0.050212
text^herrmdl^زمستان:254095:-0.050212
text^hesamodin1:175909:0.183544
text^hesamodin1^shaghayegh313:220049:0.0698719
text^hesamodin1^سال:134693:0.0547976
text^heyeleven11:91156:0.0265053
text^heyeleven11^اعتقاد:53640:-0.0484077
text^hfmhanif:202329:-0.0503714
text^hfmhanif^behdune:64858:-0.0503714
text^hftrscub1h:248837:-0.0477303
text^hghzdlen1f:246463:0.111244
text^hh9gfmplkj:180739:0.071637
text^high:198998:-0.0422443
text^high^price:195147:-0.0422443
text^hirbodmoghadam:134845:-0.0790213
text^hirbodmoghadam^مهدی:158637:-0.0790213
text^hiwxbgboce:14160:-0.0368659
text^hj_petros:13516:0.0711424
text^hj_petros^alilawyer87:3076:0.0293086
text^hj_petros^yaminpour:169680:0.0534168
text^hkagg9xvky:201622:0.0470073
text^hkrvdnng9f:254963:-0.0689552
text^hktgpfqwob:76171:0.0369452
text^hmohseny:209271:-0.0503167
text^hmohseny^seidrazi:235837:-0.0503167
text^hnakhli:216719:-0.031617
text^hnakhli^حاجی:26491:0.072742
text^hnamakdoost:74509:-0.0736369
text^hnamakdoost^قربان:24203:-0.0736369
text^hnfbg3ccem:142783:0.0592476
text^hnj2btk12o:37344:-0.0643674
text^ho_zamani_1979:20180:-0.031579
text^ho_zamani_1979^باشه:66369:0.0780006
text^hoda_seyfii:184692:0.128154
text^hoda_seyfii^president_bakh:44009:0.128154
text^holocaust:6325:0.291939
text^holocaust^https:226155:0.0702688
text^hombilious:137415:-0.0453206
text^hombilious^فیلم:119871:-0.0453206
text^hoor_eyn:54432:0.0816123
text^hoor_eyn^cheshmaak:213901:0.0816123
text^hope:148773:-0.0779703
text^hope^waiting:118208:-0.0779703
text^hopeoffer:221904:-0.043189
text^hopeoffer^نظر:117904:-0.043189
text^hosein_a_k_:93491:-0.0337777
text^hosein_a_k_^دادگاه:63155:-0.0337777
text^hoseinghashghae:254212:-0.159246
text^hoseinghashghae^fatemehbeykpour:923:-0.0510595
text^hoseinghashghae^اگر:14216:-0.0388066
text^hoseinghashghae^این:259952:-0.0773985
text^hoseinghashghae^منی:198712:-0.0692131
text^hoseinshefaei:215105:-0.0467328
text^hoseinshefaei^azematt:103672:-0.0467328
text^hoseinvahdani:113447:-0.0769353
text^hoseinvahdani^افشاگری:42531:-0.0769353
text^hosmey_v:100851:0.0112088
text^hosmey_v^حتمن:43787:-0.0675042
text^hossein891:214333:-0.03453
text^hossein891^سوتفاهم:2943:-0.03453
text^hosseindalirian:259090:-0.0497868
text^hosseindalirian^a_seyfi_hodhod:38123:0.0300767
text^hosseindalirian^قصد:232336:-0.0542649
text^hosseinkolakaj:111219:0.0520997
text^hosseinkolakaj^mhrezaa:252111:0.0744797
text^hosseinskan:25541:-0.0742936
text^hosseinskan^قیمت:183101:-0.0742936
text^hostile:79884:0.0446325
text^hostile^the:223777:0.0446325
text^hr_salehi:138794:0.0798009
text^hr_salehi^https:189452:0.0798009
text^hrsibesorkh:151999:0.0509868
text^hrsibesorkh^yaminpour:165623:0.0509868
text^hsin_75:138916:0.0486799
text^hsin_75^enghelabi_57:87041:0.0447772
text^hsin_75^issamasiha:113432:0.0277857
text^hsn_hsini:119233:0.0617168
text^hsn_hsini^همین:43500:0.0617168
text^hsozecazm5:15761:-0.0319229
text^hsxnbeanzp:207618:0.0558575
text^https:261258:0.176042
text^https^01ucjspw3b:38964:0.0459408
text^https^09psbou2ml:50719:-0.0377098
text^https^09sdbhwsxh:168643:0.0514131
text^https^0p4axu8q3l:241728:0.0484779
text^https^0rcaz9y46i:194173:-0.000856999
text^https^0sspzcbymj:136094:0.0435307
text^https^0ts70oqzl3:200521:-0.0636396
text^https^0xjzvtgup5:235548:-0.041112
text^https^1alas57hkw:142259:0.0795056
text^https^1gmdkok31b:135863:0.0551757
text^https^1jkbofruf6:243406:-0.0781338
text^https^1n8bzusdeb:212736:0.0790656
text^https^1osfix2aw7:108359:0.0561462
text^https^1pzqkb5nor:161138:-0.0379796
text^https^1qo5dfp2mb:115461:0.0707953
text^https^1r2vyfzwpr:40254:0.0754947
text^https^1rnjlvt7yq:55639:-0.0524174
text^https^1wfq0hreve:128545:0.0625483
text^https^25yp3kgnaj:181573:0.0515378
text^https^264fo1vfa1:171670:0.0297789
text^https^2ije75zln7:4124:-0.0695765
text^https^2la7qjhpya:138858:-0.063353
text^https^2whte0v7yq:22577:0.0942381
text^https^2wjnpdscdx:36495:0.0564806
text^https^37ysbq9kka:33681:0.0510718
text^https^38qbyhupbx:1653:-0.0377605
text^https^3cb6ngjcpj:156052:0.0548814
text^https^3cjnhpwe1g:84552:-0.0646849
text^https^3e7bsxktxi:37891:-0.0370166
text^https^3enw8g5mk6:213225:-0.015907
text^https^3jgr6rcfrw:256765:-0.041506
text^https^3jrsev9ezd:127984:0.0608073
text^https^40zusmwm73:218719:-0.0761957
text^https^44lvbktfrb:232758:0.054212
text^https^46uaromar6:240479:0.00472881
text^https^4gf9vi7wol:235584:0.0736926
text^https^4lhqjkwlmy:22178:0.0373302
text^https^4m3qexmnw6:178147:0.0498318
text^https^4wibvassga:150356:0.038018
text^https^5pwzcgnei4:136663:0.0802147
text^https^5yr8flp5af:258715:0.0561774
text^https^6drf5mo8hw:93703:0.0555937
text^https^6fcwqeseea:43481:-0.0648537
text^https^6lrg5r4y3q:31409:-0.00237903
text^https^6nhlb5jdla:251931:-0.0644024
text^https^6zgpevdj0u:217244:0.065678
text^https^78ioirzk9y:71213:0.0786772
text^https^79wfbxeutt:3793:0.0698747
text^https^7amky82sfa:132843:-0.0809802
text^https^7fo38kbkx4:13921:0.0336071
text^https^7hodwuwa6b:130658:0.0666225
text^https^7mfzl8swcb:3994:0.075109
text^https^7oaikaxcbx:255131:0.0778664
text^https^7qquw2zlki:155739:0.0821617
text^https^7sjpsvlepu:175024:-0.0517943
text^https^7yk3okizjy:141153:-0.0361192
text^https^81cli4u0ep:106291:0.0463924
text^https^834bvergsj:9639:0.0566285
text^https^8f6k3irupj:12695:-0.0503714
text^https^8iqsizc4xf:52307:0.0673287
text^https^8ixby478o7:95975:-0.0463982
text^https^8qicoclnvv:138729:-0.0407994
text^https^93i39xowm1:251231:-0.054838
text^https^9bqadrxyum:9939:0.0772524
text^https^9qnfvt5y3p:156172:-0.0466281
text^https^9ymjqsczzy:232112:-0.049976
text^https^9yvjy9mu0h:257725:-0.0773511
text^https^ab23ejfmbc:171598:-0.0482382
text^https^agxcrhhj93:44133:-0.0421094
text^https^ahumgz8bvp:211752:0.0565749
text^https^ajf9drimfm:15051:0.0539828
text^https^amfhqqzlmz:84645:-0.0404994
text^https^annigl7tgk:91244:0.353485
text^https^anrm8ozqi0:103117:-0.052843
text^https^anu5tcawi1:92688:-0.0763569
text^https^ars08hnzeq:161179:0.0798823
text^https^aucf4823fw:231016:0.0800682
text^https^azm3bvmwro:260611:-0.040315
text^https^betjjevetu:159644:-0.0358695
text^https^bhpinwgwlj:137529:0.0556492
text^https^bih379avha:249264:-0.00204612
text^https^bjtmdumc9w:101592:-0.0558959
text^https^blyvbxuyd9:53598:0.0574354
text^https^bnovljpwd6:103431:-0.0340318
text^https^bu3bcne70z:240611:0.0480713
text^https^bwhhoctheg:22091:0.0577763
text^https^bzdxj3ylgy:21493:-0.0605483
text^https^c4b8x3iozh:169239:0.0768031
text^https^c7cyskquoy:158059:-0.0612323
text^https^cddhacgfpb:1162:0.0781465
text^https^cddwhfcqhc:180862:0.042813
text^https^cgimrcohho:220239:-0.0389722
text^https^chpveam5pm:244520:0.0703759
text^https^cpsc9pcfug:101152:0.063642
text^https^crvsyc4iko:128723:0.0616023
text^https^cu6ordwrbe:74750:0.0545981
text^https^cvgfqsihtq:215975:0.0749531
text^https^cw62ucqqlh:246718:-0.0583319
text^https^d6ifhue02b:40195:0.0436811
text^https^d9cnqgksbg:126848:0.0451646
text^https^dajedkzgy6:61911:0.00633746
text^https^dg8v8j3gd0:44412:-0.031947
text^https^dmqn4vvgqa:49580:0.0769895
text^https^dno9smvbmz:225060:0.0778751
text^https^dpmix5yn6n:13193:0.0583792
text^https^dt3e0xtqqd:158207:-0.0663043
text^https^du1drgvcxp:115767:0.0801502
text^https^ducyntfxke:61781:-0.0350154
text^https^dukckj8z4r:99411:0.0681471
text^https^dvzuhh6rik:90060:0.0714734
text^https^dxkteooy45:176169:-0.0838844
text^https^e2a22b2nj2:236782:0.0139886
text^https^e5zyd8vga3:131688:0.0844206
text^https^e8wquizqyl:110595:0.0463924
text^https^eaquq2twce:68630:0.0566336
text^https^eby6lmimne:29521:0.0523579
text^https^efegpoeuxw:23631:0.0439897
text^https^efk03zpdau:275:0.0798499
text^https^egqz8lhppy:149655:0.039242
text^https^ek6lbuifrl:145873:0.0714687
text^https^enzxxg05vk:40275:0.0770652
text^https^ephmcs3qke:166364:-0.0556312
text^https^eqzq4bacng:3359:0.0611454
text^https^esyl8z99lb:254644:-0.0591644
text^https^etiwgaohqn:166925:0.0795031
text^https^exchs7qcgo:64340:0.0861863
text^https^ezsdqxciph:207907:-0.0447217
text^https^f51jxnm64t:19991:0.0691855
text^https^fd0sfprsms:245083:0.0767296
text^https^ffu16kma2l:24783:0.0552283
text^https^fhsqaegd75:230590:0.0524858
text^https^fp0oojmrmx:255900:-0.0384426
text^https^frb78pluji:258300:0.0446464
text^https^ftdxy0xw90:85724:-0.0600286
text^https^g72u9yulwm:152580:-0.0527251
text^https^gepihtfkaz:30639:0.0519366
text^https^gi8zb97uh7:59037:-0.0707036
text^https^giwphrvswa:41478:-0.0562695
text^https^gjb4uqejwq:64588:0.0783532
text^https^gjk1skm3xg:78900:0.036833
text^https^gkykh1wreu:16176:-0.0373858
text^https^glhasfpiw3:124683:0.045783
text^https^gqe5iq3ccd:53843:0.0786927
text^https^gswildkksd:82557:-0.0605391
text^https^h2qvywqtem:33270:-0.0492062
text^https^h4l7gvxjy4:250807:0.0689281
text^https^h5kd5lzkua:188732:0.0457998
text^https^hammbhayav:124670:-0.00414585
text^https^hd93surj9a:198982:0.0656723
text^https^hdoudtortz:183169:-0.0307529
text^https^hftrscub1h:129127:-0.0477303
text^https^hghzdlen1f:126753:0.0787568
text^https^hh9gfmplkj:61029:0.071637
text^https^hiwxbgboce:156594:-0.0368659
text^https^hkagg9xvky:81912:0.0470073
text^https^hkrvdnng9f:135253:-0.0689552
text^https^hktgpfqwob:218605:0.0369452
text^https^hnfbg3ccem:23073:0.0592476
text^https^hnj2btk12o:179778:-0.115623
text^https^hsozecazm5:158195:-0.0319229
text^https^hsxnbeanzp:87908:0.0558575
text^https^hzgi3b8so2:33230:0.0494221
text^https^i32w2sfhey:109522:0.0382879
text^https^i3jaeufpod:64940:-0.0402039
text^https^i5vq3r9y2o:143569:0.0457275
text^https^i9d9yau5pw:210841:0.0534679
text^https^ibz2tlkcmp:139325:0.0355762
text^https^iderodmrab:1964:0.0438429
text^https^iekyckzgez:52245:-0.0619915
text^https^ighidkyg9z:194527:-0.0684686
text^https^ihpmalmgit:206316:0.0640239
text^https^ijygj7cydvحفیظ_شریعتی:161465:-0.0536103
text^https^ikiqm9tyxv:184609:-0.0396174
text^https^ilgpsxn8on:969:0.0534844
text^https^iof1le7b3v:80642:-0.0511299
text^https^ipcnuqoxvz:171786:-0.0474848
text^https^ipg7eltyh2:129671:0.0528477
text^https^ita01q4qy5:119826:0.0331474
text^https^ivhrlpyro5:131365:0.0563048
text^https^iw67hxfm1r:43146:0.0615136
text^https^j01wtfvcdu:204123:0.0796529
text^https^j2hrpyidbz:176036:-0.0530568
text^https^j6mfwbfaf3:165142:-0.0558302
text^https^j6noaiejei:200551:0.0788379
text^https^j8whpwnknu:91085:-0.062575
text^https^j9ogon8asf:185089:-0.0461488
text^https^jackkgfo95:57501:0.0558044
text^https^jbp7dezoyj:110289:-0.0610875
text^https^jcdupzjhvc:201747:0.0391454
text^https^jfflkaawjo:129400:0.0416815
text^https^jggc3a8x8n:197100:0.0450446
text^https^jlexnoqnjt:68583:0.049599
text^https^jrn7xllkyh:49659:0.0208025
text^https^jurystozjf:108497:0.0383376
text^https^jvq4aywhe5:225206:0.0780159
text^https^jw0k0l3o3k:208622:0.0535866
text^https^jy1vdkqnxt:49935:-0.0512219
text^https^k4xvrzieaq:228391:-0.034815
text^https^kaynsrnj1h:82424:0.048222
text^https^kbdza1bl9t:172380:0.0757024
text^https^kdlt14zjqn:122058:-0.0598542
text^https^keehhknbd8:53568:-0.0410832
text^https^kp2gre6i4h:228979:0.0768571
text^https^kpitdplfnf:204286:0.0469583
text^https^kscmu7lwj2:131233:-0.0342966
text^https^kw1ozljaig:4960:0.0334148
text^https^kyhg1zzkez:231002:-0.0438652
text^https^l1fdozoohv:5627:-0.0900974
text^https^l2zbsdtlay:221843:-0.0688386
text^https^l5gullccvk:174867:-0.0570113
text^https^l5yjjm5fld:213337:0.0507307
text^https^lbogifqgbk:190072:-0.0829881
text^https^lcdtruqwwp:37827:-0.0385407
text^https^ld3qr8mmdx:172404:0.0581144
text^https^ldehguufjq:18288:0.0390839
text^https^ldvifxtwub:110459:0.0454275
text^https^lgtm2zkut7:237875:0.0704438
text^https^lloyzslnyv:25995:0.0736593
text^https^lspepsopzf:218081:-0.0376837
text^https^lveingkd6s:155937:-0.020099
text^https^lvzfmo4j2r:224119:-0.0462418
text^https^lwj16ka0r2:116891:0.0487502
text^https^m1jutpzeab:208869:-0.0412155
text^https^madxtoxgxl:240528:0.0525045
text^https^mbtijh38c3:78412:-0.0406426
text^https^megoqpbcdg:10625:-0.0388169
text^https^mghv17x65v:102333:0.0523579
text^https^mhxeljanng:72064:0.0768637
text^https^mimbjpjkro:90559:-0.0411754
text^https^mj70bfnrib:235893:0.0668712
text^https^mjf6bolsre:79226:0.0744183
text^https^mjz8nbsx1n:171093:-0.0695215
text^https^mm6hcz6aje:18482:-0.0801671
text^https^mntoqjlcta:104296:-0.0521143
text^https^moafqnffgg:171653:-0.0587395
text^https^mr99rvzefq:51909:-0.0567547
text^https^mty60vckxd:187114:-0.0335061
text^https^mz09kc1ztz:155308:-0.0370196
text^https^n4imrd5qk8:33350:-0.0362542
text^https^n6oxlm4pbc:48628:-0.0747817
text^https^n8q0rkaytm:75695:0.0587312
text^https^nb2udiqgq9:170662:-0.0364386
text^https^ncshxtb8dc:133324:-0.0416845
text^https^ngrb5vxcu4:235141:0.0654445
text^https^ngx37ormhg:205507:-0.0422443
text^https^nilil9vmjc:86799:-0.0361045
text^https^o0h0lseotl:17908:-0.0354906
text^https^o1d4irdohu:203398:-0.0324517
text^https^o2f6sefzja:150945:0.0483936
text^https^o3mkpk9try:42775:-0.0325978
text^https^o3yxosu5pc:204538:-0.0347855
text^https^o78sxgl5i6:149247:-0.0780009
text^https^o99olcqldc:151269:0.0337205
text^https^ohk2sri6yl:77922:-0.0842705
text^https^oit7sthav9:76504:0.0362611
text^https^ojgeropb15:171528:0.0750819
text^https^ot6xbhn462:160009:-0.0495514
text^https^ouepslotyl:157351:-0.0406512
text^https^owr4wm0obt:221841:0.0789784
text^https^oyko5fh12g:255699:0.0792134
text^https^ozamz7jhdq:231970:-0.0541177
text^https^p5jubxnjen:236510:0.00723101
text^https^p8ioflvn5c:91771:0.0727564
text^https^p9ekj75iyr:78841:0.0798446
text^https^paelkzezyr:117644:0.0520226
text^https^pcehejrj2l:57100:-0.0562784
text^https^pfnlhtgrv4:49562:0.0574838
text^https^pfxasjadaf:79109:-0.049976
text^https^phxtwars3p:132766:0.0391654
text^https^pjn3uktgmj:96302:-0.0742936
text^https^ptslbr7nle:10061:-0.0790365
text^https^ptxmpuqn3p:114249:0.0731164
text^https^puzkxmelny:68672:0.0772539
text^https^pwmckethac:161506:-0.07903
text^https^pxn0c9bhps:118274:0.0379404
text^https^pxrkvf52sl:171830:0.0735533
text^https^qb48e3o5lp:178712:-0.059301
text^https^qc5zzox5fc:213166:0.0614511
text^https^qfu7y8u2ia:220363:0.040858
text^https^qilsxrozt9:52329:-0.0128583
text^https^qj02w4un6o:124795:0.0548165
text^https^qlf8aubcct:142159:-0.0752023
text^https^qlwmxnu0uh:157355:-0.0424945
text^https^qqzhgqe7uv:159997:0.0489169
text^https^qtnxubyyov:79334:-0.0547278
text^https^qu4vhc2s7b:96142:-0.0390392
text^https^qwftwm77jo:60564:0.0760308
text^https^qwlvssdrfc:156779:-0.064326
text^https^r4mfqezfe1:160562:0.035993
text^https^r73haeuyfy:43604:-0.0790337
text^https^r8yxrv9syx:148064:0.0775911
text^https^rdtgg0mujx:183293:-0.0794479
text^https^rj9rfa9big:90178:-0.0487744
text^https^rmjwe0ahom:91775:-0.0472971
text^https^rmqtahnnyw:176476:0.0485861
text^https^rq48bki8as:123446:-0.0747734
text^https^rtmbxw8orf:143735:-0.038315
text^https^rwdeyycjgy:155710:0.0537175
text^https^rxlu19ahud:189486:-0.0567547
text^https^s07cma9ekc:143623:-0.100341
text^https^s2hgrp9ube:203206:0.0547442
text^https^s3iszdfnts:82838:0.0795182
text^https^s4ujbgbugz:33149:0.0164059
text^https^s5twcf3rsq:224868:-0.0738809
text^https^s9d07tr6pk:252812:0.0477363
text^https^s9mnjezlgi:121328:-0.035258
text^https^s9q2430ooa:254394:0.0514175
text^https^sahdtwxsrv:96186:-0.0463276
text^https^saoejg1o76:247457:-0.0520864
text^https^scbilr3c8x:16912:-0.0453062
text^https^serozfpehp:128206:0.0544898
text^https^siazcrykup:252646:0.0647628
text^https^sjfjnhqc1j:193757:0.0487604
text^https^slhqzy9ujm:205063:0.0535547
text^https^spbhk8sia0:136481:0.068234
text^https^squxgiryxb:172230:-0.063281
text^https^sqvxrntqkj:161594:-0.0638936
text^https^suays8ykeh:193040:-0.0358002
text^https^sv364t0ryj:19062:0.0344682
text^https^swywdmriy9:76460:-0.0360301
text^https^sxgud1fjsq:113618:0.0721014
text^https^t5hlmwz7hc:105036:-0.0542649
text^https^t8opehk7jm:35856:-0.054912
text^https^t8qqgrc8am:30111:0.0708779
text^https^tckgne858u:227311:0.0477768
text^https^tlq8urkcko:83896:0.0471217
text^https^tvm50jxlsu:139155:0.0564806
text^https^tw0lymynzg:80386:0.0650396
text^https^twi7dzkyoe:25742:-0.0490587
text^https^u3t9m2pdpa:212778:-0.0654515
text^https^u5bywf0eai:37201:-0.0484028
text^https^u8rxrsvz6r:163557:-0.0998619
text^https^uanoctdo6b:23939:-0.0373817
text^https^ugnujjpcu9:46825:-0.0773638
text^https^ui26vty1lh:239524:0.073786
text^https^ulv1k4ca1g:47457:0.056745
text^https^umjmc6qhel:134834:-0.0804752
text^https^unzbhvlxee:113561:0.0313094
text^https^uoo7fdbvle:152934:-0.0143884
text^https^uqk8wpzmnu:242972:0.0788147
text^https^uv6mpg2f1x:242280:0.0593569
text^https^v6jih0fvje:44254:-0.0707036
text^https^vfdrtuuvrc:242615:0.097374
text^https^vkatp34wxd:97781:-0.038315
text^https^vkc5amarhs:254580:0.0238432
text^https^vty3roqjlp:151211:0.0358829
text^https^vubahuclw6:118556:0.038325
text^https^vucqzmgni8:23464:-0.0784805
text^https^vvhafpfy5c:164499:0.0790906
text^https^vyhlwmhvnd:23086:0.00208386
text^https^vzveoxqtij:215229:-0.0841027
text^https^w4si3kvfcx:97224:-0.0447217
text^https^w5wxce6kna:63316:0.0791196
text^https^w6w24la1og:90369:-0.0158663
text^https^waisjnq23z:170019:0.0481387
text^https^wb2eko03fw:234966:-0.0208707
text^https^wc062dpk6q:88259:0.0350904
text^https^wcbohnu0yh:198849:-0.0376069
text^https^wd4liftvax:94534:0.0508001
text^https^wdwy8flfga:179100:0.0642887
text^https^wenxt2yoer:226490:0.0448501
text^https^wh0asewafv:61166:0.035694
text^https^wib7lfttbb:196582:-0.0374176
text^https^wiqhkm0pjm:158877:0.0798011
text^https^wowf54o0ie:152540:-0.0497724
text^https^wqyznkpmne:89834:-0.0346205
text^https^wyrc2yprvv:121849:-0.0326873
text^https^x5p3ojflqf:157627:0.0702688
text^https^x65hkcaz2x:150644:0.0429177
text^https^xacuv55orb:132641:-0.0497679
text^https^xasuv2n35w:88438:-0.0399006
text^https^xc08ogrv15:242850:0.0798381
text^https^xcilgwp17p:163828:0.0735323
text^https^xnmolsugtf:105582:0.0798414
text^https^xqvg6ukrh2:198107:0.073347
text^https^xrezwuxak5:140528:-0.0386534
text^https^xslpytf69o:167819:0.0506217
text^https^xugrlxw8p4:200200:0.0608987
text^https^xvun5rhfsf:31155:0.0809235
text^https^xyxupay1xg:196414:-0.0447865
text^https^y2vp6kt6aj:226462:0.0433076
text^https^y4xzmnrrpp:69010:-0.0744334
text^https^y75jvcjv20:211337:-0.0879693
text^https^ybcirxbl2z:122829:0.0656389
text^https^ycghq0a3mt:172057:-0.0612679
text^https^ydxnlh21ed:166338:0.0574757
text^https^ygrp1dug3o:55052:0.0821035
text^https^yh5pr4nukh:31292:0.0387549
text^https^yhsasznvmr:113709:-0.0671094
text^https^yiwkrultg9:176558:0.080137
text^https^yizlz1ql7y:223511:0.0589416
text^https^ylkkvqxc72:149806:-0.0182845
text^https^ypgjisjgjj:213919:0.054726
text^https^yrhens7ol3:238752:0.0492718
text^https^yxrharpkbf:191068:0.0776251
text^https^z9agyhtc5e:51311:0.0570378
text^https^zck44u8p5x:258844:0.0593303
text^https^zetnovyauc:111421:-0.0457863
text^https^zf7vbtprqf:164261:-0.0459838
text^https^zfcfiptqrr:219382:-0.045649
text^https^zgdwr18bgt:213469:0.0542049
text^https^zjyu3qtf3i:250012:0.0786518
text^https^zpdpffjdws:215593:-0.0384071
text^https^zrrrl3qccm:92933:-0.0654677
text^https^zrthvzo1db:91215:0.0752586
text^https^zugzucgyng:2513:-0.057618
text^https^zultmnqwou:101414:-0.0774373
text^https^zwcbipr52c:97694:0.0365879
text^https^zyafsr0quf:233515:-0.0505688
text^human_our:200220:-0.0726346
text^human_our^فداتم:95984:-0.0726346
text^humanismwins:143256:-0.0583724
text^humanismwins^کنایه:163614:-0.0583724
text^hypocoristicon1:180139:0.238439
text^hypocoristicon1^endofisrael:212940:0.124047
text^hypocoristicon1^https:187529:0.174362
text^hypocoristicon1^many:72135:-0.0416207
text^hzgi3b8so2:152940:0.0494221
text^i32w2sfhey:229232:0.0382879
text^i3jaeufpod:184650:-0.0402039
text^i5vq3r9y2o:1135:0.0457275
text^i9d9yau5pw:68407:0.0534679
text^i_am_mr_rf:50009:0.131326
text^i_am_mr_rf^خدایا:180608:0.0647266
text^i_am_mr_rf^چون:240675:0.0707533
text^i_growler:144277:-0.0617294
text^i_growler^albert_camus11:214969:-0.0617294
text^i_par_:194956:0.0139117
text^i_par_^اهان:97352:-0.0720455
text^i_prs_:73567:-0.0580209
text^i_prs_^برای:9955:-0.0993834
text^ibz2tlkcmp:259035:0.0355762
text^ice_boy_persian:177568:-0.142125
text^ice_boy_persian^دقیقا:203086:-0.0824493
text^iderodmrab:121674:0.0438429
text^idrisest1:55693:-0.031047
text^idrisest1^john_lucckk:196228:-0.0482515
text^iekyckzgez:171955:-0.0619915
text^ighidkyg9z:52093:-0.0684686
text^ihpmalmgit:63882:0.0640239
text^ijygj7cydvحفیظ_شریعتی:19031:-0.0536103
text^ikiqm9tyxv:42175:-0.0396174
text^ilgpsxn8on:120679:0.0534844
text^in_mane_mobham:72644:-0.0617294
text^in_mane_mobham^redfellower:109880:-0.0617294
text^inazkam:93011:-0.218472
text^inazkam^esmailifarshad:249275:-0.0654232
text^inazkam^بعضی:178202:-0.0644882
text^inazkam^بلا:163167:-0.0625492
text^inazkam^تمیز:166329:-0.0511255
text^inazkam^مدنظر:77137:-0.0760999
text^inazkam^مرسی:235845:-0.0689489
text^ininatig:127198:-0.09613
text^ininatig^farzad_az:81526:-0.0663043
text^ininatig^patrick_jane7:127317:-0.0524632
text^innocent:249345:0.0506724
text^innocent^people:185912:0.0506724
text^iof1le7b3v:200352:-0.0511299
text^ipcnuqoxvz:29352:-0.0474848
text^ipg7eltyh2:249381:0.0528477
text^ir_k_:225419:0.0293086
text^ir_k_^mjavad_:74403:0.0293086
text^iraaanam:179560:-0.115429
text^iraaanam^شاید:46162:-0.124486
text^iraaanam^مجاهدین:145816:-0.0591997
text^iran:105863:0.0291226
text^iran^and:71724:-0.0422443
text^iran^endofisrael:234040:0.116276
text^iran^have:22674:0.0446325
text^iran^https:208629:0.0391654
text^iranianmojtaba:5679:0.0756161
text^iranianmojtaba^میخوره:14208:0.0756161
text^iranwire:256857:-0.0469089
text^iranwire^saeidpar:92950:-0.0469089
text^ishbincna:179592:-0.0670499
text^ishbincna^جور:246070:-0.0670499
text^israel:232776:0.140365
text^israel^endofisrael:57333:0.163384
text^israelipm_farsi:92070:0.0736593
text^israelipm_farsi^zargar1985:125259:0.0736593
text^israelmfa:227021:0.0735323
text^israelmfa^israel:238049:0.0735323
text^israelpersian:91400:0.370332
text^israelpersian^endofisrael:6325:0.291939
text^israelpersian^now:236258:0.116276
text^israelpersian^اون:105859:0.0492739
text^israelpersian^بادمجون:114217:0.0653568
text^israelpersian^بلاک:137646:-0.0722811
text^israelpersian^بوق:39100:0.0344231
text^israelpersian^دیدن:134120:0.060661
text^israelpersian^رهبر:102079:0.0390635
text^israelpersian^سیستم:58563:0.0384856
text^israelpersian^عزایشان:4265:0.0714663
text^israelpersian^قانای:243259:0.0563075
text^israelpersian^مبارزه:174272:0.0587312
text^israelpersian^مرگ:157403:0.0525045
text^israelpersian^وای:180881:0.0675278
text^israelpersian^یادتون:125429:0.0492422
text^israelpersian^یهودی:10404:0.0493613
text^israelpersianblocked:79263:0.0520226
text^israelpersianblocked^https:73389:0.0520226
text^issamasiha:164612:0.0277857
text^issamasiha^siib_saa:216286:-0.0421263
text^ita01q4qy5:239536:0.0331474
text^itissaeed:91686:-0.0707637
text^itissaeed^saman0018:63067:-0.0707637
text^ivhrlpyro5:251075:0.0563048
text^iviehdisalehi:121912:-0.0682131
text^iviehdisalehi^توضیح:108377:-0.0682131
text^iw67hxfm1r:162856:0.0615136
text^iwasshiin:234645:-0.0692941
text^iwasshiin^deppstyl:162835:-0.0692941
text^iyad_elbaghdadi:201992:-0.0779703
text^iyad_elbaghdadi^hope:60941:-0.0779703
text^j01wtfvcdu:61689:0.0796529
text^j0wk3r7:181349:-0.0635386
text^j0wk3r7^اسلام:135711:-0.124458
text^j1nne:234095:0.0894102
text^j1nne^aadamebnehavva:214386:0.0277857
text^j1nne^eshraghyazar:156825:0.0667453
text^j1nne^famil_door:237491:0.0511609
text^j1nne^yaminpour:177383:0.0638043
text^j1nne^اونم:256312:0.0674643
text^j1nne^توییت:150237:-0.038524
text^j1nne^حالا:170176:0.0754389
text^j1nne^ناسیونالیسم:228593:-0.0708264
text^j2hrpyidbz:33602:-0.0530568
text^j6mfwbfaf3:22708:-0.0558302
text^j6noaiejei:58117:0.0788379
text^j8whpwnknu:210795:-0.0138225
text^j9ogon8asf:42655:-0.0461488
text^j_gh_66:130553:0.0519611
text^j_gh_66^r_nili:111098:0.0519611
text^jackkgfo95:177211:0.0558044
text^jalali133:63872:0.0753588
text^jalali133^خنجرتون:32702:0.0753588
text^jalalmehdippor:154684:-0.0657294
text^jalalmehdippor^balalhashari:180145:-0.0657294
text^janat_makan:84539:0.0529148
text^janat_makan^آنچه:170511:0.0529148
text^janjan_ahmad:94862:0.085252
text^janjan_ahmad^بودم:120986:0.051655
text^javadeshun:76955:-0.0420251
text^javadeshun^viriaquills:191363:-0.0420251
text^javadheydarian:2082:-0.0498324
text^javadheydarian^آره:101236:-0.0691808
text^javadmajdizadeh:122540:-0.0620055
text^javadmajdizadeh^کلا:117607:-0.0911885
text^javidfah:212866:-0.054187
text^javidfah^قسمت:154878:-0.0714551
text^jbp7dezoyj:229999:-0.0610875
text^jcdupzjhvc:59313:0.0391454
text^jeanvaljean65:165728:0.0502113
text^jeanvaljean65^drneo07:90535:-0.10551
text^jeanvaljean65^haj_komeil:205411:0.0293086
text^jeanvaljean65^j1nne:121935:0.0277857
text^jeanvaljean65^marloncommando:179825:0.0511609
text^jeanvaljean65^بوووووووس:235015:0.0753952
text^jedaaal:260385:0.0207654
text^jedaaal^haj_komeil:256544:0.0667453
text^jentelman121:108421:-0.0556683
text^jentelman121^مهم:214868:-0.0556683
text^jewboy5776:166626:0.381741
text^jewboy5776^endofisrael:55591:0.0787371
text^jewboy5776^https:30180:0.365599
text^jews:13570:0.0631113
text^jews^are:33988:0.0446325
text^jews^zionist:161579:0.0446325
text^jfflkaawjo:249110:0.0416815
text^jggc3a8x8n:54666:0.0450446
text^jimbeltarin:246675:-0.0638514
text^jimbeltarin^بهار:56079:-0.0638514
text^jlexnoqnjt:188293:0.049599
text^john_lucckk:217643:-0.460294
text^john_lucckk^ajibzade:239005:-0.160128
text^john_lucckk^dehkhodaaa:41221:-0.0835143
text^john_lucckk^diyare_habiib:204815:-0.0672466
text^john_lucckk^emad_bahavar:158618:0.0149504
text^john_lucckk^john_luckk:194075:-0.0619109
text^john_lucckk^mehrshadparhadi:103468:-0.0673501
text^john_lucckk^patric_jane7:191674:-0.0667835
text^john_lucckk^patrick_jane7:50798:-0.10608
text^john_lucckk^اره:59874:-0.056887
text^john_lucckk^اعصاب:189810:-0.0749145
text^john_lucckk^اونهم:197114:-0.0564818
text^john_lucckk^دوستان:55120:-0.0494872
text^john_lucckk^رهبر:228950:-0.0540148
text^john_lucckk^طرفداران:63814:-0.0399167
text^john_lucckk^فارغ:229543:-0.0408213
text^john_lucckk^فکر:29311:-0.0470636
text^john_lucckk^قطعا:255265:-0.0796888
text^john_lucckk^مخلصم:90563:-0.057253
text^john_lucckk^چند:217362:-0.039732
text^john_lucckk^کاش:169783:-0.0883998
text^john_lucckk^یحتمل:255191:-0.080236
text^john_luckk:85404:-0.0619109
text^john_luckk^خوب:119076:-0.0619109
text^joker_character:104425:-0.0900383
text^joker_character^balalhashari:58794:-0.0624062
text^joker_character^john_lucckk:12144:-0.0657294
text^jorginshadow:20026:-0.136441
text^jorginshadow^bahadorina:230963:-0.0589091
text^jorginshadow^اون:3053:-0.067797
text^jorginshadow^ببین:204523:-0.0602497
text^jostejougar1:194738:0.0788616
text^jostejougar1^farda88888:110082:0.0822418
text^jostejougar1^آفرین:180376:0.0995061
text^jostejougar1^آقای:43382:0.0399772
text^jostejougar1^ادعا:246750:-0.00907073
text^jostejougar1^سایه:126672:-0.0781933
text^jrn7xllkyh:169369:-0.0409422
text^jumpavocado:89993:-0.118367
text^jumpavocado^amirai08280594:200662:-0.0962919
text^jumpavocado^مرسی:219811:-0.0563703
text^junior_hajagha:6571:0.0853775
text^juristichms:100342:-0.0793289
text^juristichms^ali_shariatti:114610:-0.0342916
text^juristichms^claviah:18120:-0.0570211
text^jurystozjf:228207:0.0383376
text^jvd_ch:49192:0.0688694
text^jvd_ch^اتفاقا:243159:0.0688694
text^jvq4aywhe5:82772:-0.0351269
text^jw0k0l3o3k:66188:0.0535866
text^jy1vdkqnxt:169645:-0.0512219
text^k4xvrzieaq:85957:-0.034815
text^k_adab:142327:0.0863092
text^k_adab^sahariiam:180546:0.0453034
text^k_zarrin:64864:-0.0379894
text^k_zarrin^روستایی:40628:-0.0379894
text^kachalmooferfer:31846:-0.138138
text^kafmim90:176065:0.116205
text^kafmim90^معلوم:78982:0.076603
text^kafmim90^وقتی:76163:0.0594262
text^kaktooos57:28998:-0.039774
text^kaktooos57^جدا:29272:-0.039774
text^kamallotfi1:189736:0.0641313
text^kamallotfi1^شرم:40462:0.0641313
text^kamrani6014:164392:0.0534639
text^kamrani6014^همون:11369:0.0534639
text^karagahh:252751:-0.0510299
text^karagahh^دیگه:104769:-0.0510299
text^kardo7777:14997:-0.0638562
text^kardo7777^امیدوارم:120145:-0.0638562
text^kargadan:131971:-0.124005
text^kargadan^shadiyannn1:4919:-0.0658181
text^kargadan^این:242419:-0.0666937
text^kargadan^هومم:74577:-0.0489984
text^karimbeigi:204650:-0.0610052
text^karimbeigi^یاد:8848:-0.0610052
text^kaveh2005:222453:0.0774638
text^kaveh2005^انقلاب:26687:0.0774638
text^kavehmadani:221264:0.0394654
text^kavehmadani^ظاهرا:8105:0.0394654
text^kaynsrnj1h:202134:0.048222
text^kayotrara:142666:-0.0339149
text^kayotrara^چجوریه:180161:-0.0339149
text^kayvan_hosseini:185451:-0.107681
text^kayvan_hosseini^خیلی:129883:-0.0396322
text^kayvan_hosseini^راستش:184906:-0.0467562
text^kayvan_saedy:59170:0.116746
text^kayvan_saedy^shazdekouchulu:121852:0.0277857
text^kayvan_saedy^بابا:66209:-0.00015844
text^kayvan_saedy^عروسی:124402:0.0753882
text^kayvan_saedy^مطمئنی:100997:-0.0649176
text^kayvan_saedy^چرا:256371:0.138025
text^kazem_alireza:256239:0.0753968
text^kazem_alireza^عالی:9521:0.0753968
text^kazemi92:3864:-0.0429044
text^kazemi92^sas2040:105682:-0.0429044
text^kbdza1bl9t:29946:0.0757024
text^kdlt14zjqn:241768:-0.12175
text^keehhknbd8:173278:-0.0410832
text^keramati013:204083:-0.0703199
text^keramati013^ترامپ:46078:-0.0336839
text^keramati013^نظرم:150318:-0.0429044
text^kevinmiston:28863:-0.129828
text^kevinmiston^جریانی:126485:-0.0612586
text^kevinmiston^دیگه:100593:-0.0632533
text^kevinmiston^فقط:75069:-0.0633839
text^keyboard_1978:217444:0.11434
text^keyboard_1978^اینطورام:170665:0.0688349
text^keyboard_1978^قرار:20258:0.0704975
text^keykhoon:29242:-0.201687
text^keykhoon^ameripardis:100557:-0.0633839
text^keykhoon^jorginshadow:133516:-0.067797
text^keykhoon^kevinmiston:142353:-0.109715
text^keykhoon^saman0018:202271:-0.113177
text^keykhoon^خیلیاشون:212501:-0.0298277
text^keyvanhoseinvad:165327:0.160448
text^keyvanhoseinvad^yaminpour:244423:0.097333
text^keyvanhoseinvad^بله:172166:0.0903991
text^khakestariam:101708:-0.0563943
text^khakestariam^فرقی:144876:-0.0563943
text^khalilimajd:59439:-0.00489804
text^khalilimajd^جایی:83087:0.0534842
text^khamenei_fa:170858:0.0493333
text^khamenei_fa^عههه:203335:0.0493333
text^khanomirany:52505:0.241123
text^khanomirany^fada_banoo:77084:0.0676508
text^khanomirany^niloufarhsn:125537:0.0277857
text^khanomirany^seyyedkarimi:89586:0.0293086
text^khanomirany^yaminpour:181993:0.0627478
text^khanomirany^اگر:201801:0.06231
text^khanomirany^حیات:52704:0.0699855
text^khanomirany^خیر:95515:0.0740632
text^khanomirany^خیلیا:240096:0.0733726
text^khashayarb99:119491:-0.0704945
text^khashayarb99^vahid_yucesoy:33918:-0.0704945
text^khazaan78:187604:-0.0472971
text^khazaan78^gavaazn:76596:-0.0472971
text^khmasoumi:169584:-0.081274
text^khmasoumi^ویتامین:116607:-0.081274
text^khomeini:75847:0.0380397
text^khomeini95:32833:0.0519611
text^khomeini95^j_gh_66:137782:0.0519611
text^khomeini^اگر:112831:0.0380397
text^khormal0:17687:-0.0447848
text^khormal0^دقیقا:173545:-0.0447848
text^khosrowshahi7:148296:-0.0358607
text^khosrowshahi7^قضیه:195332:-0.0358607
text^killed:74106:0.0506724
text^killed^innocent:113555:0.0506724
text^kirzan123:20109:0.0670622
text^kirzan123^fatememehraban:137127:0.0670622
text^kitkat28636181:160313:-0.0442672
text^kitkat28636181^چرا:41774:-0.0517253
text^kosaraneh:183528:0.00840326
text^kosaraneh^الهی:229425:0.0794231
text^kp2gre6i4h:86545:0.0768571
text^kpeqd4tggpkhfdb:18998:-0.0871104
text^kpeqd4tggpkhfdb^هنوزم:142644:-0.0612323
text^kpitdplfnf:61852:0.0469583
text^kscmu7lwj2:250943:-0.0342966
text^kurosh_3:59026:-0.061534
text^kurosh_3^بدرود:183103:-0.061534
text^kw1ozljaig:124670:-0.00414585
text^kyhg1zzkez:88568:-0.0438652
text^l1fdozoohv:125337:-0.0717847
text^l2zbsdtlay:79409:-0.111909
text^l5gullccvk:32433:-0.0570113
text^l5yjjm5fld:70903:0.0507307
text^laleh_khanoom:220883:-0.0785987
text^laleh_khanoom^خلاقیت:38764:-0.0785987
text^lameei:210918:0.0829462
text^lameei^دقیقا:65660:0.14731
text^lastanunnaki:229757:-0.0754336
text^lastanunnaki^این:199429:-0.0754336
text^lavita_m92:85199:-0.243638
text^lavita_m92^شما:146204:-0.0772229
text^lavita_m92^طرف:46764:-0.0753884
text^lavita_m92^چرا:37228:-0.0688386
text^lbogifqgbk:47638:-0.0974393
text^lc6rnfpukgkmphd:253330:-0.0431494
text^lc6rnfpukgkmphd^دمش:78712:-0.0431494
text^lcdtruqwwp:157537:-0.0385407
text^ld3qr8mmdx:29970:0.0581144
text^ldehguufjq:137998:0.0390839
text^ldvifxtwub:230169:0.0454275
text^led:6332:0.0331573
text^led^دفتر:72421:0.0331573
text^leila_asgari:35072:0.0641313
text^leila_asgari^skarimi1367:62509:0.0641313
text^lessclockwise:240547:-0.0782133
text^lessclockwise^ماهه:49350:-0.0782133
text^letting:68450:-0.0422443
text^letting^her:103002:-0.0422443
text^leylisdghi:257008:-0.114159
text^leylisdghi^آره:243210:-0.0663043
text^leylisdghi^منم:55343:-0.0754922
text^lgbt:146401:-0.0629651
text^lgbt^pride:232836:-0.0629651
text^lgtm2zkut7:95441:0.0704438
text^like__phoenix:214774:0.0688724
text^like__phoenix^مقدار:134524:0.0688724
text^likes:160931:0.0691855
text^likes^241:165932:0.155063
text^likes^255:165946:0.0480713
text^liqipil:251613:0.0523579
text^liqipil^sp_hos:11297:0.0523579
text^lloyzslnyv:145705:0.0732037
text^loscheshahram:252537:-0.119884
text^loscheshahram^faranak_amidi:20579:-0.0958247
text^loscheshahram^sharqekhish:65536:-0.0587291
text^lspepsopzf:75647:-0.0376837
text^lumpy_54:161136:-0.0817623
text^lumpy_54^بازجویی:215676:-0.0817623
text^lveingkd6s:13503:0.0942038
text^lvzfmo4j2r:81685:-0.0462418
text^lwj16ka0r2:236601:0.0487502
text^m1jutpzeab:66435:-0.0412155
text^m2000maaher:174906:0.0372719
text^m2000maaher^مکررا:37977:0.0372719
text^m_aminisaleh:196908:0.0841598
text^m_mahnaz:143382:-0.0844734
text^m_moaven:253303:0.0744548
text^m_moaven^0ahmadi0:77062:0.0744548
text^m_qaem:184244:0.0809545
text^m_qaem^yaminpour:69144:0.0809545
text^m_sheykh_m:124959:0.0561
text^ma30mo:177788:-0.0796049
text^ma30mo^خدا:22924:-0.0796049
text^ma_aminy:246634:0.0812823
text^ma_aminy^seyed_ogli:102782:0.0812823
text^ma_flower1:80922:-0.0309961
text^ma_flower1^roumi_sharghi:94050:-0.0309961
text^ma_rajai:92017:0.165354
text^ma_rajai^habil:206608:0.1254
text^ma_rajai^حتی:177162:0.0779863
text^maaroofi89:18691:-0.0822179
text^maaroofi89^خواهش:37198:-0.0822179
text^maarr_tiin:181265:-0.0678123
text^maarr_tiin^اره:205360:-0.0678123
text^madxtoxgxl:98094:0.0525045
text^magi_ed:49858:0.068291
text^magi_ed^مگه:150989:0.068291
text^mah_sadeghi:3545:0.217803
text^mah_sadeghi^fshossseini:200297:0.0534782
text^mah_sadeghi^البته:242136:0.0509868
text^mah_sadeghi^الهی:84574:-0.0339047
text^mah_sadeghi^بزرگوارید:73955:0.0510568
text^mah_sadeghi^حاج:28417:0.0209236
text^mah_sadeghi^خدا:203893:0.0698379
text^mah_sadeghi^دقیقا:116131:0.0347405
text^mah_sadeghi^شالله:201423:0.0522254
text^mah_sadeghi^لزوما:130324:0.0748244
text^mah_sadeghi^مسئله:154822:0.031752
text^mah_sadeghi^ممنون:183128:0.129494
text^mah_sadeghi^نبود:156370:0.0601944
text^mah_sadeghi^ندیدم:77342:0.0554123
text^mah_sadeghi^هیچی:152430:0.0651635
text^mah_sadeghi^پای:143386:0.046364
text^mah_sadeghi^پناه:137508:0.0744972
text^mah_sadeghi^چند:218120:0.0718592
text^mah_shabani:239919:0.0520997
text^mah_shabani^haj_franc:202951:0.0822614
text^mahadjefri2:29765:-0.0484968
text^mahadjefri2^روحانی:136457:-0.0484968
text^mahbod1267503:76842:0.121654
text^mahbod1267503^rezadormishian:162094:0.085288
text^mahboobkhansari:241262:-0.0591644
text^mahboobkhansari^https:190272:-0.0591644
text^mahdavipmh:115100:-0.0139374
text^mahdi1982onyx:192835:0.0777746
text^mahdi1982onyx^آره:249105:0.0692636
text^mahdiayyarian:214818:-0.0875945
text^mahdiayyarian^kaktooos57:128480:-0.039774
text^mahdiibakhtiari:93762:0.115029
text^mahdiibakhtiari^میلیون:80633:0.0600298
text^mahdiibakhtiari^میگ:107706:0.0867601
text^mahdimkp:208078:0.0768598
text^mahdimkp^الان:20966:0.0768598
text^mahdis_pouya:248097:-0.072645
text^mahdis_pouya^نمونه:178763:-0.072645
text^mahditajik61:67064:-0.0708228
text^mahditajik61^شما:62625:-0.0708228
text^mahenoghree:8839:-0.0583319
text^mahenoghree^بله:41566:-0.0583319
text^mahkatan1:120619:0.0685545
text^mahkatan1^نخیر:142135:0.0685545
text^mahnazadeli:150232:-0.0783375
text^mahnazadeli^عادلی:49651:-0.0783375
text^mahsasaremi:41814:-0.0453206
text^mahsasaremi^hombilious:158917:-0.0453206
text^majazgard:129937:0.0765784
text^majazgard^بسیار:123899:-0.0142543
text^majidnemati1989:80250:0.0820077
text^majidnemati1989^فدات:143220:0.0820077
text^maman_gol:192361:0.0862882
text^manahejazi:157738:-0.0646538
text^manahejazi^ardeshir:212342:-0.0646538
text^manamoon53:69185:-0.104515
text^manamoon53^jorginshadow:49271:-0.0589091
text^manamoon53^مراسم:226002:-0.089082
text^manimssn:235189:-0.043528
text^manimssn^اشاره:21184:-0.000842874
text^manotonews:129841:0.0841832
text^manotonews^پاکستانیه:103955:0.0630662
text^many:145864:0.0446325
text^many^them:67220:0.0446325
text^marloncommando:29841:0.0511609
text^marloncommando^saeedhatami85:40024:0.0511609
text^marmaladovv:86903:-0.0760201
text^marmaladovv^هستیم:22072:-0.0760201
text^marmary1777:173790:-0.0651106
text^marmary1777^میخوایم:139567:-0.0651106
text^marshafipour:237868:-0.0895039
text^marshafipour^ininatig:2394:-0.0524632
text^marshafipour^بله:137071:-0.0460449
text^maryam_6666:229286:0.115207
text^maryam_6666^شاءلله:251062:0.0687984
text^maryam_6666^محدود:227908:0.065894
text^maryamim1:193983:-0.0772635
text^maryamim1^sadeghrohani:66916:-0.0772635
text^maryaminaa:54231:-0.0593315
text^maryaminaa^متاسفانه:100325:-0.0481053
text^maryampougetoux:107167:0.0534844
text^maryampougetoux^https:55213:0.0534844
text^maryamshariatm:119228:-0.114262
text^maryamshariatm^fuckreligious:92187:-0.0782481
text^maryamshariatm^مهم:181167:-0.0580831
text^maryamtaleshi:236200:0.0520997
text^maryamtaleshi^par1395:46010:0.0520997
text^maryshoja:89213:0.127256
text^maryshoja^آرام:191943:0.0787761
text^maryshoja^تجربیات:28526:0.0957312
text^marzie_r:80479:-0.0835979
text^masih:237498:-0.0422443
text^masih^alinejad:131450:-0.0422443
text^masishun:125783:-0.0780094
text^masishun^derazebaghavare:182184:-0.0780094
text^masomeh_i:65729:0.330234
text^masomeh_i^bbcshameonyou:177096:0.0828158
text^masomeh_i^اینم:2090:0.074931
text^masomeh_i^جناب:196051:0.0741359
text^masomeh_i^خخخخ:218315:0.0768417
text^masomeh_i^خدایا:53576:-0.124167
text^masomeh_i^فقط:12087:0.073431
text^masomeh_i^یادت:211851:0.0684449
text^masoud_pirhadi:117195:0.0756161
text^masoud_pirhadi^iranianmojtaba:227278:0.0756161
text^masoudd2018:254737:0.0845732
text^masoudee:170908:-0.121862
text^masoudee^سخنان:167892:-0.0661239
text^masoudee^ممنونم:12651:-0.0825236
text^masoudkazemi81:24529:-0.00562278
text^masoudkazemi81^ameripardis:236296:-0.0632533
text^masoudkazemi81^keykhoon:16327:-0.0633839
text^masoudkazemi81^لینکی:95104:0.0705589
text^masoudmollaie:66893:-0.0701119
text^masoudmollaie^جواب:176207:-0.0701119
text^mastourehnasiri:141:-0.0844034
text^matien94:143818:-0.0422789
text^matien94^alinejadmasih:113234:-0.0422789
text^matin25388:153000:-0.0575314
text^matin25388^جالبه:183169:-0.0307529
text^matthew0murdock:203111:-0.0738689
text^matthew0murdock^ممنونم:227082:-0.0738689
text^mauserc96pistol:97221:0.0688402
text^mauserc96pistol^a_gholhaki:61670:0.0688402
text^mayday_888:31687:0.07276
text^mayday_888^این:65063:0.07276
text^maysidi:128045:-0.0569425
text^maysidi^ضرب:231399:-0.0569425
text^mazolesenegal:246458:0.0842389
text^mb9952:138086:0.0808311
text^mb9952^نهههه:41975:0.0808311
text^mblessedmary:101738:0.00765605
text^mblessedmary^zeynab_taheri:180358:0.101635
text^mblessedmary^دیگر:251550:0.0541034
text^mbtijh38c3:198122:-0.0406426
text^meemsaa:248921:-0.0652245
text^meemsaa^امیدوارم:218117:-0.0652245
text^megoqpbcdg:130335:-0.0388169
text^mehdi_afraa:57307:-0.0778599
text^mehdi_afraa^payamland:153881:-0.0778599
text^mehdi_kharaman:13532:0.112436
text^mehdi_kharaman^mohammadnosoohi:211120:-0.046003
text^mehdi_kharaman^داداششش:105785:0.0783061
text^mehdimmj:80666:-0.0530905
text^mehdimmj^اون:173389:-0.0999052
text^mehdizalaki:257824:0.0811231
text^mehdizalaki^مخلصم:166884:0.0811231
text^mehmey31744293:225184:-0.0841588
text^mehrban_janan:211156:-0.11775
text^mehrban_janan^pensylvani:35849:-0.0647927
text^mehrganam:197188:-0.082198
text^mehrganam^ممنونم:132467:-0.082198
text^mehrman64:49973:-0.0493361
text^mehrman64^اوکی:228337:-0.00122793
text^mehrshadparhadi:256941:-0.0673501
text^mehrshadparhadi^ali_shariatti:135053:-0.0673501
text^meisam_1:119244:0.0293086
text^meisam_1^amirihosein1358:63156:0.0293086
text^melika_m92:32502:-0.104568
text^melika_m92^اسکرین:121303:-0.0486507
text^melika_m92^تولدت:164886:-0.0685099
text^memri:211503:0.0577763
text^memri^https:221437:0.0577763
text^mention:130536:0.0691855
text^mention^reach:190107:0.0691855
text^mentions:18347:0.0691855
text^mentions^mention:17895:0.0691855
text^mesutism:54096:-0.059677
text^mesutism^درسته:154127:-0.059677
text^mghv17x65v:222043:0.0523579
text^mh8h:80923:-0.0752966
text^mh8h^roozbehp:169136:-0.0752966
text^mhasadi78:111247:0.0603219
text^mhasadi78^ناراحت:79128:0.0603219
text^mhmsoha:155406:-0.0734441
text^mhmsoha^sahartolouee:16242:-0.0734441
text^mhnajmi64:115931:-0.035258
text^mhnajmi64^ابطحی:63145:-0.035258
text^mhrezaa:207144:0.253717
text^mhrezaa^https:133394:0.12544
text^mhrezaa^sadat_m290:17216:0.0520997
text^mhrezaa^این:209668:0.0819776
text^mhrezaa^دست:99220:0.0681717
text^mhrezaa^فسوف:233184:0.0749305
text^mhxeljanng:191774:0.0768637
text^micalziynkalrom:258312:-0.084392
text^miladkamali12:117387:0.0709253
text^miladkamali12^اون:197626:0.0709253
text^miladmirgozar:166409:-0.0851547
text^milan_samari:173569:-0.111188
text^milan_samari^قبل:149290:-0.0576925
text^milan_samari^نیم:142977:-0.0741129
text^mim_aleff:38314:-0.0695215
text^mim_aleff^hadiisajjadi:175311:-0.0695215
text^mim_cheee:145599:0.154347
text^mim_cheee^mrrahbarpour:22286:0.0293086
text^mim_cheee^مگه:54486:0.0716898
text^mim_moghaddam:48507:0.0745285
text^mim_moghaddam^نماینده:87239:0.0745285
text^mim_noon:187539:-0.0854336
text^mimaleahmad5:47565:-0.0794453
text^mimaleahmad5^امیرم:211916:-0.0794453
text^mimbjpjkro:210269:-0.0411754
text^mimnoon:90366:-0.1103
text^mimnoon^خونی:74371:-0.079838
text^mimnoon^مطمئنی:67825:-0.0592566
text^mimyarahmadi:151760:0.1254
text^mimyarahmadi^saboonchi_ali:213458:0.1254
text^minashehni:257626:-0.144168
text^miraa67:103388:-0.0673772
text^miraa67^نکروفیلیک:225661:-0.0673772
text^mireghazab:212866:-0.054187
text^mireghazab^khomeini95:64443:0.0519611
text^mirzakoo4kkhan:159205:0.120907
text^mirzakoo4kkhan^شما:251354:0.06874
text^mirzakoo4kkhan^نظر:85073:0.0777223
text^miss_sargol:193440:-0.058916
text^miss_sargol^kayvan_saedy:76866:-0.058916
text^missi007xy:93435:-0.109211
text^missi007xy^0_sefrmotlagh:59317:-0.109211
text^mitrabi:94624:-0.0281423
text^mitrabi^emad_bahavar:233019:-0.0673501
text^mj70bfnrib:93459:0.0668712
text^mjaha2526:144266:-0.156947
text^mjaha2526^semirammiiss:34100:-0.0985168
text^mjaha2526^voidnemesis:142877:-0.0493711
text^mjaha2526^فدای:253983:-0.072119
text^mjavad_:193860:0.0293086
text^mjavad_^arezo_khedmati:216391:0.0293086
text^mjf6bolsre:198936:0.0744183
text^mjz8nbsx1n:28659:-0.0695215
text^mm6hcz6aje:138192:-0.0801671
text^mm85209897:214929:0.031752
text^mm85209897^yaminpour:61313:0.031752
text^mm_mo_moeen:26691:-0.125062
text^mm_mo_moeen^الان:8327:-0.0365234
text^mm_mo_moeen^خودشو:101436:-0.0673794
text^mm_mo_moeen^کارکرد:240461:-0.0613279
text^mmanzoori:214964:-0.0680193
text^mmanzoori^وای:104077:-0.0680193
text^mmasiha:135225:0.0667453
text^mmasiha^j1nne:5828:0.0667453
text^mmohammadii61:32690:0.246951
text^mmohammadii61^mah_sadeghi:145603:0.200581
text^mmohammadii61^yaminpour:214046:0.0751071
text^mmohammadii61^تایملاین:135647:0.0487693
text^mnasserraouf:237975:-0.0445681
text^mnasserraouf^راستش:91846:-0.0445681
text^mntoqjlcta:224006:-0.0521143
text^moafqnffgg:29219:-0.0186938
text^mobarezirani70:220752:0.0637194
text^mobarezirani70^باید:6966:0.0637194
text^mobinoshz:68490:-0.136088
text^mobinoshz^اره:82117:-0.0806187
text^mobinoshz^امشب:156925:-0.0791655
text^mohajer__90:105220:0.0687595
text^mohajer__90^خداکنه:124682:0.0209701
text^mohamad_khayyer:61537:0.0746607
text^mohamad_khayyer^sedhadihoseiny:226876:0.0746607
text^mohamma69448131:235924:0.0504158
text^mohamma69448131^antiisraeli:30557:0.0504158
text^mohammad_213110:123817:0.0679084
text^mohammad_213110^delavaar:23803:0.0679084
text^mohammad_ab65:165305:0.0682167
text^mohammad_ab65^sobhe_no:261726:-0.00833736
text^mohammad_binai:100631:0.12544
text^mohammad_binai^mhrezaa:125155:0.0910018
text^mohammadabkar95:65932:0.082715
text^mohammadabkar95^yaminpour:127120:0.082715
text^mohammadhosenz2:245178:-0.136673
text^mohammadhosenz2^باريكلا:108508:-0.0585725
text^mohammadhosenz2^شما:149339:-0.0483226
text^mohammadhosenz2^عجب:103579:-0.0445154
text^mohammadmaj1:123518:0.0648401
text^mohammadmaj1^مثلا:211514:0.0648401
text^mohammadmosaed:113892:0.0864683
text^mohammadmosaed^hatefmotahhary:125130:0.0904181
text^mohammadnosoohi:256836:0.0519611
text^mohammadnosoohi^shah_enghlabi:134124:0.0832155
text^mohammadsalas:32041:-0.152917
text^mohammadsalas^https:27151:-0.0326873
text^mohammadsedarat:57745:0.0506411
text^mohammadsedarat^موفق:170182:0.0506411
text^mohandesbalali:221382:0.0840417
text^mohandesbalali^تابستان_داغ:118248:0.0840417
text^mohesk:193350:-0.104212
text^mohesk^john_lucckk:190041:-0.104212
text^mohmd_mozafari:17897:-0.168599
text^mohmd_mozafari^patric_jane7:6016:-0.0619144
text^mohmd_mozafari^patrick_jane7:127284:-0.0768141
text^mohmd_mozafari^ایشالله:208323:-0.0599604
text^mohmd_mozafari^بهنام:57328:-0.0530793
text^mohmohajeri:129477:-0.0647774
text^mohmohajeri^همچنین:258796:-0.0647774
text^mohsen_eghbal:146839:0.0807536
text^mohsen_eghbal^حس_مشترک:51540:0.0807536
text^mohsenclimber:254805:-0.158282
text^mohsenclimber^این:89469:-0.0570792
text^mohsenclimber^حتما:250273:-0.0613507
text^mohsenclimber^مدخل:251990:-0.05947
text^mohsenclimber^نمی:94849:-0.0728266
text^mojtaba_alaiee:6501:0.0293086
text^mojtaba_alaiee^seyed_alireza74:250330:0.0293086
text^mojtabaazad71:128698:0.098116
text^mojtabaazad71^تعریفمون:101843:0.0849027
text^molhed_mhmd:123244:-0.0537561
text^molhed_mhmd^بابا:193987:-0.0537561
text^monaborzouei:140023:0.0995443
text^monaborzouei^رهبری:180733:0.0995443
text^monsieur_leon:253248:0.0277857
text^monsieur_leon^hamedaskari777:107687:0.0277857
text^moor_yammy:151932:-0.0850317
text^morrphiin:8673:-0.0843555
text^mortaza_jalili:212429:0.0293086
text^mortaza_jalili^daryakavoos:99050:0.0293086
text^morteza00861586:187907:0.0854193
text^morteza81:228718:0.0440825
text^morteza81^zianabavi1:237122:-0.0656241
text^mosafer_ir:167280:0.0293086
text^mosafer_ir^remisa77:141438:0.0293086
text^mosomidvar:18659:-0.00311
text^mosomidvar^aadamebnehavva:83478:-0.0802476
text^mosomidvar^صحبت:140345:0.0606889
text^mostafatajzade:15855:0.306582
text^mostafatajzade^abdollahram:68350:0.217803
text^mostafatajzade^sadeghzibakalam:137246:0.11048
text^mostafatajzade^جنگ:140799:0.0441568
text^mostafatajzade^یادش:228822:0.0598737
text^mostatfa_:150301:0.0777166
text^mostatfa_^هوایی:261053:0.0777166
text^motahareh_75:149716:0.166861
text^motahareh_75^yaminpour:213688:0.0554123
text^motahareh_75^بله:141431:0.0645125
text^motahareh_75^عجب:157005:0.0775964
text^motahareh_75^نمی:222468:0.0565749
text^mousavi661388:221101:-0.0614141
text^mousavi661388^هزینه:96095:-0.0614141
text^movafard:19168:-0.160905
text^movafard^بابا:187751:-0.0678528
text^movafard^عالی:101470:-0.0537547
text^movafard^ممنونم:186271:-0.0765853
text^mowlaverdi:199280:0.195819
text^mowlaverdi^mah_sadeghi:106121:0.0751071
text^mowlaverdi^mmohammadii61:135266:0.200581
text^mowlaverdi^اینجوریه:212230:-0.0392344
text^mozakarefarsi:91199:0.0847102
text^mozdour:134138:0.0697038
text^mozdour^sfp800:131512:0.0485841
text^mr99rvzefq:171619:-0.0567547
text^mr99rvzefq^https:6241:-0.0567547
text^mr__whiplash:51022:-0.0497724
text^mr__whiplash^alireza_arad:54130:-0.0497724
text^mr_borna:180468:-0.0852597
text^mr_borna^عهوم:158219:-0.0852597
text^mr_voice98:138583:-0.0549519
text^mr_voice98^مرسی:63289:-0.0549519
text^mrezashahbazi:176605:0.0734076
text^mrezashahbazi^ولی:123709:0.0734076
text^mrrahbarpour:237131:0.0293086
text^mrrahbarpour^sm_1361:120294:0.0293086
text^mrs__cuthbert:255830:-0.0765553
text^mrs__cuthbert^نظر:60670:-0.0765553
text^ms_jahanbakhsh:163063:0.00150169
text^ms_jahanbakhsh^بزرگواری:11300:0.0519611
text^msiamak:17537:-0.107953
text^msiamak^راس:248109:-0.0508766
text^mstwti:40602:0.0277857
text^mstwti^ruhollah_s:88844:0.0277857
text^mty60vckxd:44680:-0.0524393
text^muha_hj:219938:0.0847444
text^muha_hj^yaminpour:156110:0.0744972
text^muha_hj^توضیح:11419:0.11358
text^muslim:199515:0.0380397
text^muslim^were:49021:0.0380397
text^muslims:133770:0.0732139
text^muslims^were:120048:0.0380397
text^mvahidimani:19663:0.0440744
text^mvahidimani^yaminpour:91591:0.0440744
text^myasin677:125874:0.0688444
text^myasin677^چشم:170297:0.0688444
text^mz09kc1ztz:12874:-0.0370196
text^mz_1374:106435:0.0796893
text^mz_1374^بله:194218:0.0796893
text^mzr1370:150385:0.0859898
text^mzr1370^rzvan73:216375:0.0277857
text^mzr1370^شایدم:118236:0.0238632
text^n4imrd5qk8:153060:-0.0362542
text^n6oxlm4pbc:168338:-0.0747817
text^n8q0rkaytm:195405:0.0587312
text^n_aghanouri:97564:0.0293086
text^n_aghanouri^mortaza_jalili:127609:0.0293086
text^naderitwt:164326:0.247623
text^naderitwt^roozitalab1362:224621:0.0953487
text^naderitwt^syjebraily:3752:0.209002
text^naderitwt^yaminpour:139650:0.0522254
text^nadershokoufi:23860:-0.0377828
text^nadershokoufi^صاحبخانه:140940:-0.0377828
text^naeeme59:231639:0.0813567
text^naeeme59^bbcshameonyou:203142:0.0813567
text^nafise:185996:-0.0566748
text^nafise92:246916:0.0804959
text^nafise92^مبارک:220001:0.0804959
text^nafise^آدم:257978:-0.059171
text^nafisemousavii:215295:0.117437
text^nafisemousavii^fathalichah:31842:0.0676508
text^nafisemousavii^jeanvaljean65:216931:0.0277857
text^nafisemousavii^keramati013:255286:-0.0336839
text^nafisemousavii^بعدم:31732:0.0607848
text^nafisemousavii^دلتون:233434:0.0346738
text^nahaangard:173761:-0.0714523
text^nahaangard^شما:202566:0.102238
text^nahidseif:41328:-0.0501147
text^nahidseif^خودمم:131889:-0.0501147
text^naila1988j:190359:-0.0846542
text^najafi_tehrani:87457:0.105917
text^najafi_tehrani^rationalisti:99093:0.105917
text^najahmali:165620:0.0809512
text^najahmali^آماشالللاااااا:174207:0.0306527
text^napadidgah:42274:-0.0501184
text^napadidgah^rezaa_fazelian:233546:-0.0501184
text^narsisap88:80548:0.0797982
text^narsisap88^دوست:204259:0.0797982
text^nasim_m313:255889:0.0687813
text^nasim_m313^چاهنچاه:89336:0.0687813
text^nasimm1212:42021:0.067109
text^nasimm1212^ایشون:158903:0.067109
text^naslesevom:53187:0.0799066
text^naslesevom^فقط:31793:0.0799066
text^nasrinrose1:185719:-0.0322143
text^nasrinrose1^patrick_jane7:55434:-0.0322143
text^native:128186:-0.0422443
text^native^iran:217433:-0.0422443
text^natoor95:228636:-0.0801671
text^natoor95^https:45366:-0.0801671
text^nb2udiqgq9:28228:-0.0820578
text^ncshxtb8dc:253034:-0.069467
text^negarkhalili13:124989:-0.0519053
text^negarkhalili13^pensylvani:238286:-0.0519053
text^nejebbadi031:22115:0.0519611
text^nejebbadi031^amiss_96:196299:0.0519611
text^ngrb5vxcu4:92707:0.0654445
text^ngx37ormhg:63073:-0.0422443
text^ngx37ormhg^https:22119:-0.0422443
text^niki888:204717:-0.129734
text^niki888^mimnoon:252663:-0.0592566
text^nikols68:72501:-0.0871466
text^nikols68^sertraline7394:158391:-0.0871466
text^nilil9vmjc:206509:-0.0361045
text^nilil9vmjc^https:90499:-0.0361045
text^niloufarhsn:15532:0.0679169
text^niloufarhsn^hosseindalirian:113166:0.0277857
text^niloufarhsn^پول:142499:0.0651722
text^nima_mx:242630:0.0611767
text^nima_mx^جزو:115250:0.0611767
text^nimeshab:101832:-0.0733374
text^nimeshab^خیلی:170052:-0.0733374
text^no2fatf:117460:0.145433
