Version 8.5.0
Id 
Min label:-50
Max label:50
bits:18
lda:0
1 ngram:3 
0 skip:
options: --hash_seed 0 --link identity
Checksum: 3163000686
:0
Constant:116060:0.0641386
text^00ashmash:68236:-0.101108
text^00ashmash^نکته:228025:-0.0575074
text^00ashmash^نکته^همون:257974:-0.0508888
text^01ucjspw3b:158674:0.0339165
text^0903_869:227062:-0.0324245
text^0903_869^وقتی:201956:-0.0324245
text^0903_869^وقتی^حضرت:146190:-0.0324245
text^09psbou2ml:170429:-0.0260001
text^09sdbhwsxh:26209:0.0381243
text^0_sefrmotlagh:262054:-0.0857988
text^0_sefrmotlagh^خود:93427:-0.0463468
text^0_sefrmotlagh^خود^شلدون:15939:-0.0463468
text^0_sefrmotlagh^شرمنده:164112:-0.0503591
text^0_sefrmotlagh^شرمنده^میکنید:22669:-0.0503591
text^0ahmadi0:166507:0.061384
text^0ahmadi0^سوسولش:172588:0.061384
text^0ahmadi0^سوسولش^خودتی:164453:0.061384
text^0p4axu8q3l:99294:0.0357988
text^0rcaz9y46i:51739:0.0331913
text^0sspzcbymj:255804:0.0317667
text^0ts70oqzl3:58087:-0.0219791
text^0x007a:78024:-0.0377664
text^0x007a^xorpex:69867:-0.0377664
text^0x007a^xorpex^hfmhanif:213656:-0.0377664
text^0xjzvtgup5:93114:-0.029974
text^100:44680:-0.0367448
text^100^بچه:55103:0.0365346
text^100^بچه^پیرزن:116799:0.0365346
text^100^درصد:210304:-0.0396723
text^100^درصد^فاضلاب:185808:-0.0396723
text^100هزار:142528:0.0272154
text^100هزار^دلار:246089:0.0272154
text^100هزار^دلار^برای:148261:0.0272154
text^101gholami:245428:0.0521022
text^101gholami^سؤال:159675:0.0521022
text^101gholami^سؤال^میکنیم:18907:0.0521022
text^110:44690:-0.0406884
text^110^زنگ:16749:-0.0490591
text^110^زنگ^زدم:241674:-0.0223954
text^110^نیرو:77728:-0.0238725
text^110^نیرو^بیاد:217827:-0.0238725
text^114:44694:0.037167
text^114^mentions:178665:0.037167
text^114^mentions^mention:95533:0.0857874
text^1359:45939:-0.0268767
text^1359^1367:90146:-0.0268767
text^1359^1367^هزار:228025:-0.0575074
text^1367:45947:-0.0268767
text^1367^هزار:185774:-0.0268767
text^1367^هزار^و420:138910:-0.0268767
text^1400:45980:0.050343
text^1400^ساله:97256:0.0276482
text^1400^ساله^اصفهان:260848:0.0276482
text^146:44726:0.0421235
text^146^mentions:153993:-0.0154495
text^146^mentions^mention:243277:-0.0159265
text^1500:46080:0.0386781
text^1500^مردم:43377:0.0386781
text^1500^مردم^عادی:213659:0.0172161
text^160:44740:0.0562036
text^160^کود:84793:0.037322
text^160^کود^انسانی:96586:0.037322
text^1982:46562:0.0253668
text^1982^حمله:127014:0.0253668
text^1982^حمله^اسرائیل:21235:0.0253668
text^1996:46576:0.0431924
text^1996^اسرائیل:156565:0.0431924
text^1996^اسرائیل^دوبار:258241:0.0431924
text^1998:46578:0.0304982
text^1998^جنایت:42163:0.0253668
text^1998^جنایت^صبرا:75382:0.0467632
text^1alas57hkw:261969:0.0659033
text^1gmdkok31b:255573:0.0560621
text^1hoseim:91314:-0.10623
text^1hoseim^تولدش:177515:-0.0629525
text^1hoseim^تولدش^کلی:21613:-0.0629525
text^1hoseim^دادی:148267:-0.0517342
text^1hoseim^دادی^اکانت:76818:-0.0305661
text^1hoseim^قدر:67778:-0.0386993
text^1hoseim^قدر^خوب:224690:-0.0386993
text^1jkbofruf6:100972:-0.0641376
text^1kruczynsky:142995:-0.0485279
text^1kruczynsky^خیلی:29923:-0.0485279
text^1kruczynsky^خیلی^مسخره:150551:-0.0753896
text^1n8bzusdeb:70302:0.0646766
text^1osfix2aw7:228069:0.0441065
text^1pzqkb5nor:18704:-0.026036
text^1qo5dfp2mb:235171:0.0567478
text^1r2vyfzwpr:159964:0.0620226
text^1rnjlvt7yq:175349:-0.0383114
text^1wfq0hreve:248255:0.0149656
text^2006:46586:-0.0155302
text^2006^حمله:174046:0.0253668
text^2006^حمله^اسرائیل:971:0.0253668
text^2014:46594:0.0253668
text^2014^حمله:102342:0.00624014
text^2014^حمله^داعش:246812:0.00551456
text^2018:46598:0.0344129
text^2018^است:221350:0.0286495
text^2018^است^حمایت_از_کالای_داخلی:130056:0.0286495
text^2018^جنایت:256119:0.0253668
text^2018^جنایت^عربستان:70310:-0.0182636
text^2018^روسیه:225616:0.0461492
text^2018^روسیه^بازماندند:25142:0.0461492
text^2030:46610:-0.00379037
text^2030^گرفته:201873:-0.0273347
text^2030^گرفته^امکان:234124:-0.0273347
text^21سال:157361:-0.0239408
text^21سال^طول:149773:-0.0239408
text^21سال^طول^کشیده:120746:-0.0239408
text^241:44821:0.0421235
text^241^retweets:192115:0.0421235
text^241^retweets^replies:254615:-0.00964096
text^254:44834:0.028793
text^254^585:130311:0.028793
text^254^585^تعداد:122095:0.028793
text^255:44835:0.0200106
text^255^retweets:1097:0.037167
text^255^retweets^replies:220949:0.037167
text^25yp3kgnaj:39139:0.039343
text^264fo1vfa1:29236:0.0214424
text^290:44870:0.058104
text^290^سالیانه:255128:0.037322
text^290^سالیانه^میتونه:142604:0.037322
text^2ije75zln7:123834:-0.055455
text^2la7qjhpya:258568:-0.0486397
text^2whte0v7yq:142287:0.0260035
text^2wjnpdscdx:156205:0.042915
text^300:44880:0.0651843
text^300^میلیونی:94688:0.0723645
text^300^میلیونی^برای:134240:0.0288421
text^300^میلیونی^دستشویی:183579:0.0501382
text^30سال:255585:0.0796659
text^30سال^زیرساختهای:24139:0.0365274
text^30سال^زیرساختهای^آبی:18386:0.0365274
text^3624:48204:0.0363972
text^3624^دلار:126629:0.0363972
text^3624^دلار^یمنی:173039:0.0363972
text^37ysbq9kka:153391:0.0386327
text^38qbyhupbx:121363:-0.0271204
text^3cb6ngjcpj:13618:0.0396507
text^3cjnhpwe1g:204262:-0.0511369
text^3e7bsxktxi:157601:-0.0254829
text^3enw8g5mk6:70791:-0.0339035
text^3jgr6rcfrw:114331:-0.0297584
text^3jrsev9ezd:247694:0.0471716
text^40zusmwm73:76285:-0.0205605
text^44lvbktfrb:90324:0.0404705
text^46uaromar6:98045:0.023715
text^4gf9vi7wol:93150:0.0597185
text^4lhqjkwlmy:141888:0.0443701
text^4m3qexmnw6:35713:0.0365838
text^4theistcreature:213931:0.148133
text^4theistcreature^westfalen_09:173066:0.0799653
text^4theistcreature^westfalen_09^آره:65468:0.0608103
text^4theistcreature^westfalen_09^بدبخت:107662:0.0384041
text^4theistcreature^راستی:46701:0.0437468
text^4theistcreature^راستی^اگه:126106:0.0437468
text^4theistcreature^عزیز:226363:0.0453157
text^4theistcreature^عزیز^دلم:81535:0.0453157
text^4theistcreature^هرچی:70147:0.0479991
text^4theistcreature^هرچی^دوست:203462:0.0479991
text^4wibvassga:7922:0.0275133
text^585:45165:0.028793
text^585^تعداد:118973:0.028793
text^585^تعداد^افرادی:6375:0.028793
text^5pwzcgnei4:256373:0.116413
text^5yr8flp5af:116281:0.0435173
text^6av4a5teujmyxbe:130265:0.0582297
text^6av4a5teujmyxbe^خوشگلی:117989:0.0582297
text^6av4a5teujmyxbe^خوشگلی^محرومت:130355:0.0582297
text^6drf5mo8hw:213413:0.0649794
text^6fcwqeseea:163191:-0.05118
text^6lrg5r4y3q:151119:0.0214493
text^6national_front:234729:-0.161785
text^6nhlb5jdla:109497:-0.0496474
text^6zgpevdj0u:74810:0.0520525
text^710:45290:-0.0268767
text^710^تعداد:79942:-0.0268767
text^710^تعداد^زنانی:14681:-0.0268767
text^72k:164296:0.037167
text^72k^likes:38731:0.037167
text^72k^likes^255:206914:0.037167
text^78ioirzk9y:190923:0.0645061
text^79wfbxeutt:123503:0.0635675
text^7amky82sfa:252553:-0.0671448
text^7fo38kbkx4:133631:0.0431825
text^7hodwuwa6b:250368:0.0527619
text^7jingel:194040:-0.0314038
text^7jingel^zahrahb:127761:0.01993
text^7jingel^zahrahb^fotros139:228965:0.01993
text^7mfzl8swcb:123704:0.0603967
text^7oaikaxcbx:112697:0.0638814
text^7qquw2zlki:13305:0.0690065
text^7sjpsvlepu:32590:-0.0128668
text^7yk3okizjy:260863:-0.0458861
text^8000:52580:0.0270983
text^8000^کرده:240799:0.076427
text^8000^کرده^داره:86794:0.0270983
text^80millionagainsttrump:197986:0.0724721
text^81cli4u0ep:226001:0.0339775
text^81cli4u0ep^https:102679:0.0576028
text^81cli4u0ep^https^e8wquizqyl:142172:0.0339775
text^834bvergsj:129349:0.0428312
text^8500:53080:0.0270983
text^8500^سکه:25881:0.0270983
text^8500^سکه^خیز:159601:0.0270983
text^8f6k3irupj:132405:-0.0377664
text^8iqsizc4xf:172017:0.0534061
text^8ixby478o7:215685:-0.0344565
text^8qicoclnvv:258439:-0.0288889
text^8retro:207127:-0.0600968
text^8retro^لطفا:138849:-0.0600968
text^8retro^لطفا^لینک:84756:-0.0600968
text^93i39xowm1:108797:-0.0418097
text^94k:4460:-0.000212718
text^94k^likes:162911:0.0421235
text^94k^likes^241:113912:0.0421235
text^98sam_h:160372:-0.0666351
text^98sam_h^رضا:194072:-0.0666351
text^98sam_h^رضا^پهلوی:127822:-0.08387
text^9bqadrxyum:129649:0.0635561
text^9qnfvt5y3p:13738:-0.0348198
text^9xmvehe4ranidmx:173222:-0.0394244
text^9xmvehe4ranidmx^shahinnajafi80:205605:-0.061064
text^9xmvehe4ranidmx^shahinnajafi80^لزوما:88368:-0.0394244
text^9ymjqsczzy:89678:-0.0380471
text^9ymjqsczzy^https:145312:-0.00450229
text^9ymjqsczzy^https^pfxasjadaf:98755:-0.0380471
text^9yvjy9mu0h:115291:-0.0639596
text^_30rooss_:61696:0.0572651
text^_30rooss_^khanomirany:195097:-0.0207592
text^_30rooss_^khanomirany^niloufarhsn:25441:0.01993
text^_30rooss_^nasimm1212:184613:0.052715
text^_30rooss_^nasimm1212^ایشون:58807:0.052715
text^_____sina____:139797:-0.053406
text^_____sina____^keykhoon:109819:-0.053406
text^_____sina____^keykhoon^jorginshadow:30281:-0.053406
text^__m_ar_j__:80941:-0.0352664
text^__m_ar_j__^حالا:237958:-0.0352664
text^__m_ar_j__^حالا^اونو:131592:-0.0352664
text^_alirezza:17561:-0.0359242
text^_alirezza^mahadjefri2:80762:-0.0359242
text^_alirezza^mahadjefri2^روحانی:106:-0.0359242
text^_bi_ta_:133002:-0.0643868
text^_bi_ta_^ازین:26870:0.0278266
text^_bi_ta_^ازین^زاویه:40384:-0.0262375
text^_bi_ta_^بیتا:116084:-0.0278642
text^_bi_ta_^بیتا^جان:251777:-0.0278642
text^_bi_ta_^شاید:77804:-0.0233943
text^_bi_ta_^شاید^دلیلش:218140:-0.0233943
text^_ghasedak:19782:0.0530101
text^_ghasedak^freemaysam:210522:0.0506119
text^_ghasedak^freemaysam^zahrahb:52203:0.0649656
text^_gholizadeh_:172793:0.0583724
text^_gholizadeh_^همه:177235:0.0448656
text^_gholizadeh_^همه^واقعیتها:210986:0.0583724
text^_mar_yam__:211732:-0.0333217
text^_mar_yam__^بابا:61643:-0.0840937
text^_mar_yam__^بابا^این:135963:-0.0333217
text^_masoum_:181657:0.075703
text^_masoum_^mosafer_ir:53669:0.0216138
text^_masoum_^mosafer_ir^remisa77:40159:0.0216138
text^_mrpolitician:218151:0.0616559
text^_mrpolitician^مشکل:169146:0.0616559
text^_mrpolitician^مشکل^رفتن:28082:0.101571
text^_parhamam_:202943:0.0478264
text^_parhamam_^bravegiiirl:211112:0.0216138
text^_parhamam_^bravegiiirl^yavarmahdy:248719:0.0216138
text^_parhamam_^بوس:185636:0.0388675
text^_parhamam_^بوس^سید:73424:0.0593667
text^_psychsocial_:85767:0.0652765
text^_psychsocial_^wendychidester:47201:0.0471433
text^_psychsocial_^wendychidester^rezhna0100:208450:0.0652765
text^_rezrez_:97805:-0.0485762
text^_rezrez_^فتنه:161956:-0.0485762
text^_rezrez_^فتنه^گری:114815:-0.0485762
text^_آخه:70758:0.0374931
text^_آخه^ساندویچ:140479:0.0374931
text^_آخه^ساندویچ^ماهی:242093:0.0374931
text^_آموزان:95304:0.00572062
text^_آن:237677:0.0280159
text^_آن^چیست:2528:0.029942
text^_آن^چیست^تواند:77560:0.0661538
text^_بعد:190942:0.0232022
text^_بعد^رای:90774:0.041994
text^_بعد^رای^اعتماد:167541:0.0232022
text^_بی:6583:0.0447426
text^_بی^bbcshameonyou:181990:0.0447426
text^_حتی:152606:0.0641459
text^_حتی^بیشتر:30611:0.0444551
text^_حتی^بیشتر^ظرفیت_:87008:0.0539346
text^_دنبال:100032:-0.0401722
text^_دنبال^رفع:61498:0.0232022
text^_دنبال^رفع^فیلتر:143872:0.0232022
text^_سر:207081:-0.0259162
text^_سر^ماجرای:72448:0.0859868
text^_سر^ماجرای^تلگرام:113851:0.0232022
text^_صدر:95603:0.0237951
text^_صدر^بعد:59840:0.0237951
text^_صدر^بعد^شهادت:151395:0.0484303
text^_میگن:156843:0.0232022
text^_میگن^توصیه:91933:0.0514498
text^_میگن^توصیه^شده:102279:0.0232022
text^_نتانیاهو_:217467:0.0625473
text^_نتانیاهو_^بحران_آب:83731:0.0269489
text^_نتانیاهو_^بحران_آب^ایران:133092:0.0269489
text^_هیئت:137396:0.0232022
text^_هیئت^سعید:167932:0.0232022
text^_هیئت^سعید^حدادیان:127552:0.0232022
text^_که:83939:0.0224763
text^_که^حتما:211447:0.0224763
text^_که^حتما^هست_:198308:0.0224763
text^a_gholhaki:54069:0.0915194
text^a_gholhaki^تنها:121947:0.046337
text^a_gholhaki^تنها^سخنرانی:171479:0.046337
text^a_gholhaki^نفوذی:94070:0.0390907
text^a_gholhaki^نفوذی^بوده:250835:0.0544284
text^a_gholhaki^کاوه:10624:0.0465065
text^a_gholhaki^کاوه^مدنی:185569:0.0465065
text^a_seyfi_hodhod:124705:0.089687
text^a_seyfi_hodhod^el_gigino_97:2754:0.01993
text^a_seyfi_hodhod^el_gigino_97^monsieur_leon:14074:0.01993
text^a_seyfi_hodhod^اتفاقا:177644:0.0265728
text^a_seyfi_hodhod^اتفاقا^این:245944:0.059303
text^a_seyfi_hodhod^خبرها:246998:0.0410188
text^a_seyfi_hodhod^خبرها^جدی:65569:0.0410188
text^aa_yzd:235842:-0.0378281
text^aa_yzd^خانم:251023:-0.0378281
text^aa_yzd^خانم^طاهری:126691:-0.0378281
text^aadamebnehavva:108991:0.0773893
text^aadamebnehavva^alisan313:26916:0.0429833
text^aadamebnehavva^alisan313^azarbayjaniam:28504:0.01993
text^aadamebnehavva^https:221773:0.0658519
text^aadamebnehavva^https^vvhafpfy5c:141386:0.0770575
text^aadamebnehavva^israelpersian:51915:-0.0666573
text^aadamebnehavva^j1nne:194610:0.0388675
text^aadamebnehavva^j1nne^famil_door:214378:0.0388675
text^aadamebnehavva^حرفها:233955:0.0603377
text^aadamebnehavva^حرفها^تموم:68554:0.0603377
text^aadamebnehavva^دیدیم:189417:0.0490552
text^aadamebnehavva^دیدیم^میگیم:4235:0.0490552
text^aadamebnehavva^متاهلم:104714:0.0526068
text^aadamebnehavva^متاهلم^حاجی:145162:0.0691395
text^aadamebnehavva^میگن:126979:0.0435106
text^aadamebnehavva^میگن^مستعارا:118393:0.0435106
text^aalamin693:216647:0.053487
text^aalamin693^جالبه:238756:0.053487
text^aalamin693^جالبه^میگه:41334:0.053487
text^aamiizbenvis:80156:-0.0689727
text^aamiizbenvis^lavita_m92:52603:-0.046841
text^ab23ejfmbc:29164:-0.0779184
text^abarat_1099:204246:0.0538285
text^abarat_1099^خودش:109264:0.0538285
text^abarat_1099^خودش^تکذیب:80926:0.0538285
text^abasanti666:242665:0.01993
text^abasanti666^tub67:216808:0.01993
text^abasanti666^tub67^abuheyran:224338:0.01993
text^abdollahram:258507:0.160469
text^abdollahram^mowlaverdi:259087:0.183439
text^abdollahram^mowlaverdi^mah_sadeghi:238764:0.0558736
text^abdollahram^mowlaverdi^mmohammadii61:5765:0.121195
text^abdozzahra18:139639:0.0633017
text^abdozzahra18^نقد:51232:0.0354502
text^abdozzahra18^نقد^کنیم:47526:0.0354502
text^abedishahroudi:260701:0.0594421
text^abedishahroudi^دارک:244896:0.0594421
text^abedishahroudi^دارک^بلو:11449:0.0376864
text^abolfazl46:240430:-0.0471858
text^abolfazl46^خیلی:151058:-0.0878176
text^abolfazl46^خیلی^فیلسوفانه:69951:-0.0471858
text^abookomeil2:55504:0.0688924
text^abookomeil2^fatimah_1727:28637:0.0647216
text^abookomeil2^fatimah_1727^hani_hashami:79964:0.0894576
text^abookomeil2^hani_hashami:148611:0.0111405
text^abookomeil2^hani_hashami^siib_saa:76641:0.0616589
text^abooreyhan1:226078:0.0643282
text^abooreyhan1^ربطی:190752:0.0643282
text^abooreyhan1^ربطی^داشت:246684:0.0643282
text^abtin54298263:147864:-0.0122787
text^abtin54298263^رسانه:102753:-0.0257902
text^abtin54298263^رسانه^نکته:214842:-0.0257902
text^abuheyran:200970:-0.0253428
text^abuheyran^doctorequalizer:66601:0.01993
text^abuheyran^doctorequalizer^bijani2016:168178:0.01993
text^accidentally:254935:-0.0608115
text^accidentally^https:224261:-0.0608115
text^accidentally^https^n6oxlm4pbc:7811:-0.0608115
text^add:12051:-0.0499553
text^add^twibbon:51801:-0.0499553
text^add^twibbon^now:120815:-0.010354
text^adelian_darab:60128:0.0910086
text^adelian_darab^t_alidoosti:16455:0.0910086
text^adelian_darab^t_alidoosti^afsharmahnaz:24585:0.0910086
text^adicean:154819:-0.0424568
text^adicean^حالا:179652:-0.0424568
text^adicean^حالا^خوبه:163808:-0.0564936
text^afaghemaghrebi:145450:-0.0511797
text^afaghemaghrebi^الان:236498:-0.0511797
text^afaghemaghrebi^الان^ترکیه:215472:0.012353
text^afsaranir:76800:0.085754
text^afsaranir^اصل:189898:0.0560742
text^afsaranir^اصل^برائته:146742:0.0560742
text^afsaranir^راس:13744:0.0451555
text^afsaranir^راس^میگه:19026:0.0451555
text^afsharmahnaz:87518:0.0910086
text^afsharmahnaz^mostafatajzade:123477:0.0882545
text^afsharmahnaz^mostafatajzade^sadeghzibakalam:145644:0.0815616
text^agha_zan:117252:0.0216138
text^agha_zan^salmanrood:37113:0.0216138
text^agha_zan^salmanrood^farzanegholami:61585:0.0216138
text^aghajoon1983:239062:0.0561578
text^aghajoon1983^دوباره:183589:0.0561578
text^aghajoon1983^دوباره^برشون:2922:0.000727668
text^aghaye_rishoo2:43037:0.0369814
text^aghaye_rishoo2^آقا:165588:0.0369814
text^aghaye_rishoo2^آقا^گفته:15263:0.0369814
text^aghbahman:51125:-0.0593476
text^aghbahman^hossein891:241438:-0.0248874
text^aghbahman^hossein891^سوتفاهم:232156:-0.0248874
text^aghbahman^بخش:78457:-0.0275933
text^aghbahman^بخش^آخر:153199:-0.0275933
text^aghbahman^برن:51143:-0.0336392
text^aghbahman^برن^تشکل:95515:0.0403507
text^agho_hamsade:39249:-0.0557473
text^agho_hamsade^حالا:237082:-0.0557473
text^agho_hamsade^حالا^میشه:67371:-0.0557473
text^aghpourya:177129:-0.0333002
text^aghpourya^وثیقه:259137:-0.103158
text^aghpourya^وثیقه^خانواده:87159:-0.048341
text^agparanoid:9735:0.0618006
text^agparanoid^جونم:133687:0.0618006
text^agparanoid^جونم^فدات:157245:0.0618006
text^agxcrhhj93:163843:-0.0621304
text^agxcrhhj93^via:226666:-0.0294628
text^agxcrhhj93^via^dw_persian:214589:-0.0294628
text^ahmaddastaran:179556:0.112956
text^ahmaddastaran^احسنت:122163:0.0195834
text^ahmaddastaran^دقیقا:79362:0.0638728
text^ahmadrezabeyzai:145540:0.204666
text^ahmadrezabeyzai^israelpersian:175996:0.0752215
text^ahmadrezabeyzai^israelpersian^دیدن:151692:0.0472582
text^ahmadrezabeyzai^israelpersian^قانای:260831:0.0431924
text^ahmadrezabeyzai^این:159984:0.0445357
text^ahmadrezabeyzai^این^چیزی:202079:0.0445357
text^ahmadrezabeyzai^برا:202200:0.058053
text^ahmadrezabeyzai^برا^فیدل:181709:0.058053
text^ahmadrezabeyzai^دانشگاه:189727:0.0431243
text^ahmadrezabeyzai^دانشگاه^اتاقی:98125:0.0431243
text^ahmadrezabeyzai^قبول:11178:0.0607447
text^ahmadrezabeyzai^قبول^داری:188318:0.0607447
text^ahmadrezabeyzai^قشنگ:85739:0.0438998
text^ahmadrezabeyzai^قشنگ^پیداس:204336:0.0438998
text^ahmadrezabeyzai^والا:75830:0.052839
text^ahmadrezabeyzai^والا^خدا:104030:0.00932821
text^ahmatagha:222912:-0.0428542
text^ahmatagha^febrahimzade:43075:-0.0428542
text^ahmatagha^febrahimzade^تویت:90015:-0.0428542
text^ahumgz8bvp:69318:0.0395625
text^aiiwass:215974:-0.0387518
text^aiiwass^jeanvaljean65:258670:-0.0286304
text^aiiwass^jeanvaljean65^drneo07:79485:-0.0286304
text^aiiwass^rezayounesi4:122741:0.0264944
text^aiiwass^rezayounesi4^alinejadmasih:249937:-0.0435208
text^ajf9drimfm:134761:0.0407771
text^ajibzade:130334:-0.210006
text^ajibzade^tanasoli:217316:-0.123864
text^ajibzade^tanasoli^اوکی:157156:-0.0315592
text^ajibzade^tanasoli^خودت:227921:-0.0570176
text^ajibzade^tanasoli^دوسپسر:219927:-0.0404544
text^ajibzade^tanasoli^عاره:56984:-0.0387086
text^ajibzade^tanasoli^ماه:47131:-0.0448366
text^ajibzade^tanasoli^مثل:239236:-0.0218245
text^ajibzade^tanasoli^هنوز:69826:-0.0506533
text^ajibzade^teradiator:92493:-0.0632132
text^ajibzade^teradiator^i_growler:61614:-0.0485933
text^ajibzade^اسفند:32727:-0.0352002
text^ajibzade^اسفند^اینور:196448:-0.0535776
text^ajibzade^اصلاحات:132016:-0.028367
text^ajibzade^اصلاحات^گام:170649:-0.028367
text^ajibzade^تاجزاده:240650:-0.047323
text^ajibzade^تاجزاده^اگه:70851:-0.047323
text^ajibzade^حالا:191411:-0.0536067
text^ajibzade^حالا^شماره:21241:-0.0536067
text^ajibzade^نمیکنم:238124:-0.0379366
text^ajibzade^نمیکنم^عزیزم:97969:0.00376395
text^akbarnasr:244930:-0.0702545
text^akbarnasr^حالا:16583:-0.0332473
text^akbarnasr^حالا^فرض:231287:-0.0332473
text^akbarnasr^وضعیت:66954:-0.0557621
text^akbarnasr^وضعیت^الان:201650:-0.0557621
text^alaavi_1983:116356:0.0362976
text^alaavi_1983^جایی:101008:0.0362976
text^alaavi_1983^جایی^اینکه:100461:0.0102139
text^albarsalan15:252746:-0.0698428
text^albarsalan15^setareh2538:175084:-0.0698428
text^albert_camus11:180600:-0.0485933
text^albert_camus11^لطف:65899:-0.0485933
text^albert_camus11^لطف^دارین:96908:-0.0485933
text^albert_parsi:68294:-0.08502
text^albert_parsi^hasti69685743:150161:-0.036496
text^albert_parsi^hasti69685743^mr__whiplash:169115:-0.036496
text^albert_parsi^mrs__cuthbert:177412:-0.0626494
text^albert_parsi^mrs__cuthbert^نظر:47604:-0.0626494
text^alef_vav:89362:0.0701783
text^alefemoghavemat:164668:0.106818
text^alefemoghavemat^بسیار:224250:0.0568741
text^alefemoghavemat^بسیار^عالیه:103289:0.0568741
text^alefemoghavemat^فرمودین:159806:0.0353163
text^alefemoghavemat^فرمودین^مگاوات:126581:0.0353163
text^alefemoghavemat^نگفتید:22897:-0.0265372
text^alefemoghavemat^نگفتید^نیروگاه:184348:0.0602383
text^alehabib:122907:0.0680351
text^alehabib^بله:142754:0.0617165
text^alehabib^بله^چون:127560:0.0617165
text^alehabib^رسانه:150744:0.0646592
text^alehabib^رسانه^رسمی:18301:0.0646592
text^ali99467795:163314:0.0119089
text^ali99467795^بازم:176270:0.0604847
text^ali99467795^بازم^گلوله:54945:0.0512964
text^ali_rajabi:237679:0.018549
text^ali_rajabi^بعضی:214214:0.0475046
text^ali_rajabi^بعضی^واق:255826:0.0475046
text^ali_shariatti:129428:-0.0715494
text^ali_shariatti^john_lucckk:10607:-0.0241657
text^ali_shariatti^john_lucckk^emad_bahavar:235982:-0.0241657
text^ali_shariatti^mitrabi:149732:-0.0538017
text^ali_shariatti^mitrabi^emad_bahavar:48239:-0.0538017
text^alib1767:48957:0.0686724
text^alib1767^عدد:65441:0.0418768
text^alib1767^عدد^میلیون:2524:0.0179942
text^alilawyer87:167528:0.0134919
text^alilawyer87^mojtaba_alaiee:13869:0.0216138
text^alilawyer87^mojtaba_alaiee^seyed_alireza74:9090:0.0216138
text^alilawyer87^قذافی:189316:-0.061403
text^alilawyer87^قذافی^۴۲سال:10554:-0.061403
text^alilawyer87^چرا:221601:0.0358535
text^alilawyer87^چرا^توهین:253465:0.0358535
text^alinejad:151208:-0.00620339
text^alinejad^has:220396:-0.03114
text^alinejad^has^paid:102844:-0.0269297
text^alinejadmasih:126384:-0.130174
text^alinejadmasih^اره:157779:-0.0306948
text^alinejadmasih^اره^کپشنو:53693:-0.0306948
text^alinejadmasih^اولا:78775:0.0271056
text^alinejadmasih^اولا^اگر:83567:-0.025025
text^alinejadmasih^این:19820:-0.0265626
text^alinejadmasih^این^خانم:64017:-0.0265626
text^alinejadmasih^ببین:7817:-0.0242321
text^alinejadmasih^ببین^این:167905:-0.0242321
text^alinejadmasih^دمت:92803:-0.0559257
text^alinejadmasih^دمت^گرم:87378:-0.0559257
text^alinejadmasih^مانتوش:218031:-0.012173
text^alinejadmasih^مانتوش^جلو:188143:-0.0569748
text^alinejadmasih^نفر:33746:-0.0463494
text^alinejadmasih^نفر^مزاحمت:142400:-0.0463494
text^alinshahab:79985:-0.049648
text^alinshahab^فیدیبو:75118:-0.049648
text^alinshahab^فیدیبو^طاقچه:77653:-0.049648
text^alireza535:126114:-0.0232906
text^alireza535^nasrinrose1:256401:-0.0232906
text^alireza535^nasrinrose1^patrick_jane7:200252:-0.0391679
text^alireza_arad:250716:-0.128507
text^alireza_arad^john_lucckk:17431:-0.0478637
text^alireza_arad^john_lucckk^john_luckk:187479:-0.0478637
text^alireza_arad^jumpavocado:151925:-0.036496
text^alireza_arad^jumpavocado^amirai08280594:194066:-0.036496
text^alireza_arad^این:137320:-0.0376062
text^alireza_arad^این^شدن:198074:-0.0376062
text^alireza_arad^خارج:17:-0.0345997
text^alireza_arad^خارج^خیلی:116329:-0.0345997
text^alireza_arad^خواسته:88835:-0.0459311
text^alireza_arad^خواسته^حداکثر:215698:-0.0459311
text^alireza_d_gh:25979:0.0379975
text^alireza_d_gh^khamenei_fa:72185:0.0516478
text^alireza_d_gh^khamenei_fa^عههه:233882:0.0379975
text^alireza_miry:141886:-0.0457936
text^alireza_miry^ربطی:91072:-0.0457936
text^alireza_miry^ربطی^یهودی:66684:-0.0457936
text^alirezaaghasi:9955:-0.0803083
text^alirezaaghasi^ardeshir:79435:-0.0429023
text^alirezaaghasi^ardeshir^آقای:34219:-0.0429023
text^alirezaroashan:84800:-0.0446448
text^alirezaroashan^هشتگ:20846:-0.0446448
text^alirezaroashan^هشتگ^اعلام:86100:-0.00366527
text^alirezashirazi:213568:0.0390741
text^alirezashirazi^دیگه:192878:0.0569402
text^alirezashirazi^دیگه^واقعا:220427:0.0569402
text^alirezat:144573:-0.0393107
text^alirezat^البته:135468:-0.0393107
text^alirezat^البته^خیلی:25112:-0.0393107
text^alirezateymour:177399:-0.0390543
text^alirezateymour^مذاکره:37623:-0.0390543
text^alirezateymour^مذاکره^معامله:218298:-0.0390543
text^alisan313:66401:0.01993
text^alisan313^azarbayjaniam:51617:0.01993
text^alisan313^azarbayjaniam^sayed_gandhi:132764:0.01993
text^aliseidabadi:198683:-0.0653961
text^aliseidabadi^بله:177570:-0.0382928
text^aliseidabadi^بله^این:57238:-0.0752416
text^aliseidabadi^صرف:34455:-0.066465
text^aliseidabadi^صرف^اینکه:73560:-0.0417891
text^almayadeennews:119750:0.0498379
text^almayadeennews^https:94008:-0.00963242
text^almayadeennews^https^ihpmalmgit:994:0.0353674
text^ameramin61:122778:0.0334344
text^ameramin61^خیر:72344:0.0446806
text^ameramin61^خیر^جبهه:199992:0.0716954
text^ameripardis:249211:-0.080346
text^ameripardis^davwvod:44145:-0.0529943
text^ameripardis^davwvod^میرزا:26719:-0.0529943
text^ameripardis^kevinmiston:46926:-0.0499664
text^ameripardis^kevinmiston^فقط:17552:-0.0499664
text^ameripardis^keykhoon:47305:-0.0852048
text^ameripardis^keykhoon^kevinmiston:84836:-0.0852048
text^amfhqqzlmz:204355:-0.0296915
text^amin_assadi:27811:0.020601
text^amin_assadi^shahmiran18:61642:0.01993
text^amin_assadi^shahmiran18^tighoter:11370:0.01993
text^amin_assadi^sp_hos:219343:0.0399837
text^amin_assadi^sp_hos^sm_1361:39514:0.0399837
text^aminbozorgian:171456:-0.078538
text^aminbozorgian^ارادت:144719:-0.0686869
text^aminbozorgian^امین:223201:-0.032572
text^aminbozorgian^امین^جان:166202:-0.032572
text^aminhadjaran:155016:-0.0585123
text^aminhadjaran^شما:15857:-0.0585123
text^aminhadjaran^شما^حتمن:251153:-0.068998
text^aminkh64641:195173:0.0877638
text^aminkh64641^fathalichah:226864:0.0388675
text^aminkh64641^fathalichah^_parhamam_:9775:0.0388675
text^aminkh64641^مریم:152458:0.0623223
text^aminkh64641^مریم^شانسی:228698:0.0263448
text^aminomidi1370:13159:-0.0407728
text^aminomidi1370^zeynab_taheri:112527:-0.0407728
text^aminomidi1370^zeynab_taheri^خانم:94888:-0.0407728
text^aminsam:121993:-0.103793
text^aminsam^شما:204270:-0.0255332
text^aminsam^شما^چجور:74350:-0.0255332
text^aminsam^فقط:82911:-0.0492107
text^aminsam^فقط^کاش:206363:-0.0492107
text^amir13874278:73260:0.00836685
text^amir13874278^سلام:262091:0.0387738
text^amir13874278^سلام^چاپ:78428:0.0387738
text^amir__najafi:241754:0.0622785
text^amir__najafi^oldchosan:148449:0.01993
text^amir__najafi^oldchosan^nafisemousavii:211548:0.01993
text^amir__najafi^رحمت:70113:0.0617104
text^amir__najafi^رحمت^الله:250840:0.0410989
text^amir_ali_irani:44071:-0.0613817
text^amir_ali_irani^مصاحبه:109053:-0.0613817
text^amir_ali_irani^مصاحبه^درباره:26674:-0.0613817
text^amirai08280594:26993:-0.0496054
text^amirai08280594^ashobmotlagh:82984:-0.036496
text^amirai08280594^ashobmotlagh^داستان:246225:-0.036496
text^amiralisafa:262014:0.0307041
text^amiralisafa^مارو:209556:0.0467855
text^amiralisafa^مارو^فیو:185917:0.0467855
text^amirebtehaj:235247:-0.057511
text^amirebtehaj^البته:136342:0.00902118
text^amirebtehaj^البته^باید:222820:-0.057511
text^amirihosein1358:217112:0.0216138
text^amirihosein1358^haem313:202463:-0.0178995
text^amirihosein1358^haem313^varesh313:36373:0.0216138
text^amiromidnejad:135201:0.0329119
text^amiromidnejad^فضای:41506:0.0329119
text^amiromidnejad^فضای^عزا:140469:0.00965167
text^amirpersis:246266:-0.0553437
text^amirpersis^ایفون:170526:-0.0553437
text^amirpersis^ایفون^والا:62824:-0.0553437
text^amiss_96:2804:0.121442
text^amiss_96^b_vajeh:105157:0.01993
text^amiss_96^b_vajeh^ebi_mh63:36828:0.01993
text^amiss_96^siib_saa:58638:0.0249624
text^amiss_96^siib_saa^tirelessrunner:116444:0.0399374
text^amiss_96^خیلی:7360:-0.0132292
text^amiss_96^خیلی^قدیمیه:77774:0.0637645
text^amiss_96^گفتم:37370:0.0655894
text^amiss_96^گفتم^فسیلم:216785:0.0655894
text^amiwindow:224122:-0.0105036
text^amiwindow^خیر:55032:-0.0423806
text^amiwindow^خیر^میدان:42980:-0.0423806
text^anahitadelavari:179367:-0.0567338
text^anahitadelavari^نباید:34201:-0.0567338
text^anahitadelavari^نباید^این:142001:-0.0567338
text^and:124353:0.0100923
text^and^the:139778:0.0335863
text^and^the^zionist:110635:0.0335863
text^and^unable:6014:-0.03114
text^and^unable^see:254071:-0.03114
text^anesherliiii:94993:-0.0484976
text^anesherliiii^زیر:6083:-0.0484976
text^anesherliiii^زیر^این:46643:-0.0484976
text^anneshrly:206778:-0.119354
text^anneshrly^لعنتی:34484:-0.0382044
text^anneshrly^نوش:5090:-0.0559405
text^anneshrly^نوش^جونت:231470:-0.0559405
text^annette_riviere:241739:-0.0525589
text^annette_riviere^بعضی:131378:-0.0525589
text^annette_riviere^بعضی^جاها:35649:-0.0525589
text^annigl7tgk:210954:0.0365346
text^anonymousnejad:94008:-0.00963242
text^anonymousnejad^6national_front:171841:-0.0746376
text^anrm8ozqi0:222827:-0.040947
text^ansarii_rahim:257420:0.090051
text^ansarii_rahim^شرف:117233:0.0482563
text^ansarii_rahim^شرف^المکان:21630:0.0482563
text^ansarii_rahim^مردی:220272:0.0563028
text^ansarii_rahim^مردی^این:246060:0.0563028
text^anti_oligarchie:116504:0.0399374
text^anti_oligarchie^ms_jahanbakhsh:57263:0.0399374
text^anti_oligarchie^ms_jahanbakhsh^بزرگواری:121852:0.0452606
text^antiisraeli:32793:0.0311129
text^antiisraeli^اونوقت:248307:0.037322
text^antiisraeli^اونوقت^میرن:158673:0.037322
text^anu5tcawi1:212398:-0.0619179
text^aqamohamadlu:220134:0.057913
text^aqamohamadlu^gkolangi:257702:0.057913
text^aqamohamadlu^gkolangi^توی:107855:0.057913
text^aragorn2k16:2214:-0.0705407
text^arash_8200:182108:-0.0580829
text^arash_8200^نگرانن:187077:-0.0580829
text^arash_8200^نگرانن^جبهه:9649:-0.0580829
text^arash_safa2:200874:-0.0696502
text^arash_safa2^بوخودا:84377:-0.0696502
text^arash_tehran:158739:-0.101722
text^arash_tehran^استراحت:195476:-0.0573827
text^arash_tehran^استراحت^بابا:12107:-0.0573827
text^arash_tehran^کور:134588:-0.110882
text^arash_tehran^کور^خوندی:193767:-0.0598656
text^arashbahmani:90811:-0.0518772
text^arashbahmani^فیروزآبادی:261468:-0.0659631
text^arashbahmani^فیروزآبادی^هست:51136:-0.0659631
text^arashbahmani^گفتگو:78145:-0.0453756
text^arashbahmani^گفتگو^ایلنا:141260:-0.0453756
text^ardeshir:209908:0.0105453
text^ardeshir^آقای:192944:-0.0429023
text^ardeshir^آقای^اردشیر:147019:-0.0429023
text^ardeshir^منتقل:85205:-0.0510526
text^ardeshir^منتقل^شود:61319:-0.0510526
text^are:223690:0.0474951
text^are^hostile:89262:0.000849962
text^are^hostile^the:120379:0.0335863
text^are^still:191982:0.0131357
text^are^still^iran:18877:0.0335863
text^aref_che:127057:0.0793844
text^aref_che^habil:191600:0.0488169
text^aref_che^habil^دارم:260549:0.0488169
text^arefe:193235:-0.0141609
text^arefe^پارسال:211201:-0.0583942
text^arefe^پارسال^دقیقا:117803:-0.0583942
text^arezo_khedmati:162067:0.0216138
text^arezo_khedmati^agha_zan:17867:-0.000580441
text^arezo_khedmati^agha_zan^salmanrood:157860:0.0216138
text^arezzzuu:184804:-0.0810677
text^arezzzuu^همون:166197:-0.0556426
text^arezzzuu^همون^زید:257618:-0.0556426
text^ario251:142617:-0.0828327
text^ario251^هستی:12138:-0.0315774
text^ario251^هستی^خوش:202642:-0.0315774
text^arma1026:188613:0.0782779
text^arma1026^zeynab_taheri:54645:0.0576648
text^arma1026^zeynab_taheri^نازییی:237325:0.0576648
text^arma1026^همونطور:181318:-0.0547373
text^arma1026^همونطور^بابای:68909:0.062351
text^armindrg11:14085:-0.101048
text^armindrg11^sahandiranmehr:214253:-0.0845007
text^armindrg11^sahandiranmehr^ندیدم:117986:-0.0623359
text^armindrg11^sahandiranmehr^نظرم:26112:-0.00534634
text^ars08hnzeq:18745:0.0659777
text^arsalan1989jly:178471:0.0120517
text^arsalan1989jly^abtin54298263:213283:-0.0257902
text^arsalan1989jly^abtin54298263^رسانه:135616:-0.0257902
text^artlover1367:105143:-0.0542446
text^artlover1367^وبسایتش:116085:-0.0542446
text^artlover1367^وبسایتش^برای:12961:-0.0542446
text^artmis_irani:133208:0.0216138
text^artmis_irani^meisam_1:241860:0.0523494
text^artmis_irani^meisam_1^amirihosein1358:225740:0.0131446
text^aryaraad:15606:-0.0625673
text^aryaraad^اعسار:245114:-0.0625673
text^aryaraad^اعسار^بزنه:189956:-0.0625673
text^asafikhani:215983:-0.0415633
text^asafikhani^بابا:200186:-0.0415633
text^asafikhani^بابا^فرهیخته:151954:-0.0415633
text^asayehh:228612:-0.0504638
text^asayehh^همه:9522:-0.030005
text^asayehh^همه^تقصیر:254492:-0.030005
text^ased_moji:130760:0.0563969
text^ased_moji^خیلی:148804:0.0563969
text^ased_moji^خیلی^ساده:109485:0.0563969
text^ashegeiran:244153:0.045575
text^ashegeiran^وحدت:73104:0.045575
text^ashegeiran^وحدت^ملی:4860:0.0584172
text^ashii_mashii:181744:0.0690022
text^ashii_mashii^عالی:191278:0.0690022
text^ashkan_hn:56752:0.0634338
text^ashkan_hn^لقمه:194785:0.0411683
text^ashkan_hn^لقمه^حرامه:236100:0.0411683
text^ashobmotlagh:160635:-0.0175842
text^ashobmotlagh^اره:103922:-0.06943
text^ashobmotlagh^داستان:219864:-0.036496
text^ashobmotlagh^داستان^اینه:115275:-0.036496
text^ashourinia:234300:-0.0766879
text^ashourinia^شاید:14038:-0.058729
text^ashourinia^شاید^نگفتم:87393:-0.058729
text^asromautd:43754:-0.0264339
text^asromautd^قواعد:7528:-0.0264339
text^asromautd^قواعد^مختلف:169504:-0.0264339
text^atahmasebizadeh:39899:-0.0426513
text^atahmasebizadeh^فکر:99695:-0.0426513
text^atahmasebizadeh^فکر^میکنم:71801:-0.00694418
text^atash_111:123390:-0.0530984
text^atash_111^اگه:5863:0.00463466
text^atash_111^اگه^موافق:70731:-0.0530984
text^atreyaas:224226:-0.0338955
text^atreyaas^اسرائیل_آبدزدک:64857:0.0685124
text^aucf4823fw:88582:0.0668345
text^away:14897:0.0278035
text^away^the:251058:0.0278035
text^away^the^zionists:241942:0.0278035
text^ayalchi:55440:-0.0566677
text^ayalchi^mahditajik61:183368:-0.0566677
text^ayalchi^mahditajik61^شما:176561:-0.0566677
text^ayatollah:7071:0.0278035
text^ayatollah^ruhollah:143989:0.0278035
text^ayatollah^ruhollah^khomeini:70120:0.0278035
text^aybbb75:157855:0.0749814
text^aybbb75^خانمی:7436:0.0666273
text^aybbb75^خانمی^مهمون:150155:0.0327788
text^ayyaripeyman:9555:-0.0436365
text^ayyaripeyman^بابا:70926:-0.0436365
text^ayyaripeyman^بابا^بگو:74168:-0.0436365
text^az_deyaresalman:216538:0.0683513
text^az_deyaresalman^آمین:168532:0.0494472
text^azaadeekh:147892:-0.0424954
text^azaadeekh^کیف:57048:-0.0424954
text^azaadeekh^کیف^چرم:155634:-0.0424954
text^azad_e_khodemun:181457:-0.0658871
text^azad_e_khodemun^bahmandaroshafa:39636:-0.0658871
text^azad_e_khodemun^bahmandaroshafa^ممنون:152423:-0.0658871
text^azadehiiii:132501:0.093207
text^azadehiiii^خخخخخ:232916:0.0648197
text^azadehiiii^خخخخخ^bbcshameonyou:62351:0.0648197
text^azadehiiii^چون:242031:0.0537692
text^azadehiiii^چون^ایشون:75481:0.0537692
text^azadi_313kh:80321:-0.031491
text^azadi_313kh^keramati013:36080:0.00365216
text^azadi_313kh^keramati013^نظرم:238839:-0.031491
text^azamheshmati:238245:-0.0562886
text^azamheshmati^elahekhyegane:92882:-0.0149257
text^azamheshmati^elahekhyegane^اگه:163947:-0.0454431
text^azamheshmati^این:143245:-0.02631
text^azamheshmati^این^مدخل:84910:-0.02631
text^azamrasti:147052:-0.0561072
text^azamrasti^فکر:84668:-0.0561072
text^azamrasti^فکر^کردم:228909:-0.0561072
text^azarbayjaniam:235204:0.01993
text^azarbayjaniam^sayed_gandhi:87603:0.01993
text^azarbayjaniam^sayed_gandhi^reformcreditors:239875:0.01993
text^azardokhtp:102669:-0.0936901
text^azardokhtp^عزیز:75285:-0.0337499
text^azardokhtp^عزیز^دلم:23281:-0.0337499
text^azarijahromi:253213:-0.0636808
text^azarijahromi^https:126515:-0.0636808
text^azarijahromi^https^j6mfwbfaf3:70939:-0.0424745
text^azarijahromi^https^j9ogon8asf:90886:-0.0574229
text^azematt:118971:-0.0719172
text^azematt^دوسال:191050:-0.0348004
text^azematt^دوسال^سال:249270:-0.0348004
text^azematt^چطور:189940:-0.029955
text^azematt^چطور^مردمی:42372:-0.029955
text^azm3bvmwro:118177:-0.0280318
text^b_vajeh:202657:0.01993
text^b_vajeh^ebi_mh63:1352:-0.0168368
text^b_vajeh^ebi_mh63^tirelessrunner:96302:-0.0562269
text^babackashtari:40300:-0.0581298
text^babackashtari^ممنونم:179195:-0.0581298
text^babackashtari^ممنونم^جناب:122405:-0.0265784
text^babak_1992:171813:-0.061179
text^babak_1992^زیر:251783:-0.061179
text^babak_1992^زیر^سایه:45905:-0.061179
text^babakkarbasi:240799:0.076427
text^babakkarbasi^عقب:3600:0.0542283
text^babakkarbasi^عقب^نشستند:186457:0.0542283
text^babakzakeri:75053:-0.0764104
text^babakzakeri^رشته:253942:-0.0308484
text^babakzakeri^رشته^چیه:160660:-0.0446025
text^babakzakeri^متأسفانه:62862:-0.0657766
text^babakzakeri^متأسفانه^مثل:31366:-0.0972917
text^badeh_mastaneh:135238:-0.0463165
text^badeh_mastaneh^اینا:157036:-0.0463165
text^badeh_mastaneh^اینا^موردای:160045:-0.0835328
text^bademjoonekoh:88001:0.0869033
text^bademjoonekoh^israelpersian:31429:0.0869033
text^bademjoonekoh^israelpersian^بادمجون:9714:0.051216
text^bademjoonekoh^israelpersian^وای:76378:0.0538602
text^bahadorina:89825:-0.0452139
text^bahadorina^منم:3164:-0.0452139
text^bahadorina^منم^مشروب:162814:-0.0796456
text^baharnarenj1984:131132:-0.0304012
text^baharnarenj1984^اصلا:19967:0.0112449
text^baharnarenj1984^اصلا^خنده:55419:-0.0304012
text^bahmandaroshafa:195655:-0.0658871
text^bahmandaroshafa^ممنون:259598:-0.0658871
text^bakht_bargashte:84884:-0.0690079
text^bakht_bargashte^همچنین:12415:-0.0690079
text^baladokhtar:115199:-0.0576515
text^baladokhtar^i_par_:87695:-0.0576515
text^baladokhtar^i_par_^اهان:162879:-0.0576515
text^balalhashari:2149:-0.0693786
text^balalhashari^diyare_habiib:3937:-0.0693786
text^balalhashari^diyare_habiib^john_lucckk:221448:-0.0478933
text^balalhashari^diyare_habiib^joker_character:108230:-0.0503273
text^banafshehjamali:233805:-0.0335114
text^banafshehjamali^marshafipour:255557:-0.0335114
text^banafshehjamali^marshafipour^بله:89380:-0.0571422
text^banafshepalangi:111472:-0.0415315
text^banafshepalangi^موضوعی:195943:-0.0415315
text^banafshepalangi^موضوعی^تخصص:93159:-0.0415315
text^banisadr:201199:-0.0356554
text^banisadr^اپوزیسیون:188425:0.00879472
text^banisadr^اپوزیسیون^باید:248587:-0.0356554
text^baniyaghub:103088:-0.0903655
text^baniyaghub^جواب:261926:-0.0194753
text^baniyaghub^جواب^باید:259764:-0.0453259
text^baniyaghub^وای:16793:-0.0122646
text^baniyaghub^وای^خوش:259077:-0.0601339
text^barandazim:253932:0.0882969
text^barandazim^دیگه:37994:0.0508214
text^barandazim^دیگه^برو:206806:0.0508214
text^barandazim^میگیم:13186:0.00196267
text^barandazim^میگیم^بخوره:85833:0.0318291
text^barani_m7:74480:-0.00949657
text^barani_m7^آره:200970:-0.0253428
text^barani_m7^آره^کار:74938:-0.0328145
text^bayusaan_ir:16162:0.056154
text^bayusaan_ir^سیعلم:222312:0.056154
text^bayusaan_ir^سیعلم^الذین:180:0.056154
text^bbc:111298:0.0488261
text^bbc^اونجافهميدم:120117:-0.0202548
text^bbc^اونجافهميدم^مجری:101527:0.0475869
text^bbc^بودن:240655:-0.00962392
text^bbc^بودن^بدون:176302:0.0262436
text^bbc^رادیوزمانه:235656:-0.025584
text^bbc^رادیوزمانه^ایران:38021:-0.025584
text^bbc^زدن:177423:0.0262436
text^bbc^زدن^هشتگ:149249:0.0619122
text^bbcfardad:237839:-0.0728156
text^bbcfardad^nahaangard:13972:-0.0562568
text^bbcfardad^nahaangard^شما:3789:-0.0894277
text^bbcfarnaz:252504:-0.113047
text^bbcfarnaz^marzie_r:238423:-0.11337
text^bbcfarnaz^سردرد:21180:-0.0637945
text^bbcfarnaz^سردرد^عالی:24778:-0.0637945
text^bbcshameonyou:104715:0.367418
text^bbcshameonyou^https:143465:0.0590259
text^bbcshameonyou^https^25yp3kgnaj:142504:0.039343
text^bbcshameonyou^https^cddwhfcqhc:141793:0.0316012
text^bbcshameonyou^میزنیم:192110:0.0291747
text^bbcshameonyou^میزنیم^همراه:200195:0.0291747
text^bbcshameonyou^چیه:256341:0.0262436
text^bbcshameonyou^چیه^همه:150847:0.0262436
text^been:223454:0.0128939
text^been^sentenced:193432:-0.03114
text^been^sentenced^prison:248054:-0.03114
text^behdune:125797:-0.0377664
text^behdune^توی:201234:-0.0377664
text^behdune^توی^فرهنگستان:239101:-0.0377664
text^behnammousivand:108517:-0.0407728
text^behnammousivand^بپرسید:50564:-0.0407728
text^behnood_naderi:92125:0.0381049
text^behnood_naderi^گردن:115943:0.0497248
text^behnood_naderi^گردن^جام:103950:0.0154269
text^behnoudmasoud:70338:0.0870696
text^behnoudmasoud^https:81476:0.0663146
text^behnoudmasoud^https^efk03zpdau:52709:0.0663146
text^beilishofficial:168796:-0.0477901
text^beilishofficial^soleymun:167357:-0.0768465
text^beilishofficial^soleymun^رها:257170:-0.0477901
text^bellatrix_z:259932:-0.0418973
text^bellatrix_z^چون:75546:-0.0840062
text^bellatrix_z^چون^گروهی:16112:-0.0418973
text^bemanad_:106871:0.131679
text^bemanad_^rrghadi:54238:0.0540393
text^bemanad_^rrghadi^یادم:129227:0.0175515
text^bemanad_^شورای:131522:0.0609448
text^bemanad_^شورای^راهبردی:239378:0.0609448
text^bemanad_^ممنون:161406:0.0692166
text^beniami22001999:2795:0.0652284
text^beniami22001999^مردم:944:0.0652284
text^beniami22001999^مردم^تهران:226926:0.0652284
text^betjjevetu:17210:-0.0252968
text^bhpinwgwlj:257239:0.0419771
text^bi_mazze:213810:-0.0605722
text^bi_mazze^طرح:45188:-0.0605722
text^bi_mazze^طرح^تقسیم:127598:-0.0605722
text^biataberavim:120257:0.0897225
text^biataberavim^نفرت:91864:0.0495302
text^biataberavim^نفرت^پراکنی:161206:0.0495302
text^biataberavim^کینه:204119:0.0556866
text^biataberavim^کینه^خاتمی:199546:0.0556866
text^biggest:30628:0.0404927
text^biggest^fans:215060:0.0404927
text^biggest^fans^this:188328:0.0404927
text^bigvania22:15740:-0.0573964
text^bigvania22^امسال:216961:-0.0480702
text^bigvania22^امسال^بارندگی:78873:-0.0480702
text^bigvania22^جدای:125838:-0.0233923
text^bigvania22^جدای^این:129490:-0.0233923
text^bih379avha:106830:0.0411369
text^bijani2016:47213:0.0542007
text^bijani2016^mstwti:3667:0.01993
text^bijani2016^mstwti^ruhollah_s:213217:-0.0193984
text^bijani2016^این:38453:0.049973
text^bijani2016^این^لفظ:31522:0.0563056
text^binam06653024:145424:-0.0493625
text^binam06653024^انتقاد:4425:-0.0493625
text^binam06653024^انتقاد^اینه:44024:-0.0493625
text^bjtmdumc9w:221302:-0.0416527
text^blue_berry_93_:233247:-0.00607026
text^blue_berry_93_^fathalichah:84482:0.01993
text^blue_berry_93_^fathalichah^geniuser:18067:0.01993
text^blyvbxuyd9:173308:0.0662891
text^bnovljpwd6:223141:-0.0241866
text^boiereihan:28028:-0.119103
text^boiereihan^farahmand__:242023:-0.0658784
text^boiereihan^farahmand__^بچه:53666:-0.0356222
text^boiereihan^ابوالقاسم:115325:-0.045632
text^boiereihan^ابوالقاسم^خزعلی:165079:-0.045632
text^boiereihan^دلیلی:54999:-0.0285985
text^boiereihan^دلیلی^نداشت:51920:-0.00521742
text^boiereihan^قطعا:196654:-0.0422568
text^boiereihan^قطعا^یکسال:256915:-0.0422568
text^boiereihan^چشم:95707:-0.0448756
text^boiereihan^چشم^ببخشید:95836:-0.0448756
text^boloorkhanoom:120388:-0.035033
text^boloorkhanoom^سال:56264:-0.035033
text^boloorkhanoom^سال^هاست:17701:-0.0121136
text^bonneytariin:261943:-0.190717
text^bonneytariin^alinejadmasih:191243:-0.0469933
text^bonneytariin^alinejadmasih^ببین:79224:-0.0242321
text^bonneytariin^اره:16062:-0.0761235
text^bonneytariin^اره^هرچی:133066:-0.0326532
text^bonneytariin^افتاده:44551:-0.0542356
text^bonneytariin^افتاده^گربه:176281:-0.0542356
text^bonneytariin^الان:262059:-0.0960604
text^bonneytariin^الان^میان:93713:-0.0540566
text^bonneytariin^الان^میگه:203617:-0.0580369
text^bonneytariin^ببین:128244:-0.0254331
text^bonneytariin^ببین^دقیقا:188242:-0.0254331
text^bonneytariin^بدبینی:200987:-0.0300164
text^bonneytariin^بدبینی^نیست:171278:-0.0300164
text^bonneytariin^حالا:129640:-0.0659604
text^bonneytariin^حالا^ایرانی:61190:-0.0669801
text^bonneytariin^حالا^همینا:232920:-0.0281188
text^bonneytariin^رنگ:47893:-0.0443987
text^bonneytariin^رنگ^کراوات:128061:0.000574863
text^botshekan110:206791:0.0586545
text^botshekan110^این:64039:0.0440741
text^botshekan110^این^پیام:137454:0.0440741
text^botshekan110^نگرد:215348:0.0458437
text^botshekan110^نگرد^نیست:68035:0.0458437
text^botshekan110^کانالی:82975:0.0687121
text^botshekan110^کتاب:218751:-0.000646226
text^botshekan110^کتاب^کاریکاتور:246172:0.0456833
text^bravegiiirl:73701:-0.0384539
text^bravegiiirl^hoseinghashghae:45653:-0.0755924
text^bravegiiirl^hoseinghashghae^اگر:143509:-0.0273865
text^bravegiiirl^hoseinghashghae^این:127101:-0.0625149
text^bravegiiirl^yavarmahdy:81624:0.0216138
text^bravegiiirl^yavarmahdy^artmis_irani:181200:0.068685
text^brother_vahid:197892:0.0579966
text^brother_vahid^mim_cheee:236979:0.0867299
text^brother_vahid^mim_cheee^مگه:84474:0.0579966
text^bu3bcne70z:98177:0.037167
text^bvvafakhah:186712:-0.0336392
text^bvvafakhah^aghbahman:78765:-0.0587727
text^bvvafakhah^aghbahman^برن:39903:-0.0336392
text^bwhhoctheg:141801:0.0450246
text^bwhhoctheg^endofisrael:100114:0.0450246
text^bwhhoctheg^endofisrael^يوم_القدس_مسيرة_العودة:242388:0.0450246
text^bzdxj3ylgy:141203:-0.0463399
text^c1amin:178968:0.0643357
text^c1amin^منو:54339:0.0643357
text^c1amin^منو^بلاک:146173:0.0921086
text^c4b8x3iozh:26805:0.0615088
text^c7cyskquoy:15625:-0.047245
text^capilluus:94930:-0.104771
text^capilluus^این:202758:-0.0562951
text^capilluus^این^اولین:121260:-0.0562951
text^capilluus^خواهش:214753:-0.072935
text^capilluus^خواهش^میکنم:146979:-0.0490435
text^capilluus^خوش:5466:-0.036916
text^capilluus^خوش^آمدی:224291:-0.0564192
text^cddhacgfpb:120872:0.0397911
text^cddwhfcqhc:38428:0.0316012
text^ceremony:136503:0.0412958
text^ceremony^the:225696:0.0382738
text^ceremony^the^saudi:112668:0.0382738
text^cgimrcohho:77805:-0.0286179
text^chaamroosh:210478:-0.0438631
text^chaamroosh^زورم:11168:-0.0438631
text^chaamroosh^زورم^نمیرسه:220233:-0.0438631
text^chapii78:244464:-0.0853647
text^chapii78^پیرو:200674:-0.0567278
text^chapii78^پیرو^همون:202043:-0.0567278
text^cheshmaak:237933:0.157001
text^cheshmaak^30سال:236314:0.0365274
text^cheshmaak^30سال^زیرساختهای:161056:0.0365274
text^cheshmaak^امان:194905:0.0878918
text^cheshmaak^امان^دست:122881:0.0905457
text^cheshmaak^لزوما:1624:0.0549647
text^cheshmaak^لزوما^بعضی:112651:0.0549647
text^cheshsefidod:207081:-0.0259162
text^chiralko:88257:-0.0539087
text^chiralko^اینها:214775:-0.0369462
text^chiralko^اینها^استثناست:93080:-0.0369462
text^chissttaa:81992:-0.0510526
text^chissttaa^manahejazi:53074:-0.0510526
text^chissttaa^manahejazi^ardeshir:102398:-0.0174473
text^chpveam5pm:102086:0.0555811
text^christians:242499:0.0335863
text^christians^and:8952:0.0335863
text^christians^and^the:157021:0.0335863
text^claviah:32938:-0.0443118
text^claviah^هرکی:59974:-0.0443118
text^claviah^هرکی^خبری:213276:-0.0720836
text^cpsc9pcfug:220862:0.0501382
text^crvsyc4iko:248433:0.0475964
text^cu6ordwrbe:194460:0.0266463
text^cvgfqsihtq:73541:0.0603734
text^cw62ucqqlh:104284:-0.045279
text^d0a2v3i0d:113914:-0.0686864
text^d0a2v3i0d^diyare_habiib:201378:-0.0387086
text^d0a2v3i0d^diyare_habiib^john_lucckk:193605:-0.0387086
text^d6ifhue02b:159905:-0.0135371
text^d9cnqgksbg:246558:-0.0112575
text^da_fallen_angle:243035:-0.0179826
text^daadylongleg:199173:-0.0443276
text^daadylongleg^yousefi_taha:110675:-0.0443276
text^daadylongleg^yousefi_taha^john_lucckk:157746:-0.0443276
text^dajedkzgy6:181621:-0.0310446
text^dalghak_:201206:0.0658741
text^dalghak_^عوضش:248429:0.0658741
text^dalghak_^عوضش^کردم:85018:0.0658741
text^danesh_talab:168480:0.115726
text^danesh_talab^اونو:74298:0.0420124
text^danesh_talab^اونو^قبلا:124765:-0.00199207
text^danesh_talab^دعا:118704:0.0506705
text^danesh_talab^دعا^نیازه:95674:0.0506705
text^danial_418:77545:-0.0755382
text^danial_418^molhed_mhmd:194993:-0.039412
text^danial_418^molhed_mhmd^بابا:179700:-0.039412
text^danial_418^فدات:107047:-0.072279
text^danial_418^فدات^دانیال:27499:-0.0535682
text^daraseman9:93527:0.0638671
text^daraseman9^اینا:97081:0.0638671
text^daraseman9^اینا^خیلی:187633:0.0638671
text^darhambaaf:192485:0.216442
text^darhambaaf^ashegeiran:203530:0.045575
text^darhambaaf^ashegeiran^وحدت:222877:0.045575
text^darhambaaf^daroshafaeij:202554:0.0503336
text^darhambaaf^daroshafaeij^این:258766:0.0479803
text^darhambaaf^daroshafaeij^بله:183109:0.0319059
text^darhambaaf^بهمن:144567:0.0248826
text^darhambaaf^بهمن^قبادی:250786:0.0248826
text^darhambaaf^شاید:99803:0.0266179
text^darhambaaf^شاید^نمیدونید:86100:-0.00366527
text^darhambaaf^شماست:200583:0.0583766
text^darhambaaf^شماست^تحلیل:16451:0.0583766
text^darhambaaf^فرض:90141:0.0340703
text^darhambaaf^فرض^کنید:128055:0.0340703
text^darhambaaf^نخوندیم:246084:0.104113
text^darhambaaf^واقعا:171174:0.0704702
text^darhambaaf^واقعا^همینه:199071:0.0496256
text^dariushitter:183820:0.0441908
text^dariushitter^ابله:239287:0.0441908
text^dariushitter^ابله^کثیف:176342:0.0876122
text^dariushm:183173:-0.0482444
text^dariushm^البته:193748:-0.0482444
text^dariushm^البته^سرتاپا:75726:-0.0482444
text^dariushtusi:162706:-0.0495295
text^dariushtusi^لطف:83229:-0.0495295
text^dariushtusi^لطف^کردی:221506:-0.0495295
text^darkddandy:48706:-0.0452706
text^darkddandy^بلاکش:225947:-0.0452706
text^darkddandy^بلاکش^کرده:178170:-0.0234413
text^darksheeprise:95153:-0.0169349
text^darksheeprise^دقیقا:68635:-0.0348143
text^darksheeprise^دقیقا^انگار:81275:0.0151433
text^daronosh:166603:-0.0470065
text^daronosh^xman00700:152551:-0.0470065
text^daronosh^xman00700^برای:127307:-0.0603908
text^daroshafaeij:243177:0.0107359
text^daroshafaeij^این:108993:0.0290858
text^daroshafaeij^این^سالها:196844:0.0290858
text^daroshafaeij^بله:33336:0.0319059
text^daroshafaeij^بله^واقعا:3245:0.0542358
text^darrellwhitelaw:38726:-0.0351593
text^darrellwhitelaw^iranwire:168839:0.00308239
text^darrellwhitelaw^iranwire^saeidpar:141452:-0.0351593
text^darshmanehhiwa:187130:-0.0600095
text^darshmanehhiwa^مانا:99709:-0.0828645
text^darshmanehhiwa^مانا^باشی:99861:-0.0600095
text^daryajam:223971:-0.0710361
text^daryakavoos:115537:0.0478519
text^daryakavoos^drcode0:261972:0.0471536
text^daryakavoos^drcode0^ebrahimiavval:89737:0.0216138
text^daryakavoos^این:149897:0.05123
text^daryakavoos^این^مدل:215472:0.012353
text^davezarei:19642:-0.046517
text^davezarei^pensylvani:253527:-0.046517
text^davezarei^pensylvani^توام:72436:-0.046517
text^davwvod:26082:-0.200698
text^davwvod^اقا:212643:-0.0708518
text^davwvod^اقا^این:172435:-0.032851
text^davwvod^برای:125530:-0.0459882
text^davwvod^برای^همین:128289:-0.0459882
text^davwvod^داوود:244528:-0.0678611
text^davwvod^داوود^جون:260556:-0.0529352
text^davwvod^محاکمه:141468:-0.0359491
text^davwvod^محاکمه^شدنشو:21654:-0.0485497
text^davwvod^میرزا:84236:-0.0529943
text^davwvod^میرزا^آقا:96007:-0.0529943
text^davwvod^نگو:151484:-0.0574327
text^davwvod^نگو^علی:205191:-0.0574327
text^davwvod^هوم:164768:-0.0581085
text^davwvod^هوم^مال:220574:-0.0581085
text^davwvod^گیر:214048:-0.0817067
text^davwvod^گیر^کسی:88367:-0.0511319
text^dehkhodaaa:194694:-0.106998
text^dehkhodaaa^لطف:29249:-0.0515742
text^dehkhodaaa^لطف^دارید:244559:-0.0515742
text^dehkhodaaa^چشم:30397:-0.0707763
text^delavaar:238326:0.0952722
text^delavaar^خنده:169110:0.0564282
text^delavaar^خنده^سلام:7821:0.0440962
text^delavaar^مدتی:194292:0.0536782
text^delavaar^مدتی^است:201692:0.0536782
text^delavaremajazi:7131:-0.0631873
text^delavaremajazi^منم:173934:-0.0631873
text^delavaremajazi^منم^بلاکم:140160:-0.0205776
text^deldadeharshi:173239:0.0678321
text^deldadeharshi^diyare_habiib:132203:0.0559293
text^deldadeharshi^diyare_habiib^این:260155:0.0895448
text^deldadeharshi^صدر:96728:-0.00509784
text^deldadeharshi^صدر^عقده:118786:0.0360815
text^deppstyl:71890:-0.0719516
text^deppstyl^اره:16621:-0.0554243
text^deppstyl^اره^اون:80596:-0.0554243
text^deraakwordpress:41990:-0.0585761
text^deraakwordpress^یعنی:209708:-0.0729274
text^deraakwordpress^یعنی^دانشگاه:195879:-0.0585761
text^derazebaghavare:257709:-0.0649704
text^derazebaghavare^saiyron:68815:-0.0649704
text^dfordonya:49382:-0.0860212
text^dfordonya^صبح:91871:-0.0722116
text^dfordonya^صبح^خیلی:157695:-0.0497234
text^dfordonya^مردم:4287:-0.0110924
text^dfordonya^مردم^چشم:254738:-0.054667
text^dg8v8j3gd0:164122:-0.067359
text^died:151018:-0.0608115
text^died^accidentally:195609:-0.0608115
text^died^accidentally^https:138559:-0.0608115
text^dinoeshgh:22577:0.0755294
text^dinoeshgh^ینی:226542:0.0616541
text^dinoeshgh^ینی^سید:237938:0.0616541
text^diyare_habiib:96144:-0.0971741
text^diyare_habiib^aiiwass:144630:-0.0286304
text^diyare_habiib^aiiwass^jeanvaljean65:83582:-0.0286304
text^diyare_habiib^ajibzade:58990:0.0125196
text^diyare_habiib^ajibzade^نمیکنم:63036:-0.0379366
text^diyare_habiib^idrisest1:246493:-0.0218245
text^diyare_habiib^idrisest1^john_lucckk:21140:-0.0218245
text^diyare_habiib^john_lucckk:146299:-0.0625092
text^diyare_habiib^john_lucckk^ajibzade:63917:-0.0625092
text^diyare_habiib^joker_character:33081:-0.0503273
text^diyare_habiib^joker_character^john_lucckk:99200:-0.0503273
text^diyare_habiib^kazemi92:194664:-0.031491
text^diyare_habiib^kazemi92^sas2040:192738:-0.031491
text^diyare_habiib^این:4044:0.0559293
text^diyare_habiib^این^اگر:152368:0.0559293
text^dmqn4vvgqa:169290:0.0353476
text^dno9smvbmz:82626:-0.0058416
text^dnravi23:230589:-0.0317919
text^dnravi23^rgnwre:108868:-0.0317919
text^dnravi23^rgnwre^کاریه:144663:-0.0317919
text^doctorequalizer:103751:0.01993
text^doctorequalizer^bijani2016:50072:-0.0419377
text^doctorequalizer^bijani2016^mstwti:35794:0.01993
text^doctorolala:218238:-0.0418973
text^doctorolala^whitehorse77777:261670:-0.0418973
text^doctorolala^whitehorse77777^rezaparchizadeh:128472:-0.0418973
text^dodoozeh:156971:-0.0515742
text^dodoozeh^john_lucckk:180650:-0.0515742
text^dodoozeh^john_lucckk^dehkhodaaa:95624:-0.0594415
text^dojman_adl:183983:-0.109202
text^dojman_adl^اومدیم:125753:-0.0715873
text^dojman_adl^اومدیم^این:72145:-0.0661274
text^dokhtarehaftab:198945:0.0652415
text^dokhtarehaftab^tkcuphdhyxsvcsr:58097:0.0652415
text^dokhtarehaftab^tkcuphdhyxsvcsr^بله:58144:0.0652415
text^domb_owl:129664:-0.0443276
text^domb_owl^daadylongleg:105093:-0.0443276
text^domb_owl^daadylongleg^yousefi_taha:32467:-0.0443276
text^dontentertainoccupation:182766:0.0298376
text^dontentertainoccupation^علیه:212457:0.0298376
text^dontentertainoccupation^علیه^برگزاری:24855:0.0298376
text^donyaafshar:132404:-0.0379366
text^donyaafshar^tanasoli:210594:-0.0379366
text^donyaafshar^tanasoli^john_lucckk:165957:-0.0379366
text^donyarad:37859:-0.0578213
text^donyarad^قربونت:75725:-0.0831463
text^donyarad^قربونت^برم:32201:-0.0578213
text^doroshkechi1:69205:-0.0399836
text^doroshkechi1^شما:42122:-0.0272046
text^doroshkechi1^شما^اگه:43843:-0.0272046
text^dorsajalalian:21286:-0.0550174
text^dorsajalalian^رگل:5173:-0.0550174
text^dorsajalalian^رگل^خیلی:171517:-0.0550174
text^down:213021:-0.0520148
text^down^she:159482:-0.0443715
text^down^she^been:60912:-0.03114
text^downwithusa:252616:0.0477596
text^downwithusa^شنیده:4999:0.0477596
text^downwithusa^شنیده^میشود:108368:0.0477596
text^dpmix5yn6n:132903:0.0451038
text^dr_frankeshtein:70665:-0.0559882
text^dr_frankeshtein^اما:198298:-0.0425517
text^dr_frankeshtein^اما^اگه:87315:-0.0301793
text^dr_frankeshtein^اما^زمان:38799:-0.0253829
text^dr_frankeshtein^مرگ:46808:-0.026863
text^dr_frankeshtein^مرگ^زیادی:137147:-0.026863
text^drcode0:187463:0.0216138
text^drcode0^ebrahimiavval:200368:0.0216138
text^drcode0^ebrahimiavval^elahetalebzade:78552:0.0216138
text^drdramoray:20809:-0.0812384
text^drdramoray^8retro:244284:-0.0600968
text^drdramoray^8retro^لطفا:56306:-0.0600968
text^drneo07:202695:-0.142637
text^drneo07^احتمالا:6736:0.00340269
text^drneo07^احتمالا^میدونید:83444:-0.0292412
text^drneo07^اینجاش:217266:-0.0609446
text^drneo07^اینجاش^https:177268:-0.0609446
text^drneo07^بله:670:-0.0445204
text^drneo07^بله^سایت:54940:-0.0524155
text^drneo07^فکر:183723:-0.0422977
text^drneo07^فکر^کنم:140991:-0.0422977
text^drneo07^پیداش:134804:-0.028624
text^drneo07^پیداش^کرد:231936:-0.028624
text^drneo07^چشم:46586:-0.0155302
text^drneo07^چشم^این:185998:-0.0572382
text^dt3e0xtqqd:15773:-0.0523094
text^du1drgvcxp:235477:0.0662389
text^ducyntfxke:181491:0.0120523
text^dukckj8z4r:219121:0.0536115
text^dustydesertrose:50344:-0.0909323
text^dustydesertrose^دوباره:113327:-0.0532326
text^dustydesertrose^دوباره^رفتم:202882:-0.0532326
text^dustydesertrose^میدونم:121253:-0.053571
text^dustydesertrose^میدونم^عزیزم:249158:-0.053571
text^dvzuhh6rik:209770:0.0571637
text^dw_persian:140411:-0.0484339
text^dw_persian^darrellwhitelaw:55509:-0.0351593
text^dw_persian^darrellwhitelaw^iranwire:49626:-0.0351593
text^dxkteooy45:33735:-0.0253941
text^e2a22b2nj2:94348:-0.0147473
text^e5zyd8vga3:251398:0.0425646
text^e8wquizqyl:230305:0.0339775
text^each:86341:0.0278035
text^each^muslim:206988:0.0452453
text^each^muslim^were:79082:0.0278035
text^eaquq2twce:188340:0.0428726
text^ebi2498:261914:-0.10436
text^ebi2498^lavita_m92:115073:-0.10436
text^ebi2498^lavita_m92^شما:100102:-0.0634691
text^ebi2498^lavita_m92^طرف:662:-0.0613336
text^ebi_mh63:118571:0.01993
text^ebi_mh63^tirelessrunner:102789:0.01993
text^ebi_mh63^tirelessrunner^tomasmasarik:13875:0.01993
text^eblilus:209582:0.0576648
text^eblilus^arma1026:163515:0.0576648
text^eblilus^arma1026^zeynab_taheri:22931:0.0576648
text^ebne_farsi:197423:-0.0451471
text^ebne_farsi^بار:235220:-0.0451471
text^ebne_farsi^بار^خواستید:146052:-0.0451471
text^ebrahimiavval:252037:-0.0347465
text^ebrahimiavval^elahetalebzade:210521:0.0216138
text^ebrahimiavval^elahetalebzade^eqoeqoe:193273:0.0216138
text^ebrahimiavval^john_lucckk:137628:-0.0700183
text^ebrahimiavval^john_lucckk^ajibzade:89162:-0.0700183
text^eby6lmimne:149231:0.0404927
text^eby6lmimne^https:260797:0.0404927
text^eby6lmimne^https^mghv17x65v:7204:0.0404927
text^edgarsrinkevics:213064:0.0565762
text^edgarsrinkevics^endofisrael:50933:0.00898864
text^edgarsrinkevics^endofisrael^holocaust:181462:0.0565762
text^efegpoeuxw:143341:0.0792764
text^efk03zpdau:119985:0.0663146
text^egqz8lhppy:7221:0.029048
text^ehsan_rastgar:251407:0.0449843
text^ehsan_rastgar^تبریک:140138:0.0449843
text^ehsan_rastgar^تبریک^میگم:142694:0.0449843
text^ehsanbodaghi:54258:-0.0207222
text^ehsanbodaghi^اینایی:218130:0.0585499
text^ehsanbodaghi^اینایی^اسم:248753:0.0585499
text^ehsanbodaghi^یعنی:221032:-0.054853
text^ehsanbodaghi^یعنی^بیفتیم:13670:-0.054853
text^ek6lbuifrl:3439:0.0573714
text^el_gigino_97:49957:0.01993
text^el_gigino_97^monsieur_leon:1233:-0.0413226
text^el_gigino_97^monsieur_leon^hamedaskari777:187124:0.01993
text^elahekhyegane:25025:-0.0454431
text^elahekhyegane^اگه:28318:-0.0454431
text^elahekhyegane^اگه^قواعد:79436:-0.0308915
text^elahekhyegane^اگه^لینک:164701:-0.0347889
text^elahenajafi2:74305:-0.0626905
text^elahenajafi2^ویدئوش:36408:-0.0626905
text^elahenajafi2^ویدئوش^کامنت:73920:-0.0626905
text^elahetalebzade:28392:0.0216138
text^elahetalebzade^eqoeqoe:80972:0.0216138
text^elahetalebzade^eqoeqoe^_parhamam_:196571:0.0216138
text^elelnaz:44966:-0.0811177
text^elelnaz^inazkam:174689:-0.0517525
text^elelnaz^inazkam^esmailifarshad:9873:-0.0816957
text^elelnaz^این:157066:-0.0496635
text^elelnaz^این^ساختمون:184605:-0.0496635
text^elhamfakhari:104042:-0.0473583
text^elhamfakhari^خانم:91415:-0.0269782
text^elhamfakhari^خانم^فخاری:113847:-0.0473583
text^elia12420:253753:0.112603
text^elia12420^yaminpour:209033:0.0658976
text^elia12420^yaminpour^خنده:21213:0.0658976
text^elia12420^اوه:119055:0.0650152
text^elia12420^اوه^اوه:178573:0.0650152
text^elia12420^جای:38486:-0.0810214
text^elia12420^جای^معرفی:251476:0.0295212
text^elika7091:120752:-0.0769229
text^elika7091^واقعا:42053:-0.0567878
text^elika7091^واقعا^ممنونم:97392:-0.0567878
text^ellyaghakhani:120339:-0.105988
text^ellyaghakhani^امید:179316:-0.0628464
text^ellyaghakhani^امید^آزادی:250955:-0.0612246
text^ellyaghakhani^سلام:181014:-0.0655913
text^ellyaghakhani^سلام^آقارضا:103041:-0.0655913
text^ellyaswan:207009:0.0553517
text^ellyaswan^اگه:227838:0.0553517
text^ellyaswan^اگه^بفهمم:196906:0.0553517
text^emad_bahavar:49947:-0.0715494
text^emad_bahavar^شما:95288:-0.0538017
text^emad_bahavar^شما^گرم:129331:-0.0538017
text^emad_bahavar^فقط:236073:0.0220961
text^emad_bahavar^فقط^میتونم:43089:-0.0241657
text^emamkhamenehee:15471:0.0608712
text^emamkhamenehee^خودشه:209987:0.0608712
text^emamkhamenehee^خودشه^کنم:142071:0.0608712
text^emelianozpt:107171:-0.036496
text^emelianozpt^albert_parsi:219613:-0.036496
text^emelianozpt^albert_parsi^hasti69685743:47180:-0.036496
text^emrtat71:83154:0.0864297
text^emrtat71^پناه:59705:0.0629105
text^emrtat71^پناه^خدا:158293:0.0629105
text^endofisrael:24525:0.4787
text^endofisrael^holocaust:160334:0.0312975
text^endofisrael^holocaust^https:195488:0.0565762
text^endofisrael^https:153123:0.397103
text^endofisrael^https^01ucjspw3b:8297:0.0339165
text^endofisrael^https^1n8bzusdeb:182069:0.0646766
text^endofisrael^https^4gf9vi7wol:204917:0.0597185
text^endofisrael^https^78ioirzk9y:40546:0.0645061
text^endofisrael^https^79wfbxeutt:235270:0.0635675
text^endofisrael^https^7oaikaxcbx:224464:0.0638814
text^endofisrael^https^dno9smvbmz:194393:0.0646517
text^endofisrael^https^efegpoeuxw:255108:0.00328917
text^endofisrael^https^enzxxg05vk:9608:0.063263
text^endofisrael^https^etiwgaohqn:136258:0.0136454
text^endofisrael^https^jurystozjf:77830:0.0276321
text^endofisrael^https^lloyzslnyv:257472:0.0604412
text^endofisrael^https^lveingkd6s:125270:0.0360924
text^endofisrael^https^madxtoxgxl:209861:0.0405916
text^endofisrael^https^mjf6bolsre:48559:0.0473062
text^endofisrael^https^n8q0rkaytm:45028:0.0443876
text^endofisrael^https^ojgeropb15:140861:0.0609953
text^endofisrael^https^puzkxmelny:38005:0.0629456
text^endofisrael^https^sxgud1fjsq:82951:-0.0013751
text^endofisrael^https^tlq8urkcko:53229:0.0358535
text^endofisrael^https^ui26vty1lh:208857:-0.00772499
text^endofisrael^https^uqk8wpzmnu:212305:0.0531872
text^endofisrael^https^xcilgwp17p:133161:0.0597757
text^endofisrael^https^xqvg6ukrh2:167440:0.0605734
text^endofisrael^https^yxrharpkbf:160401:0.0638385
text^endofisrael^يوم_القدس_مسيرة_العودة:71587:0.201786
text^endofisrael^يوم_القدس_مسيرة_العودة^https:60577:0.187955
text^endofisrael^يوم_القدس_مسيرة_العودة^يوم_القدس_العالمي:227078:0.0567478
text^enghelabi_57:138221:0.169654
text^enghelabi_57^famil_door:182585:0.0921991
text^enghelabi_57^famil_door^حالا:22114:0.0312979
text^enghelabi_57^famil_door^داداش:26754:0.0465444
text^enghelabi_57^famil_door^عالی:157267:0.0398029
text^enghelabi_57^tahamajidii:139114:0.102319
text^enghelabi_57^tahamajidii^famil_door:75714:0.102319
text^enghelabi_57^واقعا:142:0.0508319
text^enghelabi_57^واقعا^نمیفهمم:68617:0.0508319
text^ensafvamorovat:8257:0.0441261
text^ensafvamorovat^جهنمی:208842:0.0441261
text^ensafvamorovat^جهنمی^هستیم:190527:0.0441261
text^entekhab_news:14569:0.056738
text^entekhab_news^دولت:134984:0.056738
text^entekhab_news^دولت^آبادی:80575:0.0113544
text^entex:14785:-0.0437319
text^entex^دوست:108940:-0.0437319
text^entex^دوست^بار:93373:-0.0437319
text^enzxxg05vk:159985:0.105257
text^ephmcs3qke:23930:-0.0418939
text^eqoeqoe:16644:0.0781706
text^eqoeqoe^_parhamam_:51635:0.0216138
text^eqoeqoe^_parhamam_^bravegiiirl:182732:0.0216138
text^eqoeqoe^ahmaddastaran:28248:0.0898563
text^eqoeqoe^ahmaddastaran^دقیقا:50982:0.0638728
text^eqzq4bacng:123069:0.0476043
text^eshnooo:261873:-0.0157444
text^eshnooo^فحاشی:72428:-0.0289569
text^eshnooo^فحاشی^جنسی:175414:-0.0289569
text^eshnooo^واقعا:183170:-0.058482
text^eshnooo^واقعا^همینطوره:139333:-0.058482
text^eshraghyazar:51430:0.0527476
text^eshraghyazar^jedaaal:76911:0.0628307
text^eshraghyazar^jedaaal^haj_komeil:239158:0.0527476
text^esmaeilijalal:213328:0.0479513
text^esmaeilijalal^بله:19203:0.0284436
text^esmaeilijalal^بله^دیگه:44581:0.0541128
text^esmailifarshad:59572:-0.0517525
text^esmailifarshad^لابد:119919:-0.0517525
text^esmailifarshad^لابد^چون:95969:-0.0517525
text^estebdadsetiz:134663:-0.0315999
text^estebdadsetiz^صورت:208354:-0.0315999
text^estebdadsetiz^صورت^محاکمه:118940:-0.0315999
text^esyl8z99lb:112210:-0.0463996
text^etiwgaohqn:24491:0.0658671
text^exchs7qcgo:184050:0.00744128
text^ezsdqxciph:65473:-0.03264
text^f51jxnm64t:139701:0.0665857
text^f51jxnm64t^https:153707:0.0540322
text^f51jxnm64t^https^1gmdkok31b:113684:0.0421235
text^f51jxnm64t^https^bu3bcne70z:218432:-0.0193916
text^f_panahi88:209183:0.0501597
text^f_panahi88^نوشته:37423:0.0501597
text^f_panahi88^نوشته^شده:104529:0.0501597
text^f_s_amirkhani:212348:0.055897
text^f_s_amirkhani^اصلاحطلبا:107218:0.0271269
text^f_s_amirkhani^اصلاحطلبا^چون:131768:0.0463428
text^f_s_amirkhani^همسرتون:80097:0.0556804
text^f_s_amirkhani^همسرتون^میخوره:227690:0.0556804
text^fa_na_mim:36456:0.0602423
text^fa_na_mim^khanomirany:190945:0.0602423
text^fa_na_mim^khanomirany^خیر:247491:0.0602423
text^faaribba:238235:-0.0952688
text^faaribba^نام:69800:-0.0475855
text^faaribba^نام^اسلام:99414:-0.0475855
text^fada_banoo:229223:0.0897638
text^fada_banoo^mhrezaa:202227:0.0578151
text^fada_banoo^mhrezaa^این:207779:0.0578151
text^fada_banoo^nafisemousavii:210378:0.0540792
text^fada_banoo^nafisemousavii^fathalichah:29953:0.0805684
text^fadak11011:172914:0.0501734
text^fadak11011^pariaf128:43874:0.0501734
text^fadak11011^pariaf128^تهمینه:162287:0.0501734
text^famil_door:132096:0.234782
text^famil_door^enghelabi_57:4077:0.0508319
text^famil_door^enghelabi_57^واقعا:140430:0.0275756
text^famil_door^fotros139:7832:0.0216138
text^famil_door^fotros139^jeanvaljean65:222104:0.0559788
text^famil_door^hj_petros:141516:0.053872
text^famil_door^hj_petros^yaminpour:47824:-0.0536449
text^famil_door^sp_hos:89016:0.0388675
text^famil_door^sp_hos^faridebrahimi62:5266:0.0388675
text^famil_door^تعارف:190671:0.0376359
text^famil_door^تعارف^بابت:205313:0.0376359
text^famil_door^حالا:192781:0.0312979
text^famil_door^حالا^خودم:242827:0.0312979
text^famil_door^داداش:197421:0.0465444
text^famil_door^داداش^شما:81410:0.0749904
text^famil_door^عالی:65790:0.0625051
text^famil_door^عالی^عالی:20484:0.0625051
text^famil_door^فتل:108214:0.0589399
text^famil_door^فتل^خوشگلترم:76785:0.0589399
text^famil_door^میدونم:70557:0.0378318
text^famil_door^میدونم^ایشون:243279:0.0378318
text^famil_door^والله:237779:0.0328739
text^famil_door^والله^فقط:186625:0.0328739
text^famil_door^کله:250242:0.064423
text^famil_door^کله^پاچه:37315:0.0591926
text^famil_door^گوسفند:140981:0.0483421
text^famil_door^گوسفند^قبل:76046:0.0483421
text^famil_door^یعنی:58686:0.0500502
text^famil_door^یعنی^مربوط:144299:0.0500502
text^family:172773:-0.00731976
text^family^https:214235:-0.03114
text^family^https^ngx37ormhg:46800:-0.03114
text^fans:137984:0.0404927
text^fans^this:140004:0.0404927
text^fans^this^week:82837:-0.00420002
text^fantasticreload:96779:-0.0517437
text^fantasticreload^روز:65301:-0.0517437
text^fantasticreload^روز^خونم:68317:-0.0517437
text^farahmand__:191963:-0.0909678
text^farahmand__^boiereihan:144107:-0.0285985
text^farahmand__^boiereihan^دلیلی:186762:-0.0285985
text^farahmand__^https:115193:-0.0795693
text^farahmand__^https^7amky82sfa:2462:-0.0671448
text^farahmand__^بچه:81990:-0.0356222
text^farahmand__^بچه^های:9823:-0.0356222
text^faranak_amidi:256718:-0.10021
text^faranak_amidi^https:70176:-0.0636719
text^faranak_amidi^https^ugnujjpcu9:62503:-0.0636719
text^faranak_amidi^loscheshahram:61455:-0.0380278
text^faranak_amidi^loscheshahram^sharqekhish:81214:-0.025883
text^faranak_amidi^sharqekhish:110593:-0.0525138
text^faranak_amidi^sharqekhish^ابتدا:157647:-0.0504117
text^faranak_amidi^sharqekhish^خانم:193362:-0.024051
text^faranak_amidi^sharqekhish^مسخره:32957:-0.0250896
text^farda88888:126488:-0.0283675
text^farda88888^sadafbanooo:126579:-0.0689544
text^farhadnmk:149961:0.0451526
text^farhadnmk^hamidrasaee:55783:0.0451526
text^farhadnmk^hamidrasaee^تایملاین:17472:0.0451526
text^faridattarzade:175147:-0.00591835
text^faridattarzade^نام:82936:-0.0524409
text^faridattarzade^نام^ببر:88252:-0.0524409
text^faridebrahimi62:151482:-0.0822343
text^faridebrahimi62^jeanvaljean65:141874:0.0388675
text^faridebrahimi62^jeanvaljean65^marloncommando:139259:0.0388675
text^faridebrahimi62^برادر:34183:-0.0418803
text^faridebrahimi62^برادر^دقیقا:169113:-0.0418803
text^faridebrahimi62^بنظرم:226722:-0.043293
text^faridebrahimi62^بنظرم^یهود:180829:-0.043293
text^farideghaeb:62793:-0.11862
text^farideghaeb^movafard:192517:-0.0911776
text^farideghaeb^movafard^عالی:134639:-0.0415915
text^farideghaeb^movafard^ممنونم:219440:-0.0631654
text^farnoud_xorsand:77331:-0.0467528
text^farnoud_xorsand^نسل:254580:0.0185968
text^farnoud_xorsand^نسل^دوم:9988:-0.0601348
text^farshid_ghzpour:229633:-0.0392837
text^farshid_ghzpour^یادته:133206:-0.0392837
text^farshid_ghzpour^یادته^نامزد:184533:-0.0392837
text^farshid_ms:185817:-0.0477488
text^farshid_ms^v_oiceofsilence:70404:-0.0477488
text^farshid_ms^v_oiceofsilence^اون:204687:-0.0247257
text^farshidabed:144346:-0.0136057
text^farshidabed^اینقده:114195:-0.0099987
text^farshidabed^اینقده^هستن:201460:-0.00494809
text^farzad_az:158480:-0.0523094
text^farzad_az^leylisdghi:96960:-0.0523094
text^farzad_az^leylisdghi^آره:39322:-0.0523094
text^farzanegholami:142972:0.0216138
text^farzanegholami^famil_door:165004:0.0216138
text^farzanegholami^famil_door^fotros139:96500:0.0216138
text^farzaneh46400:35854:0.0516201
text^farzaneh46400^اینجا:228244:0.0516201
text^farzaneh46400^اینجا^میگه:150694:0.0516201
text^fateme_28:244059:0.0521007
text^fateme_28^قبول:246821:0.151181
text^fateme_28^قبول^باشه:200782:0.0683868
text^fateme_kz:216547:0.131192
text^fateme_kz^yaminpour:42635:0.0424278
text^fateme_kz^yaminpour^عوضش:208302:0.057354
text^fateme_kz^خواهش:58030:0.0659081
text^fateme_kz^خواهش^کنم:261814:0.0659081
text^fateme_kz^فکر:153431:0.0381233
text^fateme_kz^فکر^میکنم:256705:0.000970798
text^fatemehazizi8:192742:-0.0619179
text^fatemehazizi8^برای:179534:-0.0619179
text^fatemehazizi8^برای^مثال:230108:-0.0619179
text^fatemehbeykpour:78503:-0.0369546
text^fatemehbeykpour^این:145799:-0.0369546
text^fatemehbeykpour^این^خانم:197824:-0.0369546
text^fatemehooraa:154336:0.075082
text^fatemehooraa^ممنونم:42911:0.0216138
text^fatemehrahmaty7:241212:0.0542553
text^fatemehrahmaty7^yaminpour:121472:0.0542553
text^fatemehrahmaty7^yaminpour^naderitwt:94822:0.0542553
text^fatememehraban:248398:0.107256
text^fatememehraban^_30rooss_:256022:0.01993
text^fatememehraban^_30rooss_^khanomirany:70359:0.01993
text^fatememehraban^آخه:212468:-0.00471909
text^fatememehraban^آخه^ارزش:72759:0.101026
text^fatemmola:166698:0.0660011
text^fatemmola^دقیقا:178864:0.0351268
text^fatemmola^دقیقا^خودشه:218752:0.0660011
text^fatf:150751:0.134143
text^fatf^fatf_بدتر_از_برجام:56247:0.0338416
text^fatf^fatf_بدتر_از_برجام^https:58469:0.0338416
text^fatf^no2fatf:124727:0.0614514
text^fatf^اظهارنظر:215890:-0.0370573
text^fatf^اظهارنظر^کرد:55750:-0.0370573
text^fatf^رای:38547:0.0466021
text^fatf^رای^بدهند:196931:0.0466021
text^fatf^قراره:206885:0.0338416
text^fatf^قراره^خورد:227615:0.0338416
text^fatf_بدتر_از_برجام:48980:0.0338416
text^fatf_بدتر_از_برجام^https:213646:0.0582511
text^fatf_بدتر_از_برجام^https^hkagg9xvky:188908:0.0338416
text^fathalichah:242783:0.0804897
text^fathalichah^_parhamam_:32418:0.0388675
text^fathalichah^_parhamam_^بوس:6779:0.0388675
text^fathalichah^geniuser:184444:0.01993
text^fathalichah^geniuser^abasanti666:20085:0.0403046
text^fathalichah^ممنون:165318:0.0540792
text^fathalichah^ممنون^نظر:246190:0.00874402
text^fatimah_1727:223821:0.155624
text^fatimah_1727^abookomeil2:168681:0.0616589
text^fatimah_1727^abookomeil2^hani_hashami:142136:0.0616589
text^fatimah_1727^hani_hashami:194828:0.0647216
text^fatimah_1727^hani_hashami^siib_saa:185030:0.0647216
text^fatimah_1727^منم:9752:0.0560936
text^fatimah_1727^منم^منظورم:248105:0.0560936
text^fatimah_1727^های:13130:0.0971986
text^fatimah_1727^های^قبل:205903:0.0597731
text^fatimah_1727^یاد:112871:0.0305438
text^fatimah_1727^یاد^آتش:195338:0.0305438
text^fd0sfprsms:102649:0.0632325
text^febrahimzade:203907:-0.10178
text^febrahimzade^تویت:82655:-0.0428542
text^febrahimzade^تویت^های:242580:0.0332539
text^fencer1979:56053:-0.0477488
text^fencer1979^farshid_ms:83450:-0.0477488
text^fencer1979^farshid_ms^v_oiceofsilence:245665:-0.0477488
text^ferferijan:234598:-0.0707745
text^ffnightlight:261300:-0.0657522
text^ffnightlight^فینگیلی:171409:-0.0896652
text^ffnightlight^فینگیلی^فینگیلی:66554:-0.0657522
text^ffu16kma2l:144493:0.040275
text^fhsqaegd75:88156:0.0385288
text^fingilipafingil:131588:-0.053343
text^fingilipafingil^بستنی:180243:-0.053343
text^fingilipafingil^بستنی^مغزدار:170401:-0.053343
text^firoozy_raz:46258:0.0976176
text^firoozy_raz^fateme_kz:121293:0.057354
text^firoozy_raz^fateme_kz^yaminpour:66765:0.057354
text^firoozy_raz^حتما:140938:0.0629384
text^firoozy_raz^حتما^دیدمش:242756:0.0629384
text^fjamalpour:239464:-0.0538888
text^fjamalpour^yelmjouie:59499:0.0111733
text^fjamalpour^yelmjouie^سایت:237109:-0.0538888
text^fled:167452:-0.0267939
text^fled^her:171052:0.0044716
text^fled^her^native:138294:-0.03114
text^fmahdipour:53362:0.0975368
text^fmahdipour^دوران:258578:0.0580902
text^fmahdipour^دوران^بزن:172768:0.0580902
text^fmahdipour^مبارک:109975:0.0684923
text^fmahdipour^مبارک^باشد:167350:0.0555813
text^footballworldcup2018:164351:-0.0178512
text^footballworldcup2018^for:118378:0.0382738
text^footballworldcup2018^for^several:68996:0.0382738
text^for:110951:-0.00768104
text^for^letting:25133:-0.03114
text^for^letting^her:85241:-0.03114
text^for^several:85389:0.0729742
text^for^several^years:222712:0.0382738
text^fotros139:141976:0.0265713
text^fotros139^fatememehraban:164486:0.01993
text^fotros139^fatememehraban^_30rooss_:5998:0.01993
text^fotros139^jeanvaljean65:81816:0.0216138
text^fotros139^jeanvaljean65^haj_komeil:217531:0.0216138
text^fp0oojmrmx:113466:-0.0407376
text^frb78pluji:115866:0.0315699
text^freedom92979546:233625:-0.0884834
text^freedom92979546^منم:85812:-0.0289105
text^freedom92979546^منم^لطفت:260788:-0.0236445
text^freemaysam:110636:0.0542591
text^freemaysam^zahrahb:174197:0.0649656
text^freemaysam^zahrahb^بستگی:67270:0.00898098
text^freemaysam^zahrahb^نظرم:172904:0.0408742
text^freethinker02:101469:-0.0579051
text^freethinker02^دقت:57442:-0.00508671
text^freethinker02^دقت^خوندم:45586:-0.0579051
text^fshossseini:90868:0.0394791
text^fshossseini^بیش:208702:0.0394791
text^fshossseini^بیش^نفر:87336:0.0394791
text^ftdxy0xw90:205434:-0.0463319
text^ftu01:114615:0.0652765
text^ftu01^_psychsocial_:232162:0.0652765
text^ftu01^_psychsocial_^wendychidester:168912:0.0652765
text^fuckreligious:102735:-0.0651177
text^fuckreligious^patric_jane7:17230:-0.0651177
text^fwnietzsshe:167901:0.113315
text^fwnietzsshe^حقوقی:65322:0.0179173
text^fwnietzsshe^حقوقی^میگیره:190429:0.0629895
text^fwnietzsshe^شاید:245235:0.0693377
text^fzoqyre0laxvclc:70093:0.0681138
text^fzoqyre0laxvclc^شتتتت:252888:0.0681138
text^g72u9yulwm:10146:-0.0404631
text^gavaazn:48560:-0.174696
text^gavaazn^ajibzade:46094:-0.074546
text^gavaazn^ajibzade^تاجزاده:46906:-0.00157057
text^gavaazn^saman0018:4541:-0.0384843
text^gavaazn^saman0018^امضاکنندگان:21943:-0.0243169
text^gavaazn^اصن:193115:-0.0624513
text^gavaazn^اصن^راهنما:73311:-0.0364556
text^gavaazn^توییت:222746:-0.0509257
text^gavaazn^توییت^اصلی:167992:-0.0509257
text^gavaazn^دیگه:143134:-0.0348499
text^gavaazn^دیگه^الان:154358:-0.0348499
text^gavaazn^صداقتشون:56078:-0.031229
text^gavaazn^صداقتشون^همین:165637:-0.0416038
text^gavaazn^نرفتی:40832:-0.0630854
text^gavaazn^نرفتی^حموم:204273:-0.0630854
text^gavaazn^همینجاست:195309:-0.069295
text^geniuser:92825:0.01993
text^geniuser^abasanti666:198942:0.01993
text^geniuser^abasanti666^tub67:233545:0.01993
text^gepihtfkaz:150349:0.0375658
text^ghaafffaaar:234364:-0.0635581
text^ghaafffaaar^خيلي:227130:-0.0268083
text^ghaafffaaar^خيلي^مرسي:85147:-0.0635581
text^ghadimimehdi:167900:-0.0968794
text^ghadimimehdi^mohmohajeri:79409:-0.111402
text^ghadimimehdi^mohmohajeri^همچنین:96680:-0.0509934
text^ghadimimehdi^کلا:141271:-0.0599494
text^ghadimimehdi^کلا^زود:253182:-0.0599494
text^ghasema61:7185:0.193472
text^ghasema61^bbcshameonyou:94680:0.0469688
text^ghasema61^sadeghzibakalam:55224:0.0503491
text^ghasema61^sadeghzibakalam^لیاقتش:234436:0.00729698
text^ghasema61^السلام:44086:0.059306
text^ghasema61^السلام^علیک:247377:0.059306
text^ghasema61^جسارت:169807:0.0656224
text^ghasema61^جسارت^نمیکنم:237721:0.0656224
text^ghasema61^خدا:84429:0.0490856
text^ghasema61^خدا^قوت:131242:0.0490856
text^ghazinouri:100324:-0.0446961
text^ghazinouri^قطعن:136902:-0.0446961
text^ghazinouri^قطعن^اون:101961:-0.0446961
text^gholamrezadana1:120593:-0.0686753
text^gholamrezadana1^بلی:26180:-0.0850166
text^ghonchehgh:166644:-0.0572697
text^ghonchehgh^باید:141642:-0.0572697
text^ghonchehgh^باید^اسمش:247262:-0.0674554
text^gi8zb97uh7:178747:-0.0560969
text^gi8zb97uh7^https:81113:-0.0560969
text^gi8zb97uh7^https^v6jih0fvje:237297:-0.0560969
text^gilakr:135027:0.0503989
text^gilakr^اگر:130875:0.0503989
text^gilakr^اگر^قربت:39664:0.0816853
text^giletohid:232672:-0.0752067
text^giletohid^marmaladovv:3287:-0.062826
text^giletohid^marmaladovv^هستیم:2584:-0.0196362
text^gisborideh96:150121:-0.0532538
text^gisborideh96^واقعا:164122:-0.067359
text^gisborideh96^واقعا^سال:170310:-0.0532538
text^gitoool:69077:-0.0640833
text^gitoool^نگرفتم:118231:-0.0640833
text^gitoool^نگرفتم^منظورت:41333:-0.0449061
text^giwphrvswa:161188:-0.0416583
text^gjb4uqejwq:184298:0.0650809
text^gjk1skm3xg:198610:0.025214
text^gkolangi:226392:0.057913
text^gkolangi^توی:48697:0.057913
text^gkolangi^توی^منشن:259207:0.057913
text^gkykh1wreu:135886:-0.0576547
text^glhasfpiw3:244393:0.0325381
text^gordan_shahadat:7910:0.0666491
text^gordan_shahadat^زنده:25924:0.0666491
text^gordan_shahadat^زنده^باشید:98835:0.0666491
text^gqe5iq3ccd:173553:0.0823186
text^gringottsboss:77780:-0.045279
text^gringottsboss^mahenoghree:38667:-0.045279
text^gringottsboss^mahenoghree^بله:211154:-0.054118
text^gswildkksd:202267:-0.0457007
text^h2qvywqtem:152980:-0.0363021
text^h4l7gvxjy4:108373:0.054003
text^h5kd5lzkua:46298:0.0130862
text^h_abdolmanafi:136368:0.0835715
text^h_abdolmanafi^seyyedkarimi:90669:0.0399837
text^h_abdolmanafi^seyyedkarimi^amin_assadi:40732:0.0399837
text^h_abdolmanafi^نظر:5872:0.0602924
text^h_abdolmanafi^نظر^حاجیه:192889:0.0602924
text^h_hajipour60:96019:-0.0419587
text^h_hajipour60^یادمه:160021:-0.0249313
text^h_hajipour60^یادمه^سال:194645:-0.0249313
text^h_saye18:217949:0.0586077
text^h_saye18^خدایا:34164:0.0586077
text^h_saye18^خدایا^بسه:228233:0.0586077
text^habibhmt:143884:0.0688395
text^habibhmt^ابالفضل:90960:0.0688395
text^habil:86115:0.163391
text^habil^sabeti_twt:129367:0.048832
text^habil^sabeti_twt^naderitwt:209121:0.048832
text^habil^smrasnafi:169440:0.101315
text^habil^smrasnafi^خودتم:179820:0.0548016
text^habil^smrasnafi^شما:232681:0.0765494
text^habil^الان:67623:0.0476428
text^habil^الان^باید:14513:0.0476428
text^habil^دارم:136428:0.0488169
text^habil^دارم^بدو:30599:0.0488169
text^hadiisajjadi:109517:-0.145897
text^hadiisajjadi^این:236565:-0.0449009
text^hadiisajjadi^این^نیستم:257346:-0.0449009
text^hadiisajjadi^عزیز:38357:-0.0350721
text^hadiisajjadi^عزیز^شباهت:24331:-0.0350721
text^hadiisajjadi^گذاشتم:15733:-0.0554961
text^hadiisajjadi^گذاشتم^باروک:250198:-0.0554961
text^hadisaborian:115577:-0.126954
text^hadisaborian^عزیزم:136138:-0.0556999
text^hadisaborian^عزیزم^داند:109299:-0.0556999
text^hadisaborian^مردم:159750:-0.0633726
text^hadisaborian^مردم^ایران:54283:-0.0633726
text^hadisaborian^وابستگیم:176879:-0.0448073
text^hadisaborian^وابستگیم^مشخصه:98616:-0.0448073
text^haem313:20263:0.0711383
text^haem313^varesh313:199997:0.0216138
text^haem313^varesh313^zohreh1989s:133004:0.0216138
text^haem313^پولشم:63871:0.0656282
text^haem313^پولشم^بدن:219117:0.0656282
text^hair:156837:-0.03114
text^hair^down:131886:-0.00727544
text^hair^down^she:86727:-0.0494613
text^haj_ali_potter:2878:0.0589732
text^haj_ali_potter^israelpersian:182606:0.0589732
text^haj_ali_potter^israelpersian^عزایشان:86487:0.0589732
text^haj_franc:131412:0.0399837
text^haj_franc^remisa77:106706:0.0399837
text^haj_franc^remisa77^فدایی:233166:0.0399837
text^haj_komeil:55427:0.0833452
text^haj_komeil^hj_petros:213571:0.0216138
text^haj_komeil^hj_petros^alilawyer87:73375:-0.026578
text^haj_komeil^اگر:29707:0.039394
text^haj_komeil^اگر^مدت:55782:0.039394
text^haj_komeil^تقصیر:13609:0.0527476
text^haj_komeil^تقصیر^منه:53357:0.0318286
text^haj_mehdii:48288:-0.031491
text^haj_mehdii^diyare_habiib:90544:-0.0581622
text^haj_mehdii^diyare_habiib^kazemi92:55816:-0.031491
text^halvlid:114905:-0.0336664
text^halvlid^بله:233832:-0.0336664
text^halvlid^بله^بعد:38625:-0.0336664
text^hamed_pahlevani:239724:-0.00464517
text^hamed_pahlevani^حامدجان:56488:0.0265104
text^hamed_pahlevani^حامدجان^شاید:38546:0.0535588
text^hamedaskari777:64615:0.01993
text^hamedaskari777^خبره:214367:-0.0512394
text^hamedaskari777^خبره^اینجا:244897:0.01993
text^hamedhm437:127383:-0.0467528
text^hamedhm437^farnoud_xorsand:78926:-0.0467528
text^hamedhm437^farnoud_xorsand^نسل:81603:-0.0753067
text^hamedm0304:243907:-0.0689091
text^hamedm0304^تشکر:68430:-0.0689091
text^hamidk00041483:103239:-0.0503591
text^hamidk00041483^missi007xy:228902:-0.00159379
text^hamidk00041483^missi007xy^0_sefrmotlagh:86836:-0.0503591
text^hamidm72:133082:0.0631484
text^hamidm72^خوب:10346:0.0631484
text^hamidm72^خوب^لاغر:222488:0.0631484
text^hamidnooroozy1:63696:0.0615239
text^hamidnooroozy1^بنگاه:261527:0.0615239
text^hamidnooroozy1^بنگاه^دروغ:24582:0.0872951
text^hamidrasaee:242242:0.0451526
text^hamidrasaee^تایملاین:182831:0.0652715
text^hamidrasaee^تایملاین^بنگریم:220824:0.0451526
text^hamidreza136933:25573:0.0617189
text^hamidreza136933^mhrezaa:142969:0.0617189
text^hamidreza136933^mhrezaa^فسوف:191469:0.0617189
text^hammbhayav:244380:-0.0431674
text^hamonmehrjooee:157789:-0.0514311
text^hamonmehrjooee^لطف:81340:-0.0514311
text^hamonmehrjooee^لطف^داری:13160:-0.0514311
text^hani_hashami:81651:0.124266
text^hani_hashami^mzr1370:185752:0.01993
text^hani_hashami^mzr1370^rzvan73:252354:0.01993
text^hani_hashami^siib_saa:191505:0.12759
text^hani_hashami^siib_saa^اگر:53089:0.0357528
text^hani_hashami^siib_saa^باید:167667:0.0359296
text^hani_hashami^siib_saa^دقیقا:230139:0.0616589
text^hani_hashami^siib_saa^شما:22358:0.0472276
text^hani_hashami^siib_saa^شوخی:227118:0.0182378
text^hanie686978:238501:0.157467
text^hanie686978^tiiddrog94:81290:0.0266422
text^hanie686978^tiiddrog94^برا:79046:0.0266422
text^hanie686978^اگر:224421:0.0442685
text^hanie686978^اگر^تهران:15503:0.0333591
text^hanie686978^ایشون:192055:0.0243381
text^hanie686978^ایشون^منو:32230:0.0243381
text^hanie686978^اینم:62334:0.0412375
text^hanie686978^اینم^توی:69319:0.0412375
text^hanie686978^ببخشید:85758:0.0169506
text^hanie686978^ببخشید^منتظر:68972:0.0458736
text^hanie686978^بخاطر:141466:0.0220865
text^hanie686978^بخاطر^اینکه:86095:0.0220865
text^hanie686978^متوجه:205581:0.0249952
text^hanie686978^متوجه^نشدید:128093:0.053843
text^hanie686978^نوشته:125085:0.026813
text^hanie686978^نوشته^غیر:188949:0.026813
text^hanie686978^وقتی:8663:0.0252404
text^hanie686978^وقتی^ارگان:59806:0.0252404
text^hanie686978^چیزی:81472:0.0285128
text^hanie686978^چیزی^توش:110904:0.0285128
text^hardcoratheist:15179:-0.0752588
text^hardcoratheist^زیبا:118293:-0.049446
text^hardcoratheist^زیبا^کلام:235525:-0.00994555
text^has:213220:0.00621987
text^has^killed:144078:0.0167639
text^has^killed^innocent:134039:0.0382738
text^has^paid:196052:-0.03114
text^has^paid^high:5082:-0.03114
text^hasan23006691:143598:-0.0268579
text^hasan23006691^اگر:84426:-0.0268579
text^hasan23006691^اگر^تعداد:52646:-0.0268579
text^hasanpormoo:97185:0.0599373
text^hasanpormoo^همین:3148:0.000720095
text^hasanpormoo^همین^میشد:104844:0.0599373
text^hashtagdowle:107472:0.048465
text^hashtagdowle^خیلی:212524:0.048465
text^hashtagdowle^خیلی^جالبه:1525:0.048465
text^hasti69685743:228579:-0.036496
text^hasti69685743^mr__whiplash:182181:-0.036496
text^hasti69685743^mr__whiplash^alireza_arad:28013:-0.036496
text^hastivk:225488:-0.0449551
text^hastivk^milan_samari:254865:-0.0723243
text^hastivk^milan_samari^قبل:253562:-0.0449551
text^hatabari1:62053:-0.0559405
text^hatabari1^anneshrly:65931:-0.0559405
text^hatabari1^anneshrly^نوش:95087:-0.0559405
text^hatefmotahhary:19318:0.057055
text^hatefmotahhary^غیرمنصفانه:166384:0.0151403
text^hatefmotahhary^غیرمنصفانه^قلم:164266:0.057055
text^have:75303:0.0335863
text^have^problem:86172:0.0335863
text^have^problem^with:168248:0.0335863
text^hd93surj9a:56548:0.0513965
text^hdoudtortz:40735:0.042034
text^hellfireeeeee:129931:-0.0522628
text^hellfireeeeee^تولدت:143191:-0.0522628
text^hellfireeeeee^تولدت^مبارک:49640:-0.0522628
text^help:142998:-0.0499553
text^help^support:96729:-0.0499553
text^help^support^lgbt:238422:-0.0499553
text^her:137856:-0.0539507
text^her^family:54117:-0.03114
text^her^family^https:209755:-0.03114
text^her^hair:38181:-0.03114
text^her^hair^down:127406:-0.0145982
text^her^native:9530:-0.03114
text^her^native^iran:212953:-0.03114
text^hero_xan:120738:-0.0653854
text^hero_xan^بژی:77576:-0.080651
text^hero_xan^بژی^کردستان:128901:-0.0653854
text^herrmdl:166589:-0.0373728
text^herrmdl^زمستان:254095:-0.0373728
text^herrmdl^زمستان^گذشته:13830:-0.0373728
text^hesamodin1:175909:0.141902
text^hesamodin1^shaghayegh313:220049:0.0565225
text^hesamodin1^shaghayegh313^ایها:185439:0.0565225
text^hesamodin1^سال:134693:0.0419024
text^hesamodin1^سال^هاست:161550:0.0572398
text^heyeleven11:91156:0.0203566
text^heyeleven11^اعتقاد:53640:-0.0525275
text^heyeleven11^اعتقاد^مردم:178393:-0.0358824
text^hfmhanif:202329:-0.0377664
text^hfmhanif^behdune:64858:-0.0377664
text^hfmhanif^behdune^توی:122163:0.0195834
text^hftrscub1h:248837:-0.0356436
text^hghzdlen1f:246463:0.0875376
text^hh9gfmplkj:180739:0.0578151
text^high:198998:-0.03114
text^high^price:195147:-0.03114
text^high^price^for:390:-0.03114
text^hirbodmoghadam:134845:-0.0657548
text^hirbodmoghadam^مهدی:158637:-0.0657548
text^hirbodmoghadam^مهدی^موعود:12013:-0.0657548
text^hiwxbgboce:14160:-0.0268767
text^hj_petros:13516:0.0523597
text^hj_petros^alilawyer87:3076:0.0216138
text^hj_petros^alilawyer87^mojtaba_alaiee:92505:0.0216138
text^hj_petros^yaminpour:169680:0.0391677
text^hj_petros^yaminpour^naderitwt:19830:0.0391677
text^hkagg9xvky:201622:0.0338416
text^hkrvdnng9f:254963:-0.0514154
text^hktgpfqwob:76171:0.0474655
text^hmohseny:209271:-0.0379046
text^hmohseny^seidrazi:235837:-0.0379046
text^hmohseny^seidrazi^بیکارن:101693:-0.0379046
text^hnakhli:216719:-0.0270468
text^hnakhli^حاجی:26491:0.0591776
text^hnakhli^حاجی^همه:41165:-0.0134778
text^hnamakdoost:74509:-0.0606161
text^hnamakdoost^قربان:24203:-0.0606161
text^hnamakdoost^قربان^شما:152040:-0.0186461
text^hnfbg3ccem:142783:0.0447363
text^hnj2btk12o:37344:-0.0494271
text^ho_zamani_1979:20180:-0.0197853
text^ho_zamani_1979^باشه:66369:0.0851518
text^ho_zamani_1979^باشه^اجازه:245525:0.0641698
text^hoda_seyfii:184692:0.106681
text^hoda_seyfii^president_bakh:44009:0.0939137
text^hoda_seyfii^president_bakh^اللهم:163561:0.0540914
text^holocaust:6325:0.241079
text^holocaust^https:226155:0.188366
text^holocaust^https^x5p3ojflqf:114712:0.0565762
text^hombilious:137415:-0.0335413
text^hombilious^فیلم:119871:-0.0335413
text^hombilious^فیلم^قدیمی:149287:-0.0335413
text^hoor_eyn:54432:0.0687888
text^hoor_eyn^cheshmaak:213901:0.0687888
text^hope:148773:-0.065073
text^hope^waiting:118208:-0.065073
text^hopeoffer:221904:-0.0322121
text^hopeoffer^نظر:117904:-0.0322121
text^hopeoffer^نظر^شفاف:250359:-0.0322121
text^hosein_a_k_:93491:-0.0239963
text^hosein_a_k_^دادگاه:63155:-0.0239963
text^hosein_a_k_^دادگاه^کاملا:180963:-0.0239963
text^hoseinghashghae:254212:-0.124765
text^hoseinghashghae^fatemehbeykpour:923:-0.0369546
text^hoseinghashghae^fatemehbeykpour^این:158379:-0.0369546
text^hoseinghashghae^اگر:14216:-0.0273865
text^hoseinghashghae^اگر^حکومت:19858:-0.0273865
text^hoseinghashghae^این:259952:-0.0625149
text^hoseinghashghae^این^نظر:143024:-0.0625149
text^hoseinghashghae^منی:198712:-0.055368
text^hoseinghashghae^منی^امسال:80717:-0.055368
text^hoseinshefaei:215105:-0.0348004
text^hoseinshefaei^azematt:103672:-0.0348004
text^hoseinshefaei^azematt^دوسال:247443:-0.0348004
text^hoseinvahdani:113447:-0.0631739
text^hoseinvahdani^افشاگری:42531:-0.0631739
text^hoseinvahdani^افشاگری^نکن:84505:-0.0631739
text^hosmey_v:100851:0.00769269
text^hosmey_v^حتمن:43787:-0.0536752
text^hosmey_v^حتمن^بعضی:184562:-0.0536752
text^hossein891:214333:-0.0248874
text^hossein891^سوتفاهم:2943:-0.0248874
text^hossein891^سوتفاهم^نشه:45272:-0.0248874
text^hosseindalirian:259090:-0.0354799
text^hosseindalirian^a_seyfi_hodhod:38123:0.0240385
text^hosseindalirian^a_seyfi_hodhod^el_gigino_97:156516:0.01993
text^hosseindalirian^قصد:232336:-0.0410084
text^hosseindalirian^قصد^اذیت:224727:-0.0410084
text^hosseinkolakaj:111219:0.0399837
text^hosseinkolakaj^mhrezaa:252111:0.0587988
text^hosseinkolakaj^mhrezaa^sadat_m290:253771:0.0399837
text^hosseinskan:25541:-0.0598554
text^hosseinskan^قیمت:183101:-0.0598554
text^hosseinskan^قیمت^الان:117145:-0.0177955
text^hostile:79884:0.0335863
text^hostile^the:223777:0.0335863
text^hostile^the^zionist:203470:0.0335863
text^hr_salehi:138794:0.0339804
text^hr_salehi^https:189452:0.0662891
text^hr_salehi^https^blyvbxuyd9:152792:0.0531518
text^hrsibesorkh:151999:0.0367064
text^hrsibesorkh^yaminpour:165623:0.0367064
text^hrsibesorkh^yaminpour^naderitwt:43009:0.0367064
text^hsin_75:138916:0.0379397
text^hsin_75^enghelabi_57:87041:0.0328739
text^hsin_75^enghelabi_57^tahamajidii:244526:0.0328739
text^hsin_75^issamasiha:113432:0.01993
text^hsin_75^issamasiha^siib_saa:59554:0.01993
text^hsn_hsini:119233:0.148038
text^hsn_hsini^همین:43500:0.0473339
text^hsn_hsini^همین^دلیل:203652:0.0888002
text^hsozecazm5:15761:-0.0224821
text^hsxnbeanzp:207618:0.0419967
text^https:261258:0.165512
text^https^01ucjspw3b:38964:0.0339165
text^https^09psbou2ml:50719:-0.0260001
text^https^09sdbhwsxh:168643:0.0381243
text^https^0p4axu8q3l:241728:0.0357988
text^https^0rcaz9y46i:194173:-1.65589e-05
text^https^0sspzcbymj:136094:0.0317667
text^https^0ts70oqzl3:200521:-0.0491913
text^https^0xjzvtgup5:235548:-0.029974
text^https^1alas57hkw:142259:0.0659033
text^https^1gmdkok31b:135863:0.0421235
text^https^1jkbofruf6:243406:-0.0641376
text^https^1n8bzusdeb:212736:0.0646766
text^https^1osfix2aw7:108359:0.0441065
text^https^1pzqkb5nor:161138:-0.026036
text^https^1qo5dfp2mb:115461:0.0567478
text^https^1r2vyfzwpr:40254:0.0620226
text^https^1rnjlvt7yq:55639:-0.0383114
text^https^1wfq0hreve:128545:0.0490101
text^https^25yp3kgnaj:181573:0.039343
text^https^264fo1vfa1:171670:0.0214424
text^https^2ije75zln7:4124:-0.0125212
text^https^2la7qjhpya:138858:-0.0486397
text^https^2whte0v7yq:22577:0.0755294
text^https^2wjnpdscdx:36495:0.042915
text^https^37ysbq9kka:33681:0.0386327
text^https^38qbyhupbx:1653:-0.0271204
text^https^3cb6ngjcpj:156052:0.0396507
text^https^3cjnhpwe1g:84552:-0.0511369
text^https^3e7bsxktxi:37891:-0.0486553
text^https^3enw8g5mk6:213225:-0.011107
text^https^3jgr6rcfrw:256765:-0.0297584
text^https^3jrsev9ezd:127984:0.0471716
text^https^40zusmwm73:218719:-0.0598498
text^https^44lvbktfrb:232758:0.0404705
text^https^46uaromar6:240479:-0.0082404
text^https^4gf9vi7wol:235584:0.0597185
text^https^4lhqjkwlmy:22178:0.0267367
text^https^4m3qexmnw6:178147:0.0365838
text^https^4wibvassga:150356:0.0275133
text^https^5pwzcgnei4:136663:0.0663986
text^https^5yr8flp5af:258715:0.0435173
text^https^6drf5mo8hw:93703:0.0420825
text^https^6fcwqeseea:43481:-0.05118
text^https^6lrg5r4y3q:31409:-0.00114745
text^https^6nhlb5jdla:251931:-0.0496474
text^https^6zgpevdj0u:217244:0.0520525
text^https^78ioirzk9y:71213:0.0645061
text^https^79wfbxeutt:3793:0.0664947
text^https^7amky82sfa:132843:-0.0671448
text^https^7fo38kbkx4:13921:0.0242943
text^https^7hodwuwa6b:130658:0.0527619
text^https^7mfzl8swcb:3994:0.0603967
text^https^7oaikaxcbx:255131:0.0638814
text^https^7qquw2zlki:155739:0.0690065
text^https^7sjpsvlepu:175024:-0.0610946
text^https^7yk3okizjy:141153:-0.0243928
text^https^81cli4u0ep:106291:0.0339775
text^https^81cli4u0ep^https:173553:0.0823186
text^https^834bvergsj:9639:0.0428312
text^https^8f6k3irupj:12695:-0.0377664
text^https^8iqsizc4xf:52307:0.0534061
text^https^8ixby478o7:95975:-0.0344565
text^https^8qicoclnvv:138729:-0.0288889
text^https^93i39xowm1:251231:-0.0418097
text^https^9bqadrxyum:9939:0.0635561
text^https^9qnfvt5y3p:156172:-0.0348198
text^https^9ymjqsczzy:232112:-0.0380471
text^https^9ymjqsczzy^https:216186:-0.0380471
text^https^9yvjy9mu0h:257725:-0.0639596
text^https^ab23ejfmbc:171598:-0.0366027
text^https^agxcrhhj93:44133:-0.0294628
text^https^agxcrhhj93^via:35396:-0.0294628
text^https^ahumgz8bvp:211752:0.0395625
text^https^ajf9drimfm:15051:0.0407771
text^https^amfhqqzlmz:84645:-0.0296915
text^https^annigl7tgk:91244:0.282401
text^https^anrm8ozqi0:103117:-0.040947
text^https^anu5tcawi1:92688:-0.0619179
text^https^ars08hnzeq:161179:0.0659777
text^https^aucf4823fw:231016:0.0668345
text^https^azm3bvmwro:260611:-0.0280318
text^https^betjjevetu:159644:-0.0252968
text^https^bhpinwgwlj:137529:0.0419771
text^https^bih379avha:249264:0.00186138
text^https^bjtmdumc9w:101592:-0.0416527
text^https^blyvbxuyd9:53598:0.0501154
text^https^bnovljpwd6:103431:-0.0241866
text^https^bu3bcne70z:240611:0.037167
text^https^bwhhoctheg:22091:0.0450246
text^https^bwhhoctheg^endofisrael:170988:0.0034913
text^https^bzdxj3ylgy:21493:-0.0463399
text^https^c4b8x3iozh:169239:0.0615088
text^https^c7cyskquoy:158059:-0.047245
text^https^cddhacgfpb:1162:0.0633949
text^https^cddwhfcqhc:180862:0.0650068
text^https^cgimrcohho:220239:-0.0286179
text^https^chpveam5pm:244520:0.0555811
text^https^cpsc9pcfug:101152:0.0501382
text^https^crvsyc4iko:128723:0.0475964
text^https^cu6ordwrbe:74750:0.0416279
text^https^cvgfqsihtq:215975:0.0603734
text^https^cw62ucqqlh:246718:-0.045279
text^https^d6ifhue02b:40195:0.0318197
text^https^d9cnqgksbg:126848:0.0331783
text^https^dajedkzgy6:61911:0.00584908
text^https^dg8v8j3gd0:44412:-0.0223954
text^https^dmqn4vvgqa:49580:0.0590137
text^https^dno9smvbmz:225060:0.0646517
text^https^dpmix5yn6n:13193:0.0451038
text^https^dt3e0xtqqd:158207:-0.0265383
text^https^du1drgvcxp:115767:0.0662389
text^https^ducyntfxke:61781:-0.0240026
text^https^dukckj8z4r:99411:0.0536115
text^https^dvzuhh6rik:90060:0.0571637
text^https^dxkteooy45:176169:-0.0643276
text^https^e2a22b2nj2:236782:0.00898896
text^https^e5zyd8vga3:131688:0.0647958
text^https^e8wquizqyl:110595:0.0339775
text^https^eaquq2twce:68630:0.0428726
text^https^eby6lmimne:29521:0.0404927
text^https^eby6lmimne^https:69527:0.0404927
text^https^efegpoeuxw:23631:0.0323227
text^https^efk03zpdau:275:0.0663146
text^https^egqz8lhppy:149655:0.029048
text^https^ek6lbuifrl:145873:0.0573714
text^https^enzxxg05vk:40275:0.063263
text^https^ephmcs3qke:166364:-0.0418939
text^https^eqzq4bacng:3359:0.00394695
text^https^esyl8z99lb:254644:-0.0578732
text^https^etiwgaohqn:166925:0.0658671
text^https^exchs7qcgo:64340:0.0627074
text^https^ezsdqxciph:207907:-0.03264
text^https^f51jxnm64t:19991:0.0540322
text^https^f51jxnm64t^https:224581:0.0540322
text^https^fd0sfprsms:245083:0.0632325
text^https^ffu16kma2l:24783:0.040275
text^https^fhsqaegd75:230590:0.0385288
text^https^fp0oojmrmx:255900:-0.027537
text^https^frb78pluji:258300:0.0315699
text^https^ftdxy0xw90:85724:-0.0463319
text^https^g72u9yulwm:152580:-0.0404631
text^https^gepihtfkaz:30639:0.0158216
text^https^gi8zb97uh7:59037:-0.0560969
text^https^gi8zb97uh7^https:151987:-0.025192
text^https^giwphrvswa:41478:-0.0416583
text^https^gjb4uqejwq:64588:0.0650809
text^https^gjk1skm3xg:78900:0.025214
text^https^gkykh1wreu:16176:-0.0265626
text^https^glhasfpiw3:124683:0.0325381
text^https^gqe5iq3ccd:53843:0.065598
text^https^gswildkksd:82557:-0.0457007
text^https^h2qvywqtem:33270:-0.0363021
text^https^h4l7gvxjy4:250807:0.054003
text^https^h5kd5lzkua:188732:0.0332917
text^https^hammbhayav:124670:-0.00438801
text^https^hd93surj9a:198982:0.0513965
text^https^hdoudtortz:183169:-0.0230058
text^https^hftrscub1h:129127:-0.0356436
text^https^hghzdlen1f:126753:0.0653814
text^https^hh9gfmplkj:61029:0.0578151
text^https^hiwxbgboce:156594:0.0056109
text^https^hkagg9xvky:81912:0.0338416
text^https^hkrvdnng9f:135253:-0.0514154
text^https^hktgpfqwob:218605:0.0264238
text^https^hnfbg3ccem:23073:0.0357881
text^https^hnj2btk12o:179778:-0.0894253
text^https^hsozecazm5:158195:-0.0224821
text^https^hsxnbeanzp:87908:0.0419967
text^https^hzgi3b8so2:33230:0.0206895
text^https^i32w2sfhey:109522:0.0270478
text^https^i3jaeufpod:64940:-0.0295868
text^https^i5vq3r9y2o:143569:0.0332103
text^https^i9d9yau5pw:210841:0.0399064
text^https^ibz2tlkcmp:139325:0.0257445
text^https^iderodmrab:1964:0.0315592
text^https^iekyckzgez:52245:-0.0482444
text^https^ighidkyg9z:194527:-0.0542446
text^https^ihpmalmgit:206316:0.0498379
text^https^ijygj7cydvحفیظ_شریعتی:161465:-0.0391622
text^https^ikiqm9tyxv:184609:-0.0285148
text^https^ilgpsxn8on:969:0.0393588
text^https^iof1le7b3v:80642:-0.0377186
text^https^ipcnuqoxvz:171786:-0.0357565
text^https^ipg7eltyh2:129671:0.0399477
text^https^ita01q4qy5:119826:0.0232022
text^https^ivhrlpyro5:131365:0.0440177
text^https^iw67hxfm1r:43146:0.0484604
text^https^j01wtfvcdu:204123:0.0659069
text^https^j2hrpyidbz:176036:-0.0398779
text^https^j6mfwbfaf3:165142:-0.0424745
text^https^j6noaiejei:200551:0.064903
text^https^j8whpwnknu:91085:-0.0482598
text^https^j9ogon8asf:185089:-0.0529687
text^https^jackkgfo95:57501:0.0413836
text^https^jbp7dezoyj:110289:-0.0471456
text^https^jcdupzjhvc:201747:0.0287145
text^https^jfflkaawjo:129400:0.0170387
text^https^jggc3a8x8n:197100:0.0338864
text^https^jlexnoqnjt:68583:0.024798
text^https^jrn7xllkyh:49659:0.015877
text^https^jurystozjf:108497:0.0276321
text^https^jvq4aywhe5:225206:0.0578388
text^https^jw0k0l3o3k:208622:0.0412375
text^https^jy1vdkqnxt:49935:-0.0384701
text^https^k4xvrzieaq:228391:-0.0248091
text^https^kaynsrnj1h:82424:0.0347225
text^https^kbdza1bl9t:172380:0.0621541
text^https^kdlt14zjqn:122058:-0.0463818
text^https^keehhknbd8:53568:-0.028624
text^https^kp2gre6i4h:228979:0.0640387
text^https^kpitdplfnf:204286:0.034406
text^https^kscmu7lwj2:131233:-0.0236675
text^https^kw1ozljaig:4960:0.0245102
text^https^kyhg1zzkez:231002:-0.0325305
text^https^l1fdozoohv:5627:-0.0488906
text^https^l2zbsdtlay:221843:-0.0543201
text^https^l5gullccvk:174867:-0.0437887
text^https^l5yjjm5fld:213337:0.0370126
text^https^lbogifqgbk:190072:-0.0695182
text^https^lcdtruqwwp:37827:-0.0269726
text^https^ld3qr8mmdx:172404:0.0442985
text^https^ldehguufjq:18288:0.0283035
text^https^ldvifxtwub:110459:0.0336222
text^https^lgtm2zkut7:237875:0.0559885
text^https^lloyzslnyv:25995:0.0604412
text^https^lspepsopzf:218081:0.00248386
text^https^lveingkd6s:155937:-0.0135406
text^https^lvzfmo4j2r:224119:-0.0342947
text^https^lwj16ka0r2:116891:0.0515382
text^https^m1jutpzeab:208869:-0.0293619
text^https^madxtoxgxl:240528:0.0405916
text^https^mbtijh38c3:78412:-0.0287046
text^https^megoqpbcdg:10625:-0.027058
text^https^mghv17x65v:102333:0.0404927
text^https^mhxeljanng:72064:0.063079
text^https^mimbjpjkro:90559:-0.0295463
text^https^mj70bfnrib:235893:0.052904
text^https^mjf6bolsre:79226:0.0614486
text^https^mjz8nbsx1n:171093:-0.0554961
text^https^mm6hcz6aje:18482:-0.0666515
text^https^mntoqjlcta:104296:-0.0389257
text^https^moafqnffgg:171653:-0.043919
text^https^mr99rvzefq:51909:-0.0416807
text^https^mr99rvzefq^https:77115:-0.0416807
text^https^mty60vckxd:187114:-0.0242679
text^https^mz09kc1ztz:155308:-0.0258657
text^https^n4imrd5qk8:33350:-0.0253659
text^https^n6oxlm4pbc:48628:-0.0608115
text^https^n8q0rkaytm:75695:0.0443876
text^https^nb2udiqgq9:170662:-0.0256334
text^https^ncshxtb8dc:133324:-0.0291848
text^https^ngrb5vxcu4:235141:0.0518644
text^https^ngx37ormhg:205507:-0.03114
text^https^ngx37ormhg^https:92993:-0.03114
text^https^nilil9vmjc:86799:-0.0253941
text^https^nilil9vmjc^https:161373:-0.0253941
text^https^o0h0lseotl:17908:-0.0251913
text^https^o1d4irdohu:203398:-0.0233017
text^https^o2f6sefzja:150945:0.0512948
text^https^o3mkpk9try:42775:-0.0230456
text^https^o3yxosu5pc:204538:-0.0249554
text^https^o78sxgl5i6:149247:-0.0640935
text^https^o99olcqldc:151269:-0.00481248
text^https^ohk2sri6yl:77922:-0.0651688
text^https^oit7sthav9:76504:0.0254554
text^https^ojgeropb15:171528:0.0743795
text^https^ot6xbhn462:160009:-0.0364471
text^https^ouepslotyl:157351:-0.0289083
text^https^owr4wm0obt:221841:0.0658397
text^https^oyko5fh12g:255699:0.0658778
text^https^ozamz7jhdq:231970:-0.0596822
text^https^p5jubxnjen:236510:0.00364936
text^https^p8ioflvn5c:91771:0.0531136
text^https^p9ekj75iyr:78841:0.0658809
text^https^paelkzezyr:117644:0.0392392
text^https^pcehejrj2l:57100:-0.0411051
text^https^pfnlhtgrv4:49562:0.0431312
text^https^pfxasjadaf:79109:-0.0380471
text^https^phxtwars3p:132766:0.0280491
text^https^pjn3uktgmj:96302:-0.0562269
text^https^ptslbr7nle:10061:-0.0600983
text^https^ptxmpuqn3p:114249:0.0583969
text^https^puzkxmelny:68672:0.0629456
text^https^pwmckethac:161506:-0.0578111
text^https^pxn0c9bhps:118274:0.0286495
text^https^pxrkvf52sl:171830:0.0571778
text^https^qb48e3o5lp:178712:-0.0455203
text^https^qc5zzox5fc:213166:0.0463928
text^https^qfu7y8u2ia:220363:0.0285035
text^https^qilsxrozt9:52329:-0.0522612
text^https^qj02w4un6o:124795:0.0410894
text^https^qlf8aubcct:142159:-0.0611761
text^https^qlwmxnu0uh:157355:-0.00334935
text^https^qqzhgqe7uv:159997:0.0354884
text^https^qtnxubyyov:79334:-0.0411423
text^https^qu4vhc2s7b:96142:-0.027771
text^https^qu4vhc2s7b^via:134601:-0.027771
text^https^qwftwm77jo:60564:0.0627167
text^https^qwlvssdrfc:156779:-0.0498059
text^https^r4mfqezfe1:160562:0.0265477
text^https^r73haeuyfy:43604:-0.065095
text^https^r8yxrv9syx:148064:0.0638187
text^https^rdtgg0mujx:183293:-0.0595772
text^https^rj9rfa9big:90178:-0.0358821
text^https^rmjwe0ahom:91775:-0.0348499
text^https^rmqtahnnyw:176476:0.0256565
text^https^rq48bki8as:123446:-0.0609446
text^https^rtmbxw8orf:143735:-0.02631
text^https^rtmbxw8orf^https:238373:-0.02631
text^https^rwdeyycjgy:155710:0.04177
text^https^rxlu19ahud:189486:-0.0416807
text^https^s07cma9ekc:143623:-0.067612
text^https^s2hgrp9ube:203206:0.0368453
text^https^s3iszdfnts:82838:0.0658834
text^https^s4ujbgbugz:33149:0.0115035
text^https^s5twcf3rsq:224868:-0.0596458
